{"layers": [{"size": 128, "input_size": 784, "activation_function": "relu", "weights": [[0.017467804515298058, 0.00241796949245781, 0.004154896764418129, 0.015020311530275228, 0.009236755755018781, 0.005148546367143878, 0.0002339516795589598, 0.006846429453483064, 0.015139514526988956, -0.00978164653483345, 0.003521702905325084, -0.01746073057043549, 0.01637577027752584, -0.008802045054000611, -0.007457537089086041, -0.003923652742057537, 0.0013982157924645653, -0.009675725576649273, 0.0054766582965444024, 0.009399297734588696, 0.011363761053193422, -0.014799653659072319, 0.007951925903750165, 0.001850864699017471, -0.00025410705712951244, -0.0059278246558445696, 0.003627908871605705, 0.010914281018742958, -0.0055669948021418785, -0.0028642881555664794, -0.0007989471658474286, -0.01612846737544641, 0.014370806608331224, 0.015436604650556839, 0.010237523002440572, 0.015917428774691277, 0.011594187644831869, -0.001920930382038516, -0.005860124674000689, -0.021120247176106024, -0.000574902775861362, 0.02335412876968015, 0.0029508846824384642, 0.010634366186122663, -0.023168467410816844, -0.0024819600902653317, -0.01391860642927126, -0.021076387744363285, 0.02886002026846854, 0.005390705497969875, 0.013953706155486172, -0.0030854526583071118, 0.023106332306549092, 0.011271270444574726, -0.0019086290242236053, 0.010161777867660907, -0.0006163327676373659, 0.006765047116189499, -0.011861270617715533, -0.005997888184438539, -0.0029144846958520727, 0.008908175291070877, -0.010284333424621728, 0.010303588606804102, 0.006191432033307576, 0.0038061259750156824, 0.006495757735141719, 0.003141061801465972, -0.018242211039863652, -0.012933843662529204, -0.008439371528960822, -0.007050937797405645, 0.003706651219311291, 0.006670448903754969, 0.006533886704529735, 0.002586023463339258, -0.013466505049763749, 0.00150698787722886, -0.016475645383980782, 0.0021321968798988303, 0.01630252851035944, 0.0027486353325572345, -0.016653888474132742, 0.00020185015072380404, 0.014823358398583677, -0.025396399266907593, 0.007119140061656409, -0.01747154982983211, -0.01246082308636073, 0.010228267730547634, -0.010922353683258954, 0.002894395102408111, -0.001395513756505177, -0.012515217149201951, -0.0032161910130740455, 0.004177154344547758, 0.013905970877242099, 0.005606728898747148, 0.00947346223101856, 0.008055461698303663, -0.0016353242877292118, 0.003030159490788682, -0.009555070657896785, 0.005406883973310623, 0.014618575975179514, -0.011975287013801843, 0.01864133201839737, 0.006980731116530337, -0.01221309975260816, 0.01161920125999803, 0.007828326243205914, -0.008264838713617325, 0.007582660839646729, 0.0036468014877419075, -0.003936373011466682, 0.005502866008175865, -0.002791631233412259, -0.013029735666526984, -0.0014767874255150447, -0.0026460845217426915, 0.014997642321952318, 0.0013836464550022664, -0.0006313592011645118, 0.00652933930808951, -0.02414457032950672, -0.01722314675018487, 0.011069139471273253, 0.007301996849962907], [-0.01413073365468958, 0.005336187534989636, 0.006077829569550956, -0.015935200185579774, 0.004128959268109238, 0.0007746701760429607, -0.004347873984086884, -0.009140164448652136, -0.0017227459679741747, 0.011803667852412443, 0.005423342191345216, -0.01266388488564949, 0.0064980399981304626, 0.002898178618477955, 0.00793476514219459, 0.0006154766250190013, 0.001456982603902972, -0.001455624871705385, 0.0033114523956018515, -0.0016248403506230772, 0.004043557269858277, 4.856971654414564e-05, -0.01711454395194411, -0.0026133520037844417, -0.00999396552362179, -0.003654189548444336, -0.030668125688295418, -0.0007555212001402029, -0.008259098165449077, 0.013190842238378445, 0.004815099162964035, 0.003481124055364925, 0.0028730468973227935, 0.0034553141639945923, 0.004607582959873324, 0.007413044797801809, 0.00013809785200052179, 8.665906323851968e-05, -0.006781608754549594, -0.01320617092575506, 0.005418190287341501, -0.002536680115918676, 0.0034283483452647073, -0.01148280056362877, -0.01564172881580526, -0.013758613896154372, 0.00674276088499217, 0.006471896237841238, -0.01796740396201686, -0.0019026239574193118, -0.0004095813765018938, 0.00041363559081010915, 0.0015503462964196418, -0.020249481902737655, -0.0026625423885264904, -0.0009586235237455496, 0.0033098949515606873, 0.012743519974128892, -0.0037684349865896934, -0.011003682710824848, 0.009796561787792148, 0.00690709189732611, 0.00813430977736621, 0.0007725972000818712, -0.016251087623354397, 0.00041336461535985145, -0.009627084775426138, 0.0024302826584197044, 0.0017690415757735253, -0.0008343649516366858, 0.006667958211118464, 0.0028929646523460474, -0.0050963882161416795, -0.002025226010453413, -0.006088523150610474, 0.007254711870299756, 0.001613317073725125, 0.0041060514924792825, 0.0008179885921977229, -0.002538201294224611, 0.014137047824137558, -0.034849057657338915, 0.02075326980416229, -0.00454200965897996, 0.021522263300553214, -0.0013460723525889637, -0.020805311200033257, -0.0057513596764516865, 0.0017013377609294415, 0.010185462011207807, 0.029026514663195196, 0.0002072376985368072, -0.008564014331435547, 0.015496095599184861, -0.01350971908042145, -0.02655934119208454, -0.009377370695349252, -0.0002750320061136723, 0.01147026429620544, -0.0024509036572239414, 0.014398155379207496, -0.008418734274281501, -6.555186818438556e-05, -0.00896007541465584, 0.017946126357454115, -0.006978329761885937, 0.0007506273560626562, -0.005638022803013667, -0.010429433298420757, 0.007528338571981328, -0.005754611933434179, -0.011166136303233612, 0.019680683054680088, 0.0006046723120763153, 0.01224855371612364, -0.00031626962968257636, 0.003622312663701481, 0.00019882617459323625, 0.0025165427550383522, 0.017805820140277824, -0.013398546265493014, 0.004587993860431937, 0.009141232542742858, -0.011762969732496572, -0.003674356370447296, -0.006496126723139661, 0.02406545005822332, -0.019695461476480554], [-0.004115904231668567, -0.0059531446002121435, 0.011507769646246233, -0.002948547388161044, 0.002449839017287179, -0.005786279947125917, -0.0011654859535890228, 0.00036564383815157844, 0.011423829830370897, 0.00039919266722883347, 0.010783235081599625, -0.010185145253261777, -0.016217199787677522, 0.011208988947520012, 0.0022228381338374767, 0.005047988727136177, -0.0005509105709533476, -0.014052670111695961, -0.019012026523093757, 0.001979187888365984, -0.0015510632676364329, 0.026120213066407924, -0.0003961382657843577, -0.0039262870308371545, -0.00027497460193192237, 0.029579902511203394, 0.016268105999229673, -0.0059019896008013694, -0.00319574139614417, 0.00035836230210300335, -0.0012878108769116426, -0.0055847937621973966, 0.0004412713333467473, 0.013530893854833954, -0.014372854130265556, 0.007406684626519551, 0.006768565414951905, -0.006726252207426901, 0.01988043079087773, 0.0006360479873131613, 0.008931281573676031, -0.018371282505751867, 0.0010941754229227348, 0.011047352835293215, 0.002795093910526083, 0.004010307718573912, 0.0013110022364016718, -0.009800536877511881, -0.018384673222900386, -0.009006299300043234, -0.00493001828542082, -0.007277523842907512, -0.007048318352711001, 0.0062268433898599665, 0.0020594457913062207, -0.004358034940990212, 0.013689679479872836, -0.0076310839329492884, 0.004985741895889814, 0.004405102752982666, 0.002794560194876402, -0.0018325859738768568, 0.0012813144096231284, -0.006037478521280809, 0.0025298514293518215, -0.012141314758739299, -0.004705325208199552, -0.004012690998169232, -0.01193536838059633, 0.007507807782197609, 0.020847640006889732, -0.0025822447671473604, 0.005316029026906488, -0.01020263694166142, 0.004500283305553266, -0.01750158129761394, 0.005269948301472579, 0.005699025348963004, -0.0010035538690418985, -0.008629917668986735, -0.022014699843723128, -0.003660005663951948, 0.006582016561321179, 0.0068678780703926995, -0.0004446246981038097, -0.00046117760100725764, 0.007915183031071131, 0.0058346027013537315, 0.01142244933360592, -0.0061590634222575425, -0.0068309135539744385, -0.0007835987419024578, -0.012160025996703263, -0.007596979252843278, 0.013362532197122941, -0.006840546977888479, 0.014751499592884165, -0.001893900398476771, -0.01709633262392682, -0.0030405045488793485, -0.011570785049995473, -0.02329101505886897, -0.006403025136787723, 0.014059163515570032, -0.007226724348633327, 0.01521056730696097, 0.00866061484090895, 0.006961480656933165, 0.0051529835805673285, 0.004239867310082383, 0.009190413302668933, -0.0012559025922712806, 0.007782137879567246, -0.0025327372934088196, -0.0015175811500976039, -6.551288303841992e-05, -0.008574601607118773, -0.004318637846964234, -0.003498600078298461, 0.002584030769679458, -0.0029093486209341188, 0.005717637430327794, -0.0126327337107744, -0.007838459499312127, -0.0029838898148896236, -0.004921218953075427, 0.013143112975042717, 0.010059696695817005], [-0.006684139258879139, 0.0038064973381360286, 0.01769399247917242, 0.006670904791153406, 2.8646645276527764e-05, -0.002574248326030261, 0.017151787810922924, -0.014614665363004417, 0.005178358760547162, -0.010416001872668737, 0.0012442904088352227, -0.005155485348819474, -0.0035743698400480034, -0.007422974925121427, -0.00728935883386717, -0.014282641414026798, -0.006650468498360859, 0.008333622135923136, -0.00674866560795832, 0.004973691481254237, 0.005090950728980815, 0.008416798385474636, -0.01159943571005735, -0.00890099430392005, 0.0030924856423793484, 0.0057067249704175335, 0.012153873651740062, 0.01705745323397398, -0.012035641437614738, -0.0033159284720999938, -0.015114223907307224, -0.002417423607162366, 0.0005964289753442778, 0.015131490019519545, -0.00493074385541901, -0.01041531369619776, -0.006292093467010711, 0.009786124267794842, -0.00755985250537248, -0.016048511364534716, 0.012592630507211463, 0.0034228090524727364, -0.008283845336476511, 0.002454638799996699, 0.0035519690249945146, -0.001968351507409705, 0.005272783852247695, 0.008911679351556774, -0.004336168942501248, -0.006445661105450032, -0.009670182673765666, -0.01778555790417263, 0.006226708065488192, -0.006059037890409607, 0.00870515717474732, -0.0026340626662090306, 0.006865044511065917, -0.010295042366325153, -0.0014893399275578444, 0.0001265495243997789, 0.009867858498106438, -0.010899253585734198, 0.015457946992379004, 0.012140718280456748, 0.016277313404833644, -0.010375983913911643, -0.003304425495991162, -0.008608074423848656, 0.002559309703330322, -0.007123555057253459, -0.007413521977926233, 0.004078401618851729, 0.011576162160011233, -0.009266975250811577, 0.003357310373749892, 0.003757853644146891, 0.010314624279494165, 0.005843943556726868, 0.006224428630275451, 0.00844016614678922, -0.015748515885231257, -0.00686955609952271, 0.014741476107568747, 0.008848541428515537, 0.00114297377268551, 0.00915581774243317, 0.01160054682675733, 0.01354705634577746, 0.003921129690793165, 0.018564005234800226, -0.006945108123061674, 0.001692400928214499, 0.008873395313518549, -0.012260656424466164, 0.017882500670125093, -0.0043395736494011555, -0.010502102605765602, -0.002268800328994872, 0.0016842859887152336, 0.003183702182327303, 0.013470675747832004, -0.009157606785344772, -5.345611191551448e-06, -0.0127992670971498, 0.01334479944045353, 0.008115583231377455, -0.00036713208453898215, 0.000405584667694479, 0.0026274738767823823, 0.0020047743594891858, -0.007613401211552032, -0.011393878135225455, -0.002523377879866837, 0.0064773920747704244, 0.008617068352231794, 0.008148783093474575, 0.013132375466621478, 0.010282733831594034, -0.011992422271886832, 0.019163404553643765, 0.0044404937052800455, 0.007572610010920978, -0.006151858496152749, 0.0005613543925311542, 0.012659509254856807, -0.006191097406653606, -0.008310497356475667, 0.015533648227655473], [-0.0036472501042210197, 0.004391417100573632, 0.00652899179171185, -0.007614080063827473, 0.004202157530273566, -0.00034301445254756864, 0.012258922488483964, 0.003910806696252626, 0.015607002013420133, 0.0014746904411209899, -0.01077185589935095, 0.0012771059490868956, -0.005246561865094125, -0.010150939466560528, -0.010223651055413898, 0.014923855797979025, 0.0064582943083200586, -0.0008627493177296673, 0.004581160590819616, -0.01478105330071777, -0.003987759921042383, 0.012956431775474673, 0.00735764031898685, -0.0017944069592245046, 0.010152841425961479, 0.0003813246989379941, 0.01491981934356316, 0.008072523255245002, -1.2228169422472403e-05, 0.007118572310578077, -0.00013378550439323633, -0.009811558710113685, 0.01983048962366884, 0.008313838904013018, 0.017841203674575506, -0.016065326901461136, -0.013019083292366979, 0.011365779115045325, 0.012184775131328466, -0.018537025103433597, 0.009170078146846375, 0.005040334021474091, 0.012567544234454582, 0.001335418866403751, -0.005463773801316898, 0.007752324637858189, -0.0003282960114937976, -0.01734756076994373, 0.00120636173530008, -0.01407876467545433, -0.006844174573014307, -0.008655125498009949, -0.007481509966277665, -0.005372116043351081, -0.0010259218066179423, -0.017572494384553293, 0.0014707307459255984, 0.008367209837612207, -0.0068565000920118415, 0.002971487047600672, 0.016731904123158742, 0.007519846796046583, 0.005862252906928925, -0.007251937474426632, -0.00287267231318372, 0.0015573219985069691, -0.003173454410967724, -0.011400234601119942, -0.007900343364736516, 0.012285460857478782, 0.007742386435547575, -0.00474786380826236, -0.007306566609295314, 0.003249992078740787, 0.015653683201289372, -0.014051292693507553, -0.009063964183818427, -0.0030242925691613505, 0.02051783814766943, -0.00393575988798897, 0.0049759149921736875, 0.003552721017712091, 0.00665160784324056, 0.00432914605559169, 0.004218572446469304, -0.004608798114081389, -0.011211711351802819, 0.007719639470596634, 0.009677094261114736, -0.014453424830081834, 0.005473440006387536, -0.0013298751212940923, 0.03538893244049891, 0.002583255329615521, -0.006572481793315967, -0.011231993905538393, 0.002806484290322637, 0.0017665087272322544, 0.014499260179895368, -0.00035550184995274326, -0.01365311402925745, 0.0008344765450099683, -0.014736803982859387, -0.01509135101312843, 0.0025854418718071837, 0.006792122800078155, -0.011115398864583688, 0.005357122086268211, 0.0073633515174894824, 0.007565785590443525, -0.009330116186865023, -0.0047688599585680915, 0.008719204816962069, 0.014937735937897663, -0.008960320442463443, 0.013517478200711669, 0.012168161356242687, -0.01170488802876902, -0.00547595606702985, 0.007569211305388953, -0.0010688015862061952, 0.004305384656227313, -0.008286788165166887, -0.0007367741826845623, 0.005445414022599256, 0.012985972817863343, 0.013758758338839543, 0.007141795998774577], [0.0009796518013937172, 0.004741459775486737, -0.0037737782462507236, -0.0006592120969962977, -0.004239562753228758, -0.012351365811546252, -0.011979847563551003, 0.011972291375643611, -0.008336028485231866, -0.006484135945877133, -0.005006907589765649, 0.0030204697106896317, -0.00027472084562627706, 0.012090481921928022, -0.0030255751734207526, 0.002978233279463409, -0.00307866303458024, 0.0024321672485632245, 0.0031297691458735317, -0.002016701582132623, 0.007877254402031885, 0.009276330003580947, 0.00236008245350437, 0.001288450334756137, -0.005835798003930009, -0.0014015246130998826, 5.348132416095102e-05, -0.002881555713551287, 0.006011159949579122, -0.004913601576942662, 0.011428451761372938, 0.0015812400520679895, 0.008087525382021232, 0.004146214369144421, 0.009935843917045857, -0.012300788128250464, 0.0009685191845054427, 0.010585981697311593, 0.007332348624095454, -0.008692554143226318, 0.01707466618034267, 0.0006829382888131852, -0.0025604724951940362, 0.02474304699495229, 0.0036389498283865545, 0.0013826825940752036, 0.00038911935094246855, 0.0017333997712925004, -0.007871748657817939, 0.015291757587420629, 0.012846425396189012, 0.006822771412301998, 0.00408945900623406, 0.019644054452811043, 0.014172317514501978, -0.011290954376983622, -0.013423674292030568, -0.01222713161514301, -0.004287787762279466, -0.0030283756361104415, 0.022077522207153512, 0.018895455018159552, 0.0004847977752169922, -0.016280307290174684, 0.01185393745188922, 0.005541839832047086, -0.0023029416612733665, -0.010956640557586635, 0.01581889578961527, -0.005498234331462805, -0.001699967848724383, -0.013007494467970112, 0.00854471825008448, -0.0014268644790629615, 0.00427658097316319, 0.00259696796487173, -0.003182524882501599, 0.0009288809550412168, 0.0015408746277774535, 0.004809943251531111, 0.0006625215680175641, 0.008466252610766443, -0.012918848036660175, 0.0028775785412888557, -0.004445488832221256, 0.012612899617397217, 0.00595669995080021, 0.0016166939972427847, -0.0010746926416083577, 0.02034187917466281, 0.0004044670234536862, 0.010666051279764879, -0.01091147030822781, -0.004482199866051196, 0.0019928107355756523, 0.01254783982190432, 0.012560993851209757, -0.010618588722560798, 0.003915365011775038, 0.012773560489377625, 0.0017480207246813573, 0.01683031523571263, 0.0030565301925160617, -0.003407509271902118, 0.020384900651851067, 0.009817171426466263, 0.002638174443554226, 0.009054887956625946, 0.00358076332134471, 0.011241615731778752, -0.009337717498848182, -0.013022980754186696, 0.013519217434851896, 0.0034704552769654257, -0.002002824854477083, -0.009075785511546194, -0.0020347930307026275, 0.0042427053476873176, -0.00334287937500202, -0.0007983101889088711, 0.0042868135075298346, 0.001694191054045334, 0.0027560453731998802, -0.010819460020227765, 0.0020201889909141272, 0.0017107717819444383, -0.011415308679923011, 0.010421218415533116], [0.006430547156273043, 0.005298880136490488, -0.002207625153426222, -0.007628093995546045, 0.001292985557298173, -0.010991555346550455, -0.008778087175034019, 0.0027375572656004573, 0.0061364102373203154, -0.007298148366370883, -0.004654948419798434, -0.002152201080585644, 0.01075864596891548, 0.0008276745301677509, 0.001888965724335932, -0.0012638720197622221, -0.005400027060900348, -0.002877474015573305, -1.1134095362842623e-05, -0.0025993611172904535, 0.011452849510456027, 0.01015014722796803, -0.0008869373256420607, -0.004499982848293559, -0.0021243281446448746, -0.005479277508036031, 0.008043965514007911, 0.004227587575815878, -0.010620599399453338, 0.005236463433759861, -0.007115240009202023, 0.004510403158907402, 0.008716284576071175, -0.012097060021956912, 0.00784932195139793, 0.012456068563212058, -0.0009571796404490499, 0.011436729635806886, 0.0129800372281955, -0.020396148410944517, 0.0003710796169455423, 0.00150539183072049, -0.003758426293748626, -0.0005272063709137701, -0.013553137718859732, 0.013211331551114137, 0.005518089630775961, 0.007584210394179811, 0.0005376516511973334, -0.00489727943652397, -0.01980929633309254, -0.004462300538830791, -0.010034230426943217, -0.0015354766086324704, 0.0026681033459363098, 0.003790788557281694, 0.0015985333928336051, -0.0017582834507599392, -0.00624818071828432, 0.0048934628856714115, 0.012445131973132368, -0.005132297380679447, 0.012208398002793268, 0.004996313048479237, -0.01962842212842825, -0.0002379053303598851, 0.012985081732295588, -0.02439199077000488, 0.006804335925045021, 0.000472541024217583, 0.0002941535873465742, -0.012653755798391285, -0.013378578548395371, -0.004269357449030164, -0.011792659257717995, 0.0019555658452289552, 0.003253808154643608, -0.00958390591972171, 0.004944705563045232, 0.006426149428463312, 0.01558077819456158, 0.0011144523092698848, -0.018736392711548158, -0.008887869542757183, 0.007134953130713427, 0.002557491239942006, -0.002192580117043263, 0.014671490996570946, 0.0005845940014392766, -0.005105116215533133, 0.003015423683566818, -0.0021532743246122726, -0.00023871329411161824, 0.011941920583105113, 0.001708958079647552, 0.009960957220376826, 0.010575188620883911, -0.009328401313445301, -0.004713014146162887, -0.014002060862716808, -0.011440750810658658, 0.010157468200837436, -0.011216814791877068, -0.012942761692712908, -0.00393009186493339, 0.0036909353027343456, 0.02087872168696466, 0.011480941544730587, 0.005373637898466832, 0.015121163484258357, 0.0027207598599891486, 0.008536755880215848, 0.02148909297759499, -0.015914900678329534, -0.02016507344713257, -0.013016734804469195, -0.0019396739146725034, 0.00581711231326909, 0.01263439518972149, -0.005923993748869965, -0.001758569060969259, 0.016601711087344, -0.007323239138909858, -0.01676776973582394, 0.014753259244277965, -0.00876242198628017, -0.00822895982829401, -0.008266650209914468], [-0.00572607781121355, -0.0006802814796804884, -0.016563949277125088, 0.005462574958637041, -0.0008631574670047427, 0.01998099343355093, -0.006324799288900479, 0.0029584897964869726, 0.007315783117460053, 0.0010388892213411133, 0.010185822959106678, -0.02478147668602635, -0.015314039233274037, -0.004465254369500367, 0.0033536595394739973, 0.005641296237085305, -0.00396570686319182, 0.0019082177484818468, 0.0005063810567131955, -0.0035953061987900976, -0.0014592762806560913, 0.011367044049481667, -0.010592588701562723, -0.014420540334812668, -0.0031088140338466075, 0.011193660545088501, 0.002154578426699617, -0.008488601130856487, -0.01278427983716203, -0.0022890307867581266, -0.0002257555809663287, 0.0179563706738705, -0.0022142184082473257, 0.004958597712821311, -0.007218569258654814, -0.00568844731968562, 0.010913240689234875, 0.011638248770458923, -0.00129190933109425, 0.008571427597630868, -0.0023373528189111303, -0.012365286417691239, 0.010780203019716026, 0.00512098540142776, -0.008665951208138567, 0.015302495789153214, -0.008862893783983103, -0.012923763980705527, 0.010231964845806574, 0.0031673092952340894, -0.006207053005461727, 0.009429452574747327, -0.004782470281481996, 0.012727698577929578, -0.013910100119582568, 0.017678232491184342, 0.0009020736995758686, 0.0039755334716988265, 0.0008120654638316701, 0.0015261393065037336, 0.006389031965056413, -0.00675375771470309, -0.01648226841913745, -0.008729152313284114, -0.0015514527810561087, 0.013369025498083886, -0.003181452343333966, 0.0030068505571838773, 0.018323535838473726, 0.0015912280098055224, -0.004739443540757644, 0.00448901438570488, -0.0009341144189281537, -0.016886769737852986, 0.008571670758665445, -0.011581653885074537, -0.010812141592249844, 9.60821477325244e-05, -0.005038031404532109, 0.0014331517519017892, 0.001371328620941385, 0.006130203124902456, 0.010731531301638833, -0.01824062263584372, -0.007636809967567138, -0.013491955606357273, 0.0077524748563710276, 0.00019214625237350214, 0.001867011443931853, 0.00937515547115615, 0.011819961088732624, 0.006383116059037032, -0.01345560468236839, 0.019485932974977162, 0.001458609880952143, 0.01209297631420241, 0.016695103395263932, -0.01791142370900014, -0.0076833414755981926, 0.0042948561953571295, 0.012592198220294969, -0.0013567489441694716, -0.005789192364499589, 0.005347370779858649, 0.009351533766912114, 0.006025621292075778, 0.0011583562814827374, 0.012740277009355505, -0.012262713313723878, -0.0056840251610886725, -0.02413601201295724, -0.003796001061122631, 0.010298292473855379, -0.0033506846389269335, 0.006482131256999524, -0.004173034394957737, 0.02417903752689134, 0.005344608761781076, 0.012790073855603275, 0.0071083000939930864, -0.006105580786351149, -0.02115456734582785, -0.011646497038321213, -0.0038789811408370197, -0.010161822766365904, -0.012442297084533888, -0.0037224879587575968, 0.0013861333526842849], [0.00034982163711896246, 0.00306676878759218, 0.0035804286360404465, -0.015858646257858943, 0.007023852813125357, 0.0010554677083727836, -0.0014549155166192801, -0.0018715144182987176, -0.00018791935964437102, 0.0021110969792211983, -0.0021839190947838824, 0.008596424530828026, 0.001105725965087519, -0.0047978325024066685, -0.014566677740264398, -0.021466071580162924, -0.005034751197680915, -0.009442793029615568, 0.009579544047910019, 0.012272946049400973, -0.003022767004751695, -0.007159498228871075, 0.01301123014525139, -0.011775454590474035, -0.014648154723909963, -0.010639466373701363, 0.00890497767948713, -0.0046058938368496154, -0.007059719387592161, -0.004771774659210846, 0.0008016369858111787, -0.023550789476746256, -0.026293988635868244, 0.013473057567560549, 0.005819786432700509, 0.00623417011267971, 0.0061632321273006, -0.012107389082319122, 0.0014066915834445206, 0.0006021273126083405, -0.02949670455228889, -0.013128769423929995, 0.001132696783016798, 0.004214984113375814, -0.011269244088101815, -0.012747955748943282, 0.018650426844969245, -0.0006603401945584268, -0.011081787509942584, 0.007875396263234245, 0.0056942510226064245, 0.0143309527150454, 0.010576713306792225, 0.0022890819165069147, 0.016702836233851798, 0.0024256831665305425, 0.00027608297869077743, -0.007045132894868132, 0.0166600661396319, 0.012987380994159772, 0.009652682065966495, 0.0022742442928415404, 0.01307214716970859, -0.009460692835303161, -0.0036611899626745694, 0.002030094738551018, 0.005722571867973175, 0.0039022281629001354, 0.0008312336956839873, 0.004414089005434122, -0.0022429403667607495, -0.004534670545055531, 0.008607616878347496, -0.008199887788515303, -0.005609345992901379, -0.006463850192626484, -0.017802515141034696, 0.010639621662439355, -0.009848397855431588, -0.015184559239576447, -0.012213111876976775, -0.013919497441228224, 0.010535462382061189, -0.010613947094597042, -0.009953302551872416, 0.018152261071841196, 0.02049427421204714, -0.023429879274674312, 0.0050840647662338465, -0.013232234783657787, -0.004244451866635199, 0.01290095821322274, -0.008253249224823416, 0.004064774035981994, 0.007526714465462523, -0.00326096622993836, -0.01506720557212933, -0.0011356189899597755, -0.00488489156167348, 0.0074441808197934735, -0.004799932704811567, 0.013677189734511921, 0.0055838487700538945, 0.012227116776656905, 0.02127473249781409, 0.003816043180034778, 0.012022829169455072, 0.007166241580445465, 0.007251932919423756, -0.0012892011858894466, -0.017666622496416685, -0.0022395750846675587, 0.003316054371402594, -0.010527161026925328, 0.0013374808941388166, -0.004882040633223193, 0.008653834408157209, -0.01586013059717222, 0.010273517619151237, -0.013151001323266279, 0.005889398808653709, -0.00011414213598905059, 0.01450595973965723, 0.002048790589591019, 0.002443995393870867, -0.0017646379748059485, -0.01161249212010543, -0.008642284502661135], [-0.006852842760669817, 0.009154059583146806, 0.006168247683560045, -0.004032856621992743, 0.016165043186388547, -0.010261563569459278, -0.012215558439705638, 0.01189534239239104, 0.019117274785922594, -0.003188150865507507, -0.009816481756958855, 0.009875060487608594, 0.012872762598527128, 0.004924437639306138, -0.0072107525245755704, -0.022343524697369187, 0.016465333514010347, -0.008343576341970933, 0.011627899046429944, 0.003488197577215962, -0.0026564040062026463, -0.00231141550576815, 0.016622738124339266, -0.017366050501873415, 0.005864348833719524, -0.00025714885058803925, -0.004843535576607815, -0.019899886544258148, 0.0031026914847438027, -0.0047597224866465625, -0.005143465557077169, -0.0090094096629231, 0.007964184725083838, 0.007488209175232154, 0.010070456143717517, 0.0016642291324127667, -0.00011909131828262343, 0.0014204469319349438, 0.0010872908314252352, -0.00397707982635366, 0.01026765867149494, 0.005500949112739162, -0.003969248094180461, 0.012139087830785102, 0.002837493178489928, 0.005207950309072674, 0.0064759110235263805, -0.006680278555644136, 0.015519970530988633, 0.005446382601960789, 0.004526278182096509, 0.006772785661177299, -0.01523345704926437, 0.0011926726138429115, 0.01499957413619376, -0.008026214654990326, 0.009153979470201563, 0.022299012018720515, -0.001400888156061843, 0.0038710900647047136, -0.010805889780055169, 0.005855491407401806, -7.682919828177799e-05, -0.008484225491063355, 0.011407424593597965, -0.0029877918201745043, 0.0030753164233316907, -0.008471095272228115, 0.00897516092442934, 0.006976491239418018, -0.003304516495425111, 0.007515292280633796, 0.008986648047044351, -0.006814537990340094, -0.013465910517708292, -0.014095892245993499, 0.0027841888855582174, 0.008756408240671339, 0.00939999666565377, 0.0012926842520094594, 0.0027430190965082265, 0.00912009208322699, 0.006546625888417149, 0.012473373137441835, 0.007793579423362112, -0.00360457080714087, -0.0023243149476368653, 0.0006344674780770386, -0.0057782610421411775, 0.004999955981970434, 0.005213128943879874, 0.011178535088989416, -0.0038294785673301662, 0.005099200768577395, 0.015190614648373402, -0.013588171670872225, -0.006626898870708624, -0.002431307996088718, 0.008598406538637672, 0.0011923338677634848, -0.009740488112722573, 0.0061602159855902155, 0.00856833896077711, 0.007679838416938687, 0.0007184209251233369, -0.0020227709051347654, 0.00518288130208504, -0.0017514596728078321, 0.017103777242745973, 0.00635133770195149, 0.012273252003414385, -0.004124772074153628, 0.013368322714798826, 0.011629269493177306, 0.010728466879879056, 0.022847194538689577, -0.005567685841923251, -0.005139066670515268, 0.015097807813183033, -0.006665793971000394, -0.01303496256170761, 0.003065206357748655, -0.000375755888222443, -0.0016533597795382314, -0.012356795089522048, 0.01789592527767898, -0.012967028156493473, 0.0071258225304862135], [0.012114707622200984, -0.0022140892021498427, -0.011911753912464773, 0.005830574937760639, -0.008564446502380637, -0.002554371908311305, 0.004449899282602208, 6.932648273679498e-05, 0.00484538894272466, -0.004357896235336813, -0.006745304547416918, -0.009980267373913495, -0.007593815452349703, 0.017556645795178308, -0.006757129487410099, 0.002454757611181756, -0.0008973146027774141, 0.010184740010853559, 0.003665833657326593, -0.008491390757281524, 0.009427752910647388, 0.011306307776721607, -0.00026802050816021226, -0.009369879258869599, 0.007171330766483647, 0.022092146411568116, -0.01431566408800331, 0.009552483445706928, -0.0012835376844455887, -0.01111248675104532, -0.0007841976672814229, 0.008095345508036974, -0.0010326131925437305, -0.002701148173954213, 0.0032087727222858244, 0.0036981073520632197, 0.0017679609115830006, -0.01665772399052245, -0.00503512781260139, -0.006973951324990746, 0.006914806328317024, -0.008514355389651963, 0.014680040699204991, 0.0127750611088061, 0.024521274445034786, -0.010572961358103379, -0.011855687533927944, -0.012948826976959411, 0.0009420885281297653, -0.013322396609614163, 0.011135138280599775, -0.0004333897848108279, -0.005448285900694722, 0.0016818887222128027, -0.016242134643994637, 0.016690991940204982, 0.002252893767701874, 0.0034850632000413663, -0.01945761432552018, -0.008077994781651958, 0.00968717437930114, -0.00238868437896318, -0.003289957965433475, 0.015811214299908134, -0.014438149565294371, -0.002906806154310243, 0.005037930060331562, -0.012389163731872212, -0.009866968955248563, -0.001641305543065051, -0.002034971194377711, 0.0013867756967572665, -0.013997040810363992, 0.0026745957988095004, 0.003971828703851612, 0.008239127276573768, -0.00027863206691775054, 0.008262815669146214, 0.007363943943521755, 0.010775619011186082, -0.008115451872942684, 0.00324641785945132, -0.019625443870322553, -0.02502820789762175, 0.002911498355635246, 0.0048109545466161795, 0.0032383351647739286, 0.0022498893047595264, -0.0008484572477315802, 0.0002872441870304031, -0.0016784644360418853, -0.003838701298757538, 0.010206402890169844, -0.007787365562288658, 0.007104916037528233, -0.011585264555264423, -0.017420138484913056, 0.013258618321507567, 0.0013836505049658477, 0.00824621427208765, -0.011172159970966385, 0.0015195400592201208, 0.01167703357692046, -0.0023890283557244985, -0.008008539367216447, -0.0011970893892581079, -0.008091148683347317, -0.0031689202919597016, -0.007016090885748968, 0.0025915885006808194, 0.023095625981642498, -0.005548283456615082, -0.009897794990837393, -0.0116455962060812, -0.00501469944880567, 0.007566420407521866, -0.006451032403713304, -0.009127442490092322, -0.005489872297535743, -0.023570066409941002, 0.021412187834535565, -0.0028955799716338464, 0.00399765474084703, 0.00845838794348255, 0.005045785672258525, -0.004305374089344631, 0.0039240032655115, 0.0063479444727905145], [0.0006313735014108148, -0.0025874999759934007, -0.014192703481767717, 0.009934364898418317, 0.00555275894550995, 5.0874189376703814e-05, 0.009663624460615606, -0.006100247531225444, 0.0023479723379520733, -0.0056029929501169315, -0.004069893023159911, 0.00178485242710916, 0.007643807006668022, -0.013409424602499238, 0.016302879745299387, 0.011107129956459573, 0.012344837450495694, 0.005902866422239057, -0.01166486336599109, -0.009213148937530695, 0.008562840851415477, -0.003427518369697777, 0.013434448215925694, -0.005470329747583237, -0.009451221018364618, 0.0186709455871932, -0.01065354261415414, 0.011024603476517084, -0.00022051681133046985, 0.012829074476226957, -0.005825998059058087, 0.01418709710707396, -0.014734509909525927, 4.151034187312816e-05, -0.000518399379251848, -0.003868781700879245, -0.003018995211158816, -0.010702446955988619, 0.006526685243306789, 0.015768195943882582, -0.004688373927528448, -0.000912737019588706, 0.0019759973013456994, -0.000723320375699949, -0.006291556610808522, 0.004981765093020192, -0.022812376472744225, -0.0023831767890834326, -0.003511298119058263, -0.00990270023578265, -0.010603020831353204, -0.0038316657702944555, 0.020813876884214332, 0.008373846167360404, -0.018462871964251896, -0.007532435485377496, -0.011435656887599333, -0.003310771226927297, -0.0006478168466829639, 0.017661570727661068, -0.023635586662066315, 0.005334859441415603, 0.02040454791195768, 0.010590418402534786, -0.011808282156772853, 0.0019418659951848764, -0.016257888691762208, 0.005026951198750141, 0.008424967547118824, -0.008250738776979391, 0.004126652139408389, -0.0026135124456244073, -0.006519355607427002, 0.016240576505963823, 0.005035356060614262, -0.016138283562144938, -0.015229256070452418, -0.00942187767386161, -0.009098763442096444, 0.02337874327276393, -0.00025081403191903916, 0.011526086436900625, 0.008343067091721336, -0.00036477997580164893, 0.0022427886296042124, 0.013319420294026649, 0.0039967810278725225, 0.007988268063306478, -0.0021740036930471525, 0.02242768931851006, -0.010237081825356454, -0.005112214296438951, -0.0064020041662920715, -0.010227155362017652, -0.005016593668243848, -0.004519122898836807, -0.011604279555175456, -0.0032810847059943243, -0.02106433383775917, -0.01979877224093783, -2.2905537747418043e-06, -0.0003039203101390788, -0.00640331801196245, 0.004463366241300542, 0.0029980948372408255, -0.0005137022763238426, 0.006319769628774905, 0.005123648520367397, -0.009672563915061484, 0.004198438980882807, -0.00195161466709756, -0.01934857923483372, 0.004099430108262028, 0.002538514767494527, -0.0030270368619605154, 0.0018789436673699168, -0.005451584293192518, 0.03346006608335666, -0.00948130660024215, 0.010683377955177343, 0.005216227043831585, -0.0006842587610448233, 0.002678804721054105, -0.013579980619313679, 0.004015629067831845, 0.004234311579788708, 0.003096702341055579, -0.007616885743597732], [-0.006926111042392532, -0.002515916301425754, -0.00013000593081991275, -0.007319777739030093, -0.006345993195929635, 0.0008987851722539102, -0.013134495569271072, -0.021800506990488255, -0.0008893294730904644, -0.008008080854059305, -0.0062058675129509164, -0.02536719288152611, 0.015756762484071422, -0.0050277151633822586, -0.0007677083083756855, -0.016542941010263355, 0.005914392870575216, -0.01899472497636165, -0.0070550721954166454, -0.009302622026755853, -0.011033534281545016, -0.006930717078597585, -0.011589975026074605, -0.00039028303392319374, -0.008041121551225248, 0.006749173622439156, 0.005151313675576888, 0.0017247038682727284, 0.005216322951875403, 0.010028798847107194, -0.011256235718325881, -0.009808908019852505, -0.006668052336588244, 0.013835421477332972, -0.0043162418983078, 0.00014451157687385015, -0.0005432645409145248, 0.015102747706196108, -0.017091564069274888, -0.0031883170442679395, -0.007405991207737926, -0.021136608893553493, 0.008798641520113022, -0.00457140175604203, 0.013814679950180276, 0.0029221061509859185, -0.011467845042887004, 0.0012686905783474804, -0.017274921939281613, -0.0027158680817236896, -0.00438051796900137, -0.008032588358668435, -0.0010897558305263252, -0.0004074491585908456, -0.002878103395862626, -0.0007703961609815829, -0.0007960771194829633, 0.002680635007491197, 0.0037653118499174094, 0.010590568485670398, -0.00910524320157548, 0.0031647777290323654, -0.02341220301221809, 0.004445754004337813, -0.008421041219047963, -0.004891398198407194, -0.010608724746966948, 0.00545763076702655, -0.006473085922167339, 0.00572953070752804, -1.1496583134422217e-05, 0.019367814767107347, 0.007709580688250857, -0.012419280683925026, 0.0063058593420281224, 0.0006894631078775033, 0.0048411412231395634, 0.010604142127760936, 0.004833140427523067, 0.015674087897911932, 0.007457402715290692, 0.003415834298371827, 0.0009207284161988095, -0.0014409958624841655, -0.009899345440110579, -0.005114689208864938, -0.009147516221441407, -0.00638179011700808, 0.005119487405814628, 0.0028876033022146533, 0.0007231401368958996, -0.008107000738571622, -0.0035161349332990827, -0.009752137800351241, 0.003436957336095237, 0.001698721654530064, 0.0017008656719428245, -0.003994665427179297, -0.007420469118914562, 0.010281562031364794, -0.004605271003407896, -0.019840656828742944, 0.018202421804593236, -0.013086559113730278, -0.01307125809402372, -0.015184637174107276, -0.00047079207819799136, 0.006288001863655913, -0.0037496239685289997, 0.01179618750045187, -0.004573190474081483, -0.008600192606810716, -0.010140987415105144, 0.004971835910575718, -0.00619777673697448, -0.0016613729777081477, -0.004132645322748589, -0.006969202696005265, 0.0020898474577463718, 0.006366684763554699, -0.01479257373031328, -0.004884364438080397, -0.013173220352037425, -0.005352261981961656, 0.013837857599748591, 0.01196784733009383, 0.00762158136373467, 0.0002518449547069799], [0.009561537230131065, -0.004819069811323248, -0.004142436191777947, 0.005443705848121981, -0.0013268489226913537, 0.004096124458825242, -0.002180224225422174, 0.008772462288262877, 0.016593760298301636, -0.0023316491395004493, 0.010557741281414741, 0.005583011322214234, 0.0012177206623054564, 0.00013558323032154286, 0.010614894693567849, 0.01052112037601671, 0.0032736241773622774, 0.0062406548896575265, -0.009631456333711569, 0.01374539583349169, 0.017582681560360424, -0.009628300918787868, -0.004994674158758752, 0.01251335908466565, 0.016745997074229108, 0.011046228975752897, -0.015511617423529906, -0.021525326805145198, 0.010693623549055994, 0.004389097918387477, -0.0047676561713976525, 0.010074771798924695, -0.0014306609228590986, -0.003415043296192898, 0.010200552464613296, 0.0004959310115656016, -0.01438012525544215, -0.005893592473711634, -0.02414246221124882, -0.006787742160289024, -0.007916796417276788, -0.00785634390843332, -0.0001556793138276057, 0.010647437033597565, -0.008009556581262366, 0.0008028021205655061, -0.002545101292472316, 0.01676500487165546, 0.006514329991874157, 0.002659788083192901, -0.0007290479647911336, -0.012170543393094828, 0.005230261279316067, -0.02603929952543933, -0.008058372917273418, 0.004898469744634066, -0.01858970233269179, 0.005697920789627266, -0.006247679697587182, 0.003965021000053393, -0.013314540658326376, -0.005709451250139554, -0.0008719288367009817, -0.010613272643830834, 0.013428986265516158, 0.013134326462600798, -0.0009637227180239494, -0.0013677455485100387, -0.0039062893911142385, -0.016772974412219407, -0.001215907730860625, -0.01131447136667506, 0.001808590555060722, -0.008697931540647023, -0.0025184113848281723, 0.000586143559986399, 0.005602427122186896, -0.008582460228147855, 0.01405138482420296, 0.0030683635360809714, -0.014853185245176, -0.025530377893101638, 0.00013939754705834275, -9.595868083462601e-05, -0.00742017638149866, -0.008057323471183772, -0.010143280340821955, -0.0020837413209875027, 0.010866419348764674, -0.01456179573480374, -0.010268986608860907, -0.0013511730030421204, -0.0024142027435589204, -0.030528496694580923, 0.011039965574543925, 0.005683080840545823, 0.0055643361746496095, -0.021240071550263178, -0.009024660591976914, -0.005098015162778775, 0.017130255449274382, -0.01281768601719688, 0.005697713674527059, 0.016369252068267975, 0.008427154621884371, 0.0106980153496698, -0.007561251092067902, -0.0032206882780432735, -0.018108794176166943, 0.0010575517325498497, -0.0011787711162158938, -0.0009039055119468103, -0.019407821942985938, -0.012953533074207291, -0.006483505782512297, 0.0009393992589582161, 0.01229759955936379, -0.006818099819307378, -0.0036555746480824995, -0.006972313562334523, -0.011238596996624476, -0.005163413714140529, 0.021498382110871374, 0.0014413296454989953, -0.006355243056063303, -0.009344722269061401, -0.02062833661064395, -0.005446877850583036], [-0.0341345430108377, -0.0011271360491834177, -0.005650462800944376, -0.011143458309605076, 0.013795248683330593, -0.011028007953107212, 0.015019567433869471, -0.00204531852378288, -0.0061505665941605425, 0.0023180020470805157, 0.007312377521911001, 0.010849586328563265, -0.009037063151313425, -0.0035210444973788812, 0.016006987423713336, -0.0031514931013764728, 0.013035324694100516, 0.0021401188917060747, 0.014517755026286223, 0.012969491710810268, -0.007131792391395219, -0.0055392225065058346, -0.00053724893134723, -0.008288846988097036, 0.00451151015952641, -0.0019454608717283438, -0.001472626661440422, -0.010374861669230335, 0.0069275187319447745, -0.004990735147934356, 0.00692627302390199, -0.005676025800223876, -0.004145474016713752, 0.003797601022206653, -0.0167401924035364, 0.014563800583333321, 0.004415674917112518, 0.0169988330949835, -0.005968165641863636, -0.009865660131662622, 0.005531371286257244, 0.010261962202326004, -0.007711152464494212, -0.011688362619706256, 0.00895570426955256, 0.005407221164753012, -0.010695120048033387, 0.0029458855341766214, 0.003524209619944907, -0.00732661519755852, 0.009157849952116421, -0.001893209996149019, -0.017870718654553686, -0.0020404619271688945, 0.00012297196697214777, 0.004643095878605741, 0.0029055396778577196, 0.01277320916910316, 0.023829543393784413, -0.0018749839284703286, -0.002476007691517908, 0.004712460595644628, 0.008042690374202775, 0.013863918538855177, 0.001266881075415465, -0.015014607203969335, -0.012665641709262588, 0.006630496860790696, -0.005501294414280636, -0.024536281290742736, 0.02084608757212366, 0.004964521661942273, 0.0011433480295748688, 0.010202696561596346, 0.0032402808008371938, 0.02250213460330138, 0.0009804245699989716, 0.007682538992886747, -0.008575937186397873, 0.001781349230364577, -0.008458443338056352, 0.003895783980432631, 0.008745139612480598, -0.007876161288708694, 0.0006282649336529077, -0.008679524859898763, 0.013104568593762965, -0.009885177288849183, -0.014639626211773532, -0.007519036897221651, 0.006966062734630114, -0.015318794947226324, 0.0017201227921821586, -0.0051368471650654135, 0.0029801195813562785, 0.009111195260093507, 0.0009103301309145032, -0.00804852789285633, -0.004602123512744519, 0.0028298427358002813, -0.0064494744753122255, 0.009523062065177643, 0.009665525957490154, 0.0008326999326001244, -0.007689636200058533, -0.008142495656813468, -0.0010637769230338917, -0.004932260045709512, -0.0032499019734662632, 0.006170691657533773, 0.0006461810414522227, 0.003923198239319124, -0.0017050928165683178, 0.0020969939076608294, -0.0011967413663031977, -0.002873823193908631, -0.010363337983118072, 0.0014444166394987977, 0.008604435830219942, -0.020181832548510085, -0.017718868266814444, -0.004975694521874042, -0.006871548296319441, 0.0019515096910317962, 0.00010199738113821282, 0.00542927202741893, 0.010698635197710513, -0.001811889313614949], [0.008169455670739624, -0.014521301783218565, -0.011893330294573488, 0.0015266436158915826, 0.008778518327810248, -0.0022470279445452024, -0.009340380879379743, -0.004989751457946497, 0.005253094349572919, -0.00980533812469655, -0.008583640647876797, 0.007525729140500317, 0.003925007827829704, 0.00016754149385343677, -0.002063051281411903, 0.016906003060901013, -0.008633252242098346, 0.0068950866644927776, 0.014708391084091893, -0.014180329068323404, -0.010897924531255225, 0.0020344239839104167, -0.003829406141588617, 0.0006608600219942249, -0.002845964615694751, -0.00845005066480888, -0.0025279374848552892, 0.013960291320227098, -0.0033547014997111825, -0.00027588541763721465, 0.0049230329530334516, 0.0003794545120824914, -0.014393059700764179, 0.01082414330917138, -0.006562450073965634, 0.00478294513935842, 0.0003110660716879442, 0.0248994692757994, -0.006411156515132456, -0.0031212198381474336, 0.006713671936065105, 0.00899141178516938, -0.007227664254770596, 0.015315663556928729, 0.022896892219155515, 0.017279554961797818, 0.011060789257711309, -0.017305051250621387, -0.007587434849657998, 0.004568273657925881, -0.01317171470097757, -0.007846164602040746, 0.004660143556449242, 0.006904052251749909, 0.010416290424727892, 0.003639102785773751, 0.0024132264906321864, 0.012747497558135645, -0.019822945437243597, 0.0024843504701676576, -0.008544239308696468, 0.018613872529646348, 0.024744056733034807, -0.019868201551586084, -0.0031638337808450037, 0.006935634441585574, 0.019200277564732037, 0.0011324742372048082, 0.01117488594693211, 0.0022953796877218406, -0.006526254255819287, 0.0027594499444135224, 0.004876843290183141, 0.00641647107330194, -0.0013323530421703504, -0.010095894566896716, 2.245728036131315e-06, 0.00026051408295512697, 0.0012966475823687974, -0.014555753678758757, 0.014473266321471188, -0.013178485541875272, -0.006087246562129388, -0.008398269798571986, -0.0014615044184615618, 0.021002842244646377, 0.005865518884686671, -0.0028680465531418886, 0.01640045629467811, -0.001007804390496287, 0.010856226898766943, 0.005870763666244006, 0.017205849581280595, -0.011904447206890226, -0.004741799783306317, -0.0031996258250033957, 0.012679581797478003, -0.001301801882733939, -0.0037426679695899204, 0.0021187418022279845, -0.0014951523291545528, -0.0005645135374194971, -0.014342756485185052, -0.006298932136305922, -0.0011117644967940548, -0.005470171935136308, -0.006164101974285839, -0.009633881334962083, 0.0026102383279809752, 0.01537462706253204, 0.01963636785320531, -0.00792350797505939, 0.00400459103207105, 0.00222003326608735, -0.01317906039832787, 0.0015917432792527384, -0.0008192107316957504, 0.008946146444240695, -0.017151814062197807, 0.005246550995336777, -0.003444155255511634, 0.0062842596859657785, -0.004404036071537572, -0.010323162201179608, -0.0034694534395055977, -0.0007988637488136417, -0.004551424229855177, -0.002411713845435236], [-0.005259821633081557, 0.009718164702803801, -0.01520026704203517, 0.010327198778527304, 0.009398296903273129, -0.01274058973413041, 0.015621080294871416, -0.007135604901442183, -0.008062659106143469, 0.009665468990593517, -0.0034620988384744134, 0.010613032638925868, 0.005806797662812037, 0.004099020541506706, -0.002388906798179022, -0.0006440643205085375, 0.007847768475344205, 0.0008352342580992667, 0.003067919746367549, 0.007395777695948539, -0.007128563589887935, 0.0085008474739868, -0.0023988926468446283, -0.0023388913155413917, 0.003652489427133918, -0.0004478585865854656, -0.0019178378298450925, 0.008894487174333221, -0.004363467803203266, -0.010810035964744748, 0.0031517683624297894, -0.017935761187476015, -0.009748380166609512, -0.0062800237304749176, -0.02285483702909941, 0.013634118546727823, 0.012013149145871378, -0.0017876757567901664, 0.00038307842069739583, -0.013124433921113086, 0.01420903703024764, 0.015240870263477608, 0.00552394082755167, -0.01965431332859001, 0.02306278258685656, 0.0029728659764653655, -0.014579596082359477, 0.020214645608263547, -0.013855397466822593, 0.0026340518104625925, 0.016506954171601303, 0.007142425175474884, -0.0016753393451385942, -0.002677537685994752, -0.006218955502003326, 0.0015642781771930058, -0.011026311091775659, 0.013837430579274144, 0.009291585346252603, -0.007608263802099044, -0.002423322185626209, -0.012325057095802276, 0.002233036276850563, -0.016811352337957913, -0.009608708397710022, -0.015307051373801957, 0.004094240052780637, -0.0061771731601576296, -0.006206058758001762, 0.005871898530810818, -0.0013605876485792518, -0.020233992471304516, 0.004912616248328805, -0.01835902688079022, 0.010991142738722554, -0.019485829715609703, -0.010843702997418053, 0.003067016553832934, 0.009050453469086922, -0.00651451948054906, 0.014948993013229753, -0.014982238541076309, -0.003459735031940917, -0.004655718823977313, 0.003858215109863934, 0.024663761880536962, 0.005259018985802918, -0.00021135950272164867, 0.002983702973200725, -0.008697326490853346, -0.01340113782798249, 0.00442310020340718, 0.019624295889300803, 0.0005760586879838051, 0.01674475975270231, 0.006080148388772889, 0.01355208511609247, -0.0056509331924385064, 0.007086717204277195, -0.012599519242724, 0.0031862244568471552, 0.004643823131194511, 0.0036178619417758357, -0.016979901303492452, -0.009763296811843174, 0.02090455969104502, 0.0008459764686549, -0.023891726130862618, -0.010085669896677312, 0.014305426445841114, 0.001766864637522641, 0.02460127320637108, -0.009357089229948845, -0.010487849758386021, 0.0006833974504596337, 0.021271059885826366, 0.009642547816197661, -0.007112201435966128, -0.0012431983187319211, 0.0030277219566708143, 0.005150205267648235, -0.001943614243353444, -0.009129639576374552, 0.0007980965731269045, -0.0035335168054463247, -0.014666873355521387, 0.009019310451549386, 0.010824296167060153], [-0.0023995492449496794, 0.001027897335133338, 0.0011827814562014815, -0.004903233952811669, 0.010039392313797314, -0.003505997650409962, 0.015594466753934609, -0.007432648152791753, -0.001643860778241163, 0.012247666051502792, -0.0065913570509580025, 0.01665401001664845, -0.0007097874792917833, 0.0016104399047890937, -0.010758695012430078, 0.010407044826668512, -0.013151180927538067, 0.005365604428576572, 0.017968311184776768, 0.009321008824620405, -0.014302386888323047, 0.0037501625200070253, 0.007332512938081265, 0.004215932148304007, 0.00464554190598771, 0.00619911072656119, 0.00781314106041237, 0.012864857121342612, 0.0018966659411676883, -0.003008234851877701, -0.009832922910932419, -0.00011603686758735738, -0.014106188074802973, -0.002778710163198684, -0.006719726725899487, 0.013245325028333563, -0.005945938685625171, -0.0032570415938108243, 0.002198680511452565, 0.0027818971378560627, 0.0081654636741936, 0.005554001281044215, 0.0063410482392413925, -0.012392070666624467, -0.01278528710184117, 0.0030889908182636827, -0.015095315548654816, -0.005526315571031554, -0.0030422603363442634, -0.0021370003566798927, 0.010563930796475952, -0.0075008584875190755, 0.002225099248744614, -0.005719577233124657, -0.006331157651775444, 0.006463334482711265, -0.013556112971025831, 0.00032236474102966553, 0.0022153475833028673, -0.003148983304255658, 0.008957790646912232, -0.008569740465213763, -0.002006966745155738, -0.002857401473419744, -0.004334211068086857, -0.016139041654956617, 0.016993809456991985, 0.00018947366757170428, 0.00511856664529132, 0.009954097437190031, -0.007806611557434554, -0.011257717936368775, -0.0003752519724866629, -0.003262978288251375, 0.000860491165299443, 0.003370136276774417, -0.006195000360639566, -0.004559161313025778, -0.012872215563756456, -0.002376888629134744, 0.0067282104306874745, 0.0026736304878955826, 0.0011181318541463295, 0.0027592245875875062, -0.023518953149903522, -0.024889320732409674, -0.017299656469894148, -0.004308523005062851, 0.008255647339191966, 0.00037209209356692155, 0.0035614544501530805, -0.010353319683678084, 0.00793717120183153, 0.0015132545233324296, -0.011199710675723553, -0.004152576961305428, -0.013285320798717887, 0.0020302720193551716, 0.010555074546085133, -0.005201387472189424, 0.016556626551349835, 0.019279971968095954, 0.004489391525512094, -7.924641692211351e-05, -0.012755890667565882, 0.0020218381653703877, 0.004510120493083918, 0.00225697157721495, 0.005332004200784386, 0.00500265021214723, -0.008031848328896612, 0.009238683917869585, -0.01729731454876006, 4.0358614006710813e-05, -0.010283368119921326, 0.007423075658698251, -0.0045327286267938015, 0.023785163083161823, -0.001322077325118344, 0.012098734172573074, -0.0007045624923125417, -0.0018893844440256641, -0.0035934599395109185, -0.00934621517456604, 0.008917044147565207, -0.006623682888758776, -0.0031950236428912536, 0.007887111879250605], [-0.011151852347161505, 0.007673066343829028, 0.0046092119468989605, -0.00250263622636838, 0.007776514108833074, -0.011857333477337403, -0.0017678018923952812, 0.026462407879367676, -0.0031441165229978995, -0.006762772299037576, -0.01997635072021416, 0.00454479702755796, 0.0024870383553918787, 0.004974179386047412, 0.007956726145427903, 0.0009875311328467879, 0.0021225066877017694, -0.010777995837458294, 0.0041166195940629665, 0.014463427512747793, -0.001389939225520216, -0.005183616239885717, 0.00013298444258848745, -0.021609568007228113, 0.010929193554313066, 0.004857418886853092, -0.019076033377785986, -0.01874083830308717, 0.012793963403191104, 0.0007594500850703537, -0.011795158661666881, 0.001071598995003859, 0.010972019430683362, 0.0046268298723992195, 0.010080474535989266, -0.0038763841734368466, -0.001889753253502191, -0.0038965442339855857, 0.0045360914585205, 0.004924917197706386, 0.0013728102582207054, -0.007067629827863432, -0.0027724957265834673, -0.007896573274086948, -0.01242188067280718, -0.0008913681918172183, -0.007825629939943665, 0.00851123645565431, -0.004145188850960977, 0.017160039836013156, 0.006896517152446684, 0.009109398033231532, -0.017595843139125537, 0.008766241192090012, 0.017116315507392357, -0.0039808810275774285, -0.015470780549240433, -0.0036988448055942937, -0.006112774287892043, -0.017631020403086395, -0.007752185248081582, 0.00434209025734845, -0.011805953707844593, -0.020949549008299834, -0.008398486151916067, -0.006494668228380482, -0.0009959689639929877, 0.003857361651965492, 0.0008853386094323883, 0.00644126696959611, 0.0010166193163877375, -0.013113217469713239, -0.012547803837060346, -0.0020217051103024837, -0.004787531841161028, -0.0007329446161912263, -0.0025732110424086154, -0.0038514714573792174, 0.0011163034688830018, -0.003059830032780883, -0.00305296672849554, 0.0028980733474956925, 0.01518591698785848, 0.00932388015704678, 0.008574200651825405, -0.014763709936896179, 0.004616349773067953, -0.0004134066646081716, 0.012623431118017163, -0.010848624414508734, 0.00964246375855744, -0.007120426645882566, 0.0038581834988836083, -0.009102061697314538, -0.001862328227739037, 0.0046673054919802994, -0.008075014579454873, -0.006852035467404696, -0.022249891412594907, -0.0038089166087092534, 0.012179531117449738, 0.0075909825648281005, 0.006008460357448971, -0.009083896073759678, 0.015642621946861782, -0.020304285578248284, -0.009407742762255642, -0.007514398948018648, -0.0034259716190199064, -0.012190996099551207, -0.010137471558515448, -0.013027747336573518, -0.012211597404030874, 0.005139040253151509, 0.008319585257651724, -0.01033621106960535, -0.0001079228695666424, -0.002356195368559279, 0.014645018804545678, 0.00979164346224379, -0.006068007381433189, -0.02004028758732734, -0.021109275148939257, -0.006527337447832213, -0.0038772420684925423, -0.013801531440682364, -0.006771428400384249, 0.007501014420547529], [-0.0016231845202217708, -0.005912406718823438, 0.0018708235817153282, -0.0029016077472083252, 0.004115957561041372, -0.0066583626027387, -0.00896578319353358, 0.025219867069562838, -0.013909867547038029, 0.014902209044971982, 0.006853319484797991, -0.013928023671602348, -0.009064487697947021, -0.014612520340351574, 0.0010218220425689546, 0.002878453910698139, 0.0031031603618783756, 0.002627296212718306, 0.012338987568510207, -0.0006613001772371688, 0.00661825955193876, 0.0005352764854356327, 0.006800922314618694, -0.005957891932003044, 0.005893523827770966, 0.0012136759219865006, 0.0037064772143230356, 0.0017017073475127664, 0.0015984192960912594, 0.010327918817139774, -0.01018396651791674, -0.014521569652383617, -0.01345803105488732, -0.0024936865325371435, -0.01249608665031975, 0.013689516380345674, 0.004863600230305007, -0.007196360860643825, 0.005788209074690043, -0.005052868672384952, 0.016797922877901588, -0.0009944700400952794, -0.0024960064285531893, -0.008243197801854354, -0.010230146471181369, -0.010235112317547672, -0.00166320769194872, -0.013555165627234278, 0.005231451532220182, -0.004657280139206571, -0.011548253968676344, 0.012631302028441965, 0.00620650944382542, -0.008751257552150823, -0.0029406773516919412, 0.0031228335285481365, -0.02211182858446577, 0.006296508921155173, 0.011190764051333462, 0.005428589591869587, -0.013432238231599693, -0.004318406125391448, 0.003872755823858147, 0.008542505341573551, 0.021266676604105875, 0.011169225625378795, -0.005807047879257637, 0.007382902137983189, -0.0010652589771868825, 0.0019497604956091419, 0.017738254800732055, 0.0029328342651110378, 0.008739761741651324, -0.005251039803527483, 0.009371938280840812, -0.01113870098635437, 0.0031679208638466295, -0.00903706904988541, 0.01304941733030451, 0.005970135433084346, 0.004494390602884992, -0.00014834988321192456, -0.002739495028897706, -0.0038927680684172168, 0.014353035381255104, -0.012308638017742901, -0.01817252241214651, -0.0029056055673454735, 0.01169983630352195, 0.014265266676029896, 0.02524997305452109, -0.0038790501107128436, -0.0077155186999357086, 0.016050420408235115, 0.014691167962026432, 0.0075905736926790085, -0.012061513723445286, -0.0009321104876014927, -0.008877122687076553, 0.003276932637934611, 0.006784050067027836, 0.0036796287285975884, 0.0039412251047621465, 0.010974589679809884, 0.0011160125113665773, 0.006297575550429285, 0.0037044691154734183, -0.005162338304705311, -0.0017633205899061943, 0.015374626985921569, 0.005065009268223675, -0.024411677875167133, 0.012733101173894576, -0.0021146513983426197, -0.0026115518702433597, 0.002260668665509719, -0.001968725762228865, 0.017820119563442222, -0.00447331669853123, 0.006284648715195857, -0.007782382208770351, 0.0006593165458144397, 0.00046213701053707875, -0.0045389434501254084, -0.0011273040644473134, -0.003344212547673465, 0.010885198077461397, -0.009562739094410253], [0.00047780148865476365, -0.009361754264584389, 0.005115927586378205, -0.012423067500822673, 0.007438142087461836, -0.010348263316185395, -0.003701975409580221, 0.021132860434920412, -0.004940360942655444, -0.014046859738477314, -0.02193137234908146, 0.006750337828176384, 0.01656343911948985, 0.017361710379695108, -0.002402912139433355, -0.006401897230063049, 0.010459955470281515, -0.0028688990019022356, 0.005796627547920953, 0.009002472936457392, -0.00951658252896677, -0.018272280900301367, -0.005281701177677199, 0.005904590355551626, 0.0005077847606141082, -0.0007268849705255163, 0.007783270576579249, 0.0013247379156875805, -0.010395440076135774, 0.004821480680885025, -0.005734210431825911, -0.006090470070783076, -0.0033221874995273877, 0.0008138734925352971, -0.011034831777433153, -0.010188679593907408, -0.006158267527345134, -0.0014206268295759218, 0.003998287832706406, 0.009728063207109783, -0.005589790341345232, -0.0008383682915923365, -0.0021403411564987367, -0.004456570192969101, -0.007296073504940388, -0.005055278738048708, 0.015438022149107182, 0.0028853369062223745, -0.012975312199947834, 0.01425093169251609, -0.010240423067676146, -0.002327784723239064, 0.0017503729422752724, 0.00046789598153196244, 0.000170931178439473, 0.007958543178559674, 0.006263936633726187, 0.0008628284532295822, 0.008439969990031857, -0.006138125870206996, 0.021511251481116173, -0.0008888457959145923, 0.009660312897451022, -0.0010542659483785144, -0.004461761412237541, -0.003652663874189653, 0.00916928530391335, 0.002322600409715611, -0.0036197477668616245, -0.013197025928733465, -0.008718336072314276, 0.013216650593085409, 0.008487805794797878, 0.0028503698319631145, 0.006283110309444901, 0.002699549882176102, 0.000362433771049702, -0.002935764598422715, 0.003720203479298675, -0.014638823263064083, -0.01531968785724066, 0.0008882422761042983, 0.0004663027381834963, 0.0036803297050300686, 0.0005604658247811733, 0.009540032252511342, 0.005653748021905636, -0.01748341160172255, 0.018470797098891236, 0.003208331997123739, 0.0056148014333168164, 0.017414490909505538, 0.013579457631049016, 0.004476962111575091, -0.009156877073497612, 0.004371189959234834, -0.00947355205589182, -0.003800153911435029, -0.00028418809317858626, -0.010321367402874428, -0.011922279107605358, 0.014534504487363336, -0.010951986640782741, 0.00535044245161143, 0.006979062013261015, -0.00586470949335317, -0.0026889295137464487, 0.0004581810501422287, -0.017084456779781307, 0.009406298495648726, 0.004340636518760633, -0.00691355132038915, 0.006587328635405284, 0.01676994200378995, -0.008632738780466812, 0.009304452076472956, 0.00955609250818102, 0.003927081594729151, 0.009233568046504612, -0.0236025781307277, 0.0007110940925842173, 0.0014964205648548177, -0.002674924119675358, 0.013561499450254548, 0.005175359668616151, 0.00879363964238163, 0.012542521229321271, -0.0023511082850575515], [0.012020970405687477, -0.011237321577249835, 0.011468958633226375, 0.0050777207426078086, 0.022282749329396192, -0.01574053309685328, -0.009355652541774059, 0.008010857499629192, -0.018472942506347737, -0.006457290242776929, 0.0035038976463706967, -0.002858339120079249, -0.013451126211707699, 0.00691811525251127, 0.0010585068459950516, 0.020064489326157224, -0.003846042751124426, 0.00466212990528219, 0.007334490759497492, 0.014053471747506497, 0.007746176213059707, -0.00651547937947799, -0.00401193947473282, -0.016662409162882464, 0.009059783519717955, 0.0030770906242405895, -0.009420125453820219, 0.0028767635890872855, 0.005442468757989887, 0.0035088161298971526, -0.006192440859034126, -0.008350233134541672, -0.01045209008976001, 0.004101831838049407, -0.014142936260812162, 0.003240230705729433, -0.005512219783149371, -0.00877606620063914, 0.012216271132174905, 0.004848102143516581, 0.00047457245951220377, 0.0067170083289956745, 0.004035204995291127, -0.0046316152300337554, 0.0014846219387348429, -0.00781124543606498, -0.013081279367327068, -0.001163387850496505, -0.0032542520647816198, -0.006906345172661619, -0.0031174397526069542, 0.010019558403977162, -0.020491580054353413, -0.009062395836699884, 0.007994966764765158, 0.0034531362206916432, -0.00880458380243946, 0.009218838908778143, -0.00972332976742239, 0.0036627496617105855, 0.0023774057002754886, 0.018534424093291688, -0.010388313614958072, -0.0001601461020537746, 0.010857803623725763, -0.011404382700936045, -0.0007987786037065243, 0.007994500307658435, 0.003008120096880061, 0.0024965060472228458, 0.009619147362514052, -0.018132028579263392, -0.007914083559295581, -0.00353890349878087, 0.010137326952230723, 0.015628182572839152, -0.0011146734475075237, -0.01579209190182851, 0.013534149845591781, 0.0014404864360690853, -0.002155880097985624, -0.0007979740408947917, -0.008895673588900893, 0.011726911744074073, -0.00830610480453991, 0.011574602521621616, 0.017158639130932962, 0.022800170264189932, 0.0029188305716613483, -0.003158455314498969, 0.015497784300390938, 0.011630268385671192, -4.8818758601602304e-05, 0.007920909906074115, 0.0032601938648209776, 0.0035752217500234773, 0.0035032720907447142, 0.0014877556038649078, -0.003662717151562306, 0.013849183333515843, 9.421826239701232e-05, 0.009409592741181801, 0.005145141746092735, 0.0065369162862696385, -0.0005299215588546576, -0.008227670481815488, 0.004453607766359987, -0.01128758664894604, 0.00309695509419551, -0.00012797116754013712, 0.0029812122349850236, -0.010404578241452198, 0.006087083910985364, -0.0006290591603736435, -0.0047218232541339404, -0.00023576866771522122, -0.008955101576473822, -0.009104358701263018, 0.003882268388803758, -0.004342768550964829, 0.004023837890486777, -0.0047132909372208185, 0.0014825352732874548, -0.010305612154388926, 0.005420292088145356, 0.00017538593806688815, 0.0017399290466926151, -0.00220628346179989], [-0.007385731690263004, -0.0014817603966484757, 0.01572898678215276, 0.00907435642190312, -0.0009163961131970765, 0.007008417969897258, 0.012487876838061057, -0.018059642117842795, -0.0029614837163118124, 0.0016591801974551552, 0.006769587003125751, -0.004708012384224177, -0.005721204727707008, -0.010959611977433286, 0.011327802188246675, 0.01846620053594435, -0.005703306791317012, 0.016741719152233065, 0.008762625014235038, -0.007280953288442448, 0.003036135061682519, 0.007096462245261418, 0.012168489401487211, -0.0023531600499546845, 0.017655402478850828, 0.009605388751649662, 0.01125319841539396, -0.0037994712108552647, 0.009558057517420834, 0.012436693639117362, -0.011770801652724379, -0.001683100006874658, -0.013332063528237029, -0.004707239891502507, -0.008078910334468075, -0.008112138645255286, 0.008903832779611981, -0.02504718633250066, 0.004995821342719304, 0.011618323230008368, -0.004721408771288786, -0.006409842920080517, 0.01116942918369796, -0.0011148393560137108, -0.005127920479309497, 0.0016239240829658806, -0.0077808595717855766, 0.004421767890915746, 0.013033931870694323, 0.005804011849385939, 0.0011220778147139443, -0.014019372995247761, 0.012560615742426966, 0.009137670134906786, 0.006265946726046341, 0.0014807957925234547, 0.000559364789552794, -0.0016356504971611772, -0.006640840959343724, -0.01858436167211712, -0.007323036743551898, 0.00470894773700092, -0.0014398849038881872, -0.017143456863520888, -0.007006489325770713, -0.012000953252185744, 0.006543390591111388, 0.01501974319887546, 0.007379047751779754, -0.0002420390802599054, 0.006425866273536333, 0.00681743113723058, -0.007775381135125137, -0.017498647493157344, -0.004731174847949349, -0.019690843817648653, 0.016480122754892305, -0.006563659642655356, 0.004459473598055889, -0.001873157005229363, 0.013067239878586542, 0.0011022474456818057, -0.012849447509410274, 0.012552658164157182, 0.019034556306627842, -0.005656868565441869, 0.00848360690464107, 0.011686106451985995, 0.006965024001404197, -0.009486816206626551, -0.0004196803222233848, -0.009830570963665604, 0.015468191377078729, -0.011727900049249236, 0.0047158230092224866, -0.0017360107695499757, 0.012195393090853537, -0.007401035433556735, 0.0006479086451744563, 0.010115799679592578, -0.024377143726534368, -0.015080792247650514, -0.004635938924122797, 0.01733129480693095, 0.011218640281954675, 0.007161122498097849, 0.004561298561200584, -0.015290923414577794, 0.0026771335231428987, 0.012971006296459638, 0.003865336453627685, 0.00886542862133593, -0.020181408083615064, 0.006310452045618773, 0.007279074309214126, -0.012471445833894612, -0.006856077078136242, 0.0033849141142609997, 0.016381252970038628, 0.009066838356947538, 0.0006826444597217036, 0.01788581308845503, 0.005393662601626095, 0.00912891963844428, 0.004726732440620217, 0.0104164359133134, -0.02188919866340089, 0.006083090316564812], [-0.004894907268093649, 0.013008021790600404, -0.0008808604664633646, -0.014876397544754552, 0.002704276693499729, 1.0242675330725675e-05, -0.007165448840172724, 0.011464088505362338, -0.005988172633807984, -0.0005190096547512717, -0.00359698100981218, 0.0033968226756852862, -0.0007379926140352788, 0.004205600736120462, -0.0022626778507749312, 0.0056541562776334835, 0.006250469067286537, 0.0050259049540918145, 0.0017929720583765155, -0.009473022593344281, 0.01809448062019086, -0.006138745095646847, 0.009556687434066553, 0.005371059148781421, 0.012512932363975535, -0.007141506760014222, -0.012257603778827984, 0.009420641045198876, -2.255992754697652e-07, -0.008701890615929969, 0.00825599820000137, 0.012666289321936997, 0.0015213582144002528, -0.0022019068012997557, -0.0021863699731217764, -0.016478911138737198, -0.015550829607702753, 0.00338331278052105, 0.0010876941051070137, -0.015784378958915813, 0.0016382645076467636, 0.021642115485037132, 0.003672549334227095, 0.0043771214319924924, -0.0038481876755318777, -0.0166501114810869, 0.00787797345435846, -0.02280436620969128, -0.021341930067493988, -0.004921645660727467, 0.01182441368518174, 0.0020277545179879534, 0.0012051587497837015, -0.0009005639050129321, 0.004023394852356942, 0.0041566744349659955, 0.019771654198059187, -0.009821683875074743, 0.013922043885567026, 0.018926101272377455, 0.003755937903859123, -0.004804519930522728, 0.008551000569744964, 0.004504289927838661, -0.00042616022954807247, -0.005984716188399213, 0.010009812801939752, 0.01319366147593032, -0.00800733487508823, 0.0006365873541296818, 0.008006480165279188, 0.0018901747933843715, 0.017520378478171436, -0.004355782427279158, -0.005034431172022007, 0.005259039171511382, -0.00900791457851055, 0.016082683106471173, -0.011084309369783803, 0.028007294808486436, -0.0009571676393428573, -0.0012227596085546933, -0.02458920659800339, 0.00960522273850954, -0.009889008688403433, -0.01175392027296202, -0.01179485891074235, -0.017539210085181618, -0.006506043198662099, 0.0033972583537182433, 0.012798991212771796, -0.00531849588251199, -0.010558204819321727, 0.01016291626202746, 0.007996052445260799, 0.005027753376954578, -0.013290090449091504, 0.0039052813762416507, 0.014782132348521637, 0.0052563976489285145, 0.0028125787184141078, -0.014588612716449881, -0.000910659974210355, -0.007313722555777616, 0.01243008867340911, -0.0033969955358851916, -0.002290303865479685, -0.009434979025541182, 0.01106663556244059, 0.01593230575807855, 0.00046915770097973215, 0.008581416271658053, 0.004276390727474096, -0.008064281787812403, -0.004317892048824772, -0.009799992637592146, -0.0005819279601634037, -0.019060070732555334, -0.01199627291566294, 0.005156744354411808, -0.010461015402092617, -0.005440111910989141, -0.003319235152774969, 0.004071255008339917, 0.00996919897700268, 0.002332627333914753, 0.011532675956739971, -0.01529152195327893], [-0.0015792686210666968, -0.005086973768849717, 0.002420844768769373, -0.0038906768415917416, 0.0006691809064873187, 0.006310316449156464, 0.0002591485057363792, -0.010067381032613919, -0.011469693948878394, 0.018600439640030043, 0.010533788140296714, -0.019389038099959767, 0.0020208587214771995, 0.0016660595919400373, 0.014785502803924879, -0.003015848257408849, -0.004857853056517697, -0.010624921195573473, -0.019127762156613128, -0.004866131439886229, -0.003493490345847889, 0.0066085330046272775, 0.0015450123516083727, -0.013997077676817921, 0.014675941641962965, -0.015007906405543128, -0.002578289599469799, -0.005135424675567467, 0.012997037560477686, -0.02583183073575322, -0.005923756031111864, -0.0035256427711962872, 0.002772124768466458, 0.008449643870866934, 0.0025149222474968374, -0.00046998471717951457, -0.004255645455257689, 0.0016155624734548843, 0.0005243233421250535, -0.009581027359931812, -0.010482793270424642, -0.0016786989517093742, -0.004599482192713772, -0.01121931681808665, -0.006810461748823315, 0.002272362316408807, -0.0017418926520908363, 0.017296818589455868, 0.010757523025024966, -0.0037603781752993445, 0.01648700774635152, 0.006665404173524845, -0.007748604940589117, -0.02439646645572594, 0.01168247816360342, 0.01130947758071839, -0.020882642193353753, -0.006983808502099454, -0.013288295577009154, 0.009489620027055955, -0.009533058952086311, -2.8380036581646067e-05, -0.014687881381555057, -0.00024138412851920676, -0.003018838523498556, 0.008119840151809946, 0.004597857742754848, 0.016738534750817227, 0.004799239686553353, 0.011875628254217552, -0.007395214104274088, -0.011541579365750485, 0.012543772724429574, -0.014239586452985618, -0.00035470789415147834, -0.009919832064947046, 0.0023650301916855873, 0.01116921369555731, -7.160857864703209e-05, 0.00798152517041174, -0.008699684268653399, -0.010982068311010363, 0.027388537603798696, 0.00014321183050784668, -0.009608940177373002, -0.006918302075051908, 0.011786598125817248, -0.01504719128410987, 0.00030295875308406417, 6.478004886996236e-05, 0.012757021782055114, 0.008458892100086546, 0.013302270846921732, 0.002503072376456486, 0.005014488008629537, -0.006571381359122869, -0.01780854644023022, -0.01358679376179118, 0.0016735697258837199, 0.008649110068366883, -0.010399373894294364, -0.025805659710028434, -0.015455090284404937, 0.0020766503807487964, 0.011522087330933645, 0.017160838185093865, 0.0011505890565616063, 0.0011410360802540558, -0.021715860802460796, -0.002066819737342552, 0.01834359034360616, 0.005557600225774406, -0.0008397576665709383, 0.006634900909251854, 0.00559492932505393, -0.01293405993466551, 0.007852388455841009, -0.012136430118654623, 0.0030865876827776257, 0.011230471836917937, 0.0161604873480764, 0.0007601445205324071, 0.01336862761145047, 0.0064072120200192074, 0.0029848857549052564, -0.009114706367943324, 0.004987758783854777, -0.005452096066297688], [0.020485562063987977, 0.0018020676850363819, 0.005814908107117044, 0.007822226590422783, 0.003970480689325149, -0.01867819818343463, -0.00288418402073768, -0.02111594221248114, 0.0031417408501930857, -0.019092552913177012, -0.006853981597112884, -0.005758984177889306, 0.0012345795520036834, -0.00013242258492654905, 0.003221386892960056, 0.0026244125987114246, -0.0014426752311935598, 0.0019177875213269645, 0.009228331805597918, -0.015392333938918602, 0.007566124403018732, -0.00904020144912586, -0.01266013885674832, 0.0013217003036195727, -0.00391886252622499, 0.004359571522148768, -0.019362847665147648, -0.008606772388448578, -0.007855372840027724, 0.021755631589658236, -0.012465300813684629, -0.025940959474824044, 0.011638960049303329, -0.020352538363288937, -0.01447274628373628, 0.011783293161572062, 0.014721483286339132, 0.014692688320397653, -0.001114653706184455, 0.005683689815148858, -0.007167202067280731, -0.0014543842685245754, -0.013479522662317308, -0.0009468855725691124, 0.002648142979832771, 1.803917338622425e-05, -0.01057386209278512, 0.0012694412217114962, 0.01711300883986331, -0.008980915334207444, 0.0004088345451404623, -0.0022482822319464537, 0.0024879624674296976, -0.016424705038566613, -0.003934854653617498, 0.0031826140936802244, -0.008516250068185231, 0.007776527833663068, -0.0018730016506662596, 0.005571194494194256, -0.004430702002773731, 0.0062194989277335215, 0.012205409609370855, 0.004361988601144682, 0.015784570792611884, 0.007337318051251279, -0.009354742949495209, 0.006001858366648024, 0.000975699848167792, -0.003958517975155495, 0.008965877801458796, -0.0082911774872385, 0.017972851227446608, -0.003051896735773519, 0.0034584603353386774, -0.007337318633658785, -0.008764076397538258, -0.008257882253521101, -0.007213821651796194, 0.0007218517686424918, 0.023463490472019576, -0.016429774329312766, -0.009310356178487845, -0.014936249825752451, 0.0037897247329936284, -0.0010496274675116952, -0.0011379238436469792, 0.0021521592784099633, 0.007068073891812361, 0.00996223012791787, 0.005117430599758594, 0.017414444758669927, 0.011631260600440545, 0.022230846766351845, -0.01906227615690713, 0.001682777357437903, 0.004429491811912209, -0.0040176509027607926, -0.015013372581232589, 0.013448198145743396, -0.013986486420260598, 0.004441027778875806, 0.0169485776767788, 0.002919413926248002, 0.003585511818214127, 0.012593250556812312, 0.009034939704620767, -0.005484096207379903, 0.006122901982735632, -0.008052098706912474, -3.8942842106995126e-05, 0.011897249909507022, 0.001980602715776025, 0.01110146496149465, -0.011456685790151789, -0.010601486037048264, -0.0059574033721833996, -0.011454143856626171, -0.013890442556154008, -0.0007613154474484717, -0.010844155593150566, 0.0013822281498772915, 0.0005458746940325228, 0.003621815365111071, 0.00024258490670970168, 0.027504324695442228, 0.012101437013913079, -0.0010570679411097236], [0.005703685478276988, 0.0013813402245000158, -0.005952184689277234, -0.00023617482193963996, -0.014566214998301298, 0.014054296656326412, 0.005547577442653368, -0.0006761911326447101, -0.005502188469206017, -0.00951911637448797, 0.006858001172440983, 0.005437045112783333, 0.013960070153280024, 0.009001806895382889, -0.005146188454276014, 0.00026802229343624506, -0.007239172850743803, -0.008275567626621742, -0.010821793226738244, 0.008136879308959817, -0.010789560215085283, -0.0106099203737155, -0.004035920954546798, -0.008472118416534304, -0.010465700479759142, -0.021254657112576677, 0.015040876912775543, -0.01752702329589761, -0.004176431884190842, -0.012529573099636504, -0.00696379237953245, 0.007217124859090745, 0.010423364007397533, -0.016928636002144216, -0.0033375203783451196, 0.013452430888399909, -0.000937439911128291, 5.2270410508746976e-05, 0.020075984720435446, 0.012940273565153655, 0.004470975610209167, -0.01841155354608612, 0.005251508551118019, -0.013158003851046592, 0.011862473825159835, -0.011490865064422364, 0.004340629620323967, -0.0026748920026072255, -0.012428330610818637, -0.011878047972342085, -0.0029085572091052986, -0.01089449887264341, -0.0011782570166950779, -0.012550109554550182, -0.002452370396964121, -0.014865584665050209, 0.006468545179264851, -0.003268210346313767, 0.01587471221411152, 0.0019825575069333636, 0.00997866188999577, 0.010772394467022935, -0.006770221849182806, -0.004795812009954743, 0.000457788869606839, 0.00241667714647661, 0.002917957495680856, 0.03055362259128757, -0.005109427395631827, -0.0008069494720400496, -0.01236968155366841, -0.005887539226237779, 0.003397058244252949, -0.006388213448198461, 0.014806678643658535, -0.00925862516890528, 0.0036902241071008154, 0.012588546626149761, -0.028834735799945707, -0.0008357831299193701, 0.013490275994157903, 0.0010066604054217079, 0.023933611310077988, 0.0038296435877377285, 0.0013922663132047946, 0.002144253271522129, -0.00033355514605424484, -0.0030489088513446587, 0.003267790217895306, 0.006371563003323587, 0.001800501938338392, 0.0019830434059508613, -0.003927243489686976, -0.001823088194954668, -0.015203217272978001, 0.001078268271814115, -0.005624383501067482, 0.009422113486428631, 0.016281568389039536, -0.0027875698677192963, 0.010744544879895066, 0.016442074206683827, 0.01059863444791272, -0.0019221158420677285, -0.014378828390270626, -0.017157270031775803, 0.009839382968962125, -0.001263223418732631, 0.008309816175396074, -0.001433715961525523, 0.013618739982030996, 0.0003505169498058479, 0.0069900205541897145, -0.016310282466143057, -0.015553566150047382, -0.006728308760158942, -0.0038151666320591477, -0.0007977948873164635, -0.0049626489752404865, -0.016171323695368063, 0.009850326912038595, -0.003190900353563, -0.0010914620904156945, -0.004381440166048117, 0.014032574812501706, 0.012981582192297166, -0.0028537649980387397, 0.003333138515849053], [-0.0031690097714219814, -0.006342125968617447, -0.011152825946794015, -0.006615238930372759, 0.010111409517727045, 0.018705563249249952, -0.009089191350426238, -0.0165175114924271, -0.014058530637902229, -0.01729580081252725, 0.013112131712027754, 0.0033108827291545365, -0.0038596836916242674, -0.008608721988911102, -0.012485421920794156, 0.010213116489261131, -0.008779377075802175, 0.013423843771119671, -0.001874953024105134, -0.004542465439989692, -0.005732319007322299, -0.010289687648299458, -0.0007766571446105368, -0.007472959423935918, 0.0029282310868680283, -0.013862738383433939, 0.008690115962143035, 0.0182093812636633, -0.012000232068318625, 0.002684004750417402, -0.001687165019425606, 0.008697887435019288, 0.004107159354222911, -0.002505627420212486, 0.013394327060593767, -0.011423296201405704, 0.0007050085928349385, 0.025423154497344044, 0.0076703973211667865, 0.006920759339428008, 0.005285034202779541, 0.004432445672461598, 0.0033618756674547844, -0.013821598703865543, 0.010339178636633852, -0.009394049322882451, -0.01237265525493609, -0.0060716444539167325, -0.017129667493804096, 0.011466046234400583, -0.009825037613840706, -0.013473365795891572, -0.0031452345901569344, -0.011152773322727294, -0.005494368906660092, 0.013780398432396, 0.004743551141195765, -0.0009396494054965775, 0.006443005427032569, -0.011218350163580679, -0.007317886058443181, -0.00633222795397264, 0.00012139831008770855, -0.0043239212853430214, 0.01889538235363852, 0.010403636535111907, -0.013526084361070683, -0.0014591083978135902, -0.004945418678685944, -0.009740947486223159, 0.015778740693852593, 0.003059072975067057, 0.014923454214657943, -0.01341227322853775, 0.012811385756213448, -0.0003769556685936905, -0.0012489206491735894, 0.00320277702728286, -0.0010532635104610606, -0.00987556239340985, 0.01415877723127418, -0.0003883695959179954, 0.00455377368444871, -0.01679429136227335, -0.007018428711911562, 0.016922228614297565, -0.004191840056136059, 0.00846279718188139, 0.01299097386223726, -0.02240356999660434, 0.014805136899604242, -0.004246522389314134, 0.007096164770738496, -0.001544507360147022, -0.0032436691748449586, 0.009064211736590779, 0.007318455090277327, -0.008707014986574994, -0.02157743921740493, 0.0015436070696384007, -0.0004540050717555961, -0.00490653430662522, -0.02361392293888688, -0.012911173338898565, -0.001620891732957413, -0.013093614568999472, 0.011309971253710265, -0.00045001760773366345, -0.0025187657987652103, -0.001707772424981904, -0.009875127363304419, -0.012795898772992951, -0.016686502652944274, 0.025768288940219798, -0.017213635589476816, -0.011983063454322889, 0.0007963533128049795, 0.018523104314319912, 0.005929861607345688, 0.008746495442146432, 0.00336643124392662, -0.004152967783862234, -0.01196502792043043, 0.009365956761211663, -0.015482709422454036, -0.007161920090006038, 0.003855554429103141, -0.014946768942927319], [0.009970986266340697, -0.0016444219490897938, -0.005996081481702311, -0.005484119942183805, 0.0011499026527124296, 0.01024791795768197, 0.006263455128568011, -0.0031103749122097487, -0.006159098608363719, -0.013281677508632643, 0.01145856980231266, 0.0061136322346627995, -0.025207513697375256, 0.0072132602631877945, -0.01397664877467044, 0.019699023449045987, 0.01381824027267238, -0.00819495376331023, 0.017940092628471675, -0.004915183860598801, 0.01056976229387888, 0.010973274019554129, 0.009409499165161945, -0.005463588012716105, -0.0019409899240514763, 0.006908263792043254, -0.012305476204809672, 0.002902651045566788, 0.002809876557043686, -0.008392142767038353, 0.004392432507816703, 0.0168486535360703, -0.0006116469796897272, -0.011790132381214256, -0.0038327713253634957, 0.015561170583684444, -0.0037455192259934367, -0.0031556306323098668, -0.020791862520847495, 0.005892357446138879, 0.0009719681880427294, -0.0037201382639750155, -0.0033839257628043456, -0.0028440053753614153, -0.0042766958903989495, 0.024584219538596727, -0.0014271580721474423, 0.013500119852502488, -0.004671091891634586, -0.04135861108416668, 0.013135441317245627, -0.007451977833480121, -0.001305883675011956, 0.0170139754436205, -0.0025753264751176837, 0.009590509073887058, 0.015494559528388128, 0.005086363323688903, -0.004387761747715914, -0.010731997616387797, 0.002048074715902067, 0.002726946545937436, 0.004840186057448254, 0.016332924676129932, -0.0010593788977038062, 0.010753876926871755, 0.005599897165532314, 0.005358807366977233, -0.01984567089194276, -0.009542138884749269, -0.0037661619876700235, -0.0032930192716086053, 0.000643362953959818, -0.0014517212518876527, -0.009386711242918256, 0.0025205979036971304, -0.0010006934297726176, -0.007330281322168471, 0.014299127275268747, -0.00704258863796877, 0.0019319868811064173, 0.018632184773036787, 6.851468656748853e-06, -0.01002400273339623, -0.0016313563740035786, 0.0026300731746207113, 0.0029671260119221938, -0.004381814866939614, 0.007789300283728756, 9.949511435513625e-05, 0.0008222247127218213, 0.0003327631856863771, 0.0009874006820050705, -0.019747322290488863, 0.01007529752425528, 0.006652904188943787, -0.01299284502512041, 0.012668026401701886, 0.00028345470965224977, -0.001126912802866314, -0.01599899229784142, 0.016095456495345054, -0.010120544687960191, 0.010258026636732722, 0.0059711939828433385, -0.0068268904648479565, -0.0031178525045306733, 0.012829526126777565, -0.002983136948383833, -0.003089689288106588, 0.008535953110964173, 0.00283927823150926, -0.0033613876816578074, 0.010350059928935595, -0.0029532536148797546, -0.011073451242603038, 0.017814346939956503, 0.008685887782682852, -0.004218005545551848, 0.0030221174563664207, -0.019995322550018693, 0.010221455658514273, 0.008627533541267768, -0.00611616220822744, 0.002996540408331819, -0.013387834448885236, -0.007530849125257333, -0.004327416856242361], [0.0011034420761778648, -0.004395789772960091, -0.009023861842215198, 0.009081268791094277, -0.014877262455745364, -0.00021289885942267088, 0.008233033753226562, 0.012552611061476244, -0.00356471738698705, 0.0049141896894744595, 0.004471614407884123, 0.0020637445303427703, -0.0022605111594915994, -0.009582670037373193, -0.000916507731652744, 0.015891246231303963, 0.011615319975699897, -0.0027312104572291785, -0.012495743370047385, 0.01826776243942991, 0.016535038201065774, 0.007685858805495006, -0.00039448257139234965, 0.006262289651993333, 0.008076818745634314, -0.004631590143531746, 0.011621365623853111, 0.006609580344518112, -0.014854837073664367, 0.01025404001507024, -0.011867779953436469, -0.004289674536094, -0.0016757956902062083, -0.014750755410436965, -0.007836777218380815, 0.007889661384105032, 0.0034583458600272697, -0.018247449832933298, -0.004508279342023528, 0.010743878663166595, 0.011481405698438389, 0.009413314455020427, 0.005433429959231786, 0.0034439172639022537, -0.0007075444075614407, -0.013668629319510586, 0.013438864937069727, 0.004887271552997914, 0.00029029257739674976, -0.005099028186959161, -0.004167167227077188, 0.000935437461006317, -0.011183914020709491, -0.023257564127960723, 0.0051925591190596235, 0.005255488895298267, -0.0022183441603282894, -0.0002916266352325991, 0.007586577931813799, -0.003416452236551332, 0.00673024151392089, -0.0011300757877356247, 0.003845670698607476, 0.0034614546238930987, -0.003087326907623263, -0.009438588966977655, -0.0006718453760841473, 0.015118923160053182, 0.00715452159710499, -0.008241445973048434, 0.006982622925815324, -0.01430324670366606, -5.111870803502237e-06, -0.01671051640391847, 0.0031641787814020122, 0.011764399651912385, -0.00048582015060796125, -0.009777914019326879, 0.0005264350300703083, -0.00519283109714505, 0.009670011348043777, 0.020301769038472695, -0.0001024670053740398, 0.004710450124310963, -0.0028934083020115122, -0.006373365786912676, 0.022610719278881638, 0.02113819301474595, -0.014122307840407867, 0.005487382996799532, -0.0077076146191230824, 0.00036492717940512685, 0.007640362613121261, 0.004317760559774685, -0.008001490259283631, 0.0021260599242887653, -0.016807650460145138, 0.021256340019456924, 0.010704971821158012, 0.012233890794997567, 0.002080489839707924, 0.020784345878764175, 0.013544053354803689, 0.013187154877475139, 0.010295948102536676, -0.005606163305801223, 0.01290393379013548, -0.0026758291503376675, -0.009046706609854384, 0.012186958247921289, 0.0035699302014825735, -0.0062697145543543125, 0.014519223584675483, -0.0005116652016840986, -0.003931952538543056, -0.00926912271820827, -0.0023809780364403683, -0.001846394217499765, 0.0011223787160126212, -0.004669110859070033, -0.0094734664766337, -0.011455116872000622, -0.0006731817388657403, -0.004857389676406439, 0.0068102792721512605, 0.012767684734023422, -0.005030925586593317, -0.014610176489701681], [0.003273989922225421, 0.008762433969414497, -0.005921087173417697, 0.0012374962640730994, -0.0003356355461233227, -0.008930282776125474, 0.03385949888992662, 0.00145863542868804, -0.0055960695921529555, 0.007453833890959644, -0.0007072118308198934, -0.003824055936082371, -0.014010053247465449, -0.010254513899567058, -0.00908945149198339, -0.008141507841022699, -0.007541256920020919, -0.003636713672316407, 0.0089112897669978, -0.0056457902699759265, -0.0002865759752746783, 0.0016806290067019017, 0.011645309812099332, 0.0015642866211685378, -0.001280088237641321, 0.007435657458438327, -0.015631387329931988, 0.010717547257395496, 0.008263922585899702, -0.008791475345408185, -0.012121505022737027, 0.00565550454521457, 0.0069111076011607155, -0.003021754817220525, -0.017115722236987718, -0.00403077179933791, 0.017001859346812972, 0.004686210683382996, 0.0046186038428887724, -0.014011570719392146, 0.01445416435071286, -0.006600073522644896, -0.0011015480519084783, -0.004524201975043132, 0.003128971675097977, 0.0017026422854510667, 0.017448874965007154, 0.0035558020136203, -0.013105963397050873, 0.010495904305000818, 0.025215683812434688, 0.023575915493288052, 0.011663887085301894, -0.0041495805166825465, -0.002883812030211765, -0.007522167719885354, -0.008466818617106502, -0.004948183752556217, 0.005355170503424, -0.0027405656780138173, 0.011333634921215465, -0.008535373777728391, -0.013274816492464068, -0.00673440966953595, -0.00964985937468631, -0.024265139829873536, 0.008854384212516643, 0.023778990838671597, -0.0049197700922676115, -0.025176515980469442, -0.013686466024484657, -0.004385227092163688, 0.0013766267820994745, -0.007057167522202125, -0.0029574411463618596, 0.010497156736957433, 0.004323103325495219, 0.006037185255943433, -0.0008756751067059283, 0.014064033890806012, -0.00025128148098979927, 0.001275176013493473, 0.006593627904982825, 0.0033880927737812757, 0.014350491200022969, -0.004481109639580797, -0.018594111359249856, -0.002145517964983692, -0.014699404525095732, 0.0030739516275715, -0.012563678514571413, 0.010733482539754969, 0.0017866562207219732, 0.013590412133234118, 0.001807601368883404, 0.012106400639258564, 0.00478275936689744, 0.013620872431970393, 0.008057710992555105, -0.01476565277264438, 0.009491973985003139, 0.003761722831024855, 0.002535140463703427, 0.008807916892700903, 9.846673818907508e-05, -0.00589565018563991, -0.0022568295108035866, 0.010187786359286922, -0.010812901290278435, -0.006153492433102045, -0.018706111649441203, 0.022399930601031248, -0.004909916255298971, 0.0051936177311378996, -0.005075409925970044, -0.0222202673791945, 0.0058028757388454665, 0.017744474416888496, -0.006015705607138681, 0.0021154861063058194, 0.0010960070211374837, 0.013460139089353394, 0.010162961091300245, 0.017685067531175682, -0.006952004747750309, 0.003991988660228312, 0.007157156161493313, 0.004832873053867763], [0.003736555765558392, 0.0020111604716938963, 0.010064667683215098, 0.0029347699926668127, -0.0003235589522823528, 0.0034027185821955347, 0.015338974034339781, -0.005539862944980041, -0.0013296313129646151, -0.01964355450522077, 0.0006346948143769926, 0.013671520098075901, 0.007048312542725588, 0.0016923944074112923, 0.008256893945612779, 0.009370854770212976, 0.0005133491056071305, -0.012371056850342404, -0.012783980415462286, -0.009352440071799306, -0.002515983660683654, -0.009917225764888501, -0.0006564671094196971, 0.020278027812716214, 0.0008497611990760376, 0.005421880563308612, 0.003024512422908071, 0.005461290876203316, 0.022161971300654795, -0.0043753410360000905, 0.01300250666864337, 0.012276948983139949, -0.0049119987802652715, -0.005906044290299464, -0.003762731762626363, 0.004109619663937763, -0.011325874388297146, -0.00384893611738306, 0.008815084736104917, -0.010547511910050695, -0.00817723380588905, 0.003882717665813254, -0.012118171130713265, -0.006318638083355228, -0.0040852667388910305, -0.004021680653203155, 0.00020249806921953406, 0.003917056789867472, 0.0027985332890413045, -0.009197437551805729, -0.00036528293391663996, 0.003836224313782541, 0.01515487742528589, -0.009480725448737029, 0.008046233564844862, -0.0033894910011235974, 0.020219584465992955, 0.00867736462342088, 0.014366938654180364, -0.01170196246228649, -0.01534406804195113, -0.008615981723132382, 0.009837848604103014, -0.011530254524346273, 0.018478086910693713, -0.008087748815346098, 0.007337035641905077, 0.024646872273901818, -0.003251381580226826, 0.001081657798724844, 0.01536307916664313, -0.0005062342171466627, -0.009727518274418737, 0.0037062992058612032, -0.029391548122577243, -0.0007049127861401079, 0.01271286509469451, 0.00018640190033022568, -0.015328281763492347, -0.0004247674820771495, -0.011316872801058203, 0.004609830302354425, -0.0021105540681309555, 0.016650987311059684, 0.0001333034658634687, 0.0003813005307423536, -0.00901563705908688, -0.02624266767556371, -0.004068567521487541, -0.02434134876276796, -0.0016525673739284305, -0.006594620049728277, -0.014909068872254403, 0.001780719611037963, -0.003779899488994384, 0.005897245948882273, 0.0024141960517562976, -0.006969362462681037, -0.0045746060880253216, 0.01152343769360124, -0.012736348484407412, 0.015193423646669547, 0.00024271686827741077, 0.007776348822827739, 0.0010755764438865226, -0.004362959209376324, 0.00546535540630121, 0.014400199029807974, -0.0029049864979242067, 0.009023179945572325, 0.01392506902254738, 0.005519359108925544, -0.00431110798257776, -0.0068785401165996005, 0.00035611302444496734, -0.01902155877855884, -0.00900179909432699, 0.013057532377827396, 0.007045325998057369, 0.005753473509928629, 0.0010334343331530398, -0.012576394784652216, -0.022857278276018675, 0.01541374957371066, -0.0037549125121735254, 0.016312761775558415, 0.006080888610237128, -0.005740641318051282], [0.0013121762040271103, -0.008615504150337872, -0.009940685469635757, -0.011257246621243838, 0.011629716853029723, 0.0187589926918817, 0.0009266225537592211, 0.003750714505688077, -0.0035951693141940706, 0.004548332491231911, -0.008556759436033769, 0.0032985280741124295, -0.0255131901191982, -0.010037610480157059, 0.002040351656425896, -0.003404135426140311, -0.0024722178280783855, 0.0036347419958457626, 0.013640601587733928, -0.014388650695123769, 0.014198349922250544, 0.02235676737089856, -0.0112441668709719, -0.006159898272346324, 0.0035458102221767513, 0.005309071032855868, -0.019633703911693764, -0.009804382934048287, 0.014409532284090917, 0.004553907504712924, -0.013395982202394591, 0.0075234934382541535, 0.00017372034917570857, 0.008089851014450408, 0.020071706817902185, -0.014622141513178687, 0.011154978599301773, 0.001241452166797368, 0.01768285504586384, -0.0057227036291446695, -0.011472126604599864, -0.006121867132582175, 0.010594106765856906, 0.009011981214144957, -0.010909474608385311, 0.003971506862420361, -0.0076805142152130265, -0.015339970783706167, 0.016517230952402557, -0.013588066512003746, 0.0083047551617406, 0.004501256718458035, 0.010096611445836177, 0.011391398402266748, -0.0014557293246907077, 0.015329509556267263, 0.011588096886445551, 0.0059242191225878345, 0.005486331643166755, -0.003218730262109634, 0.013390242095212274, 0.012327272803035862, -0.019571676824483342, -0.008907003621676717, -0.0014262526964154538, 0.0020925952673977117, 0.005074306101704986, -0.004939879522167368, -0.015159158301423762, 0.00614329377558242, 0.01419314527213938, -0.02034502180637416, -0.008952303512168044, 0.0003251839354924149, 0.009002459195517174, -0.0061842991212072715, 0.0037645184845627993, -0.00836034212280353, -0.0015043735003091598, 0.0074968603689019786, -0.015394804026138229, 0.007127435874519663, -0.0036260078091572105, -0.014585230540834838, 0.006178761467229203, -0.0038135117589977664, -0.015302899037853777, -0.02350080896227407, 0.003256662044132696, 0.009443657988871845, -0.002681674141901742, 0.006964416184911922, -0.007479348577356645, 0.011851051178816052, 0.0024649314158332117, 0.001817492055334184, 0.004428397476890605, -0.014067633483289719, 0.012889585541232913, -0.012231142611845868, 0.008787416189050413, -0.002688725668765601, 0.0012150860077661718, -0.010834694245490589, 0.007063580303572016, -0.01295081831321038, 0.005041307483548918, -0.00917277347801307, 0.01580618483513632, -0.009188665242278604, -0.0049988312567534185, -0.0121986005388382, 0.019805242512788947, -0.008115404974601422, -0.002048267959888022, 0.002189045619536516, -0.008085407242802068, 0.016732592563871867, 0.005119690801405406, 0.0035784549616244645, 0.008950170157463553, 0.006232450497958983, 0.0025308133014185948, -0.0062193820797985565, -0.004891275385143151, 0.003939018627024667, 0.007809444251919792, 8.269834010376476e-05], [-0.0039051558637316353, -0.009010976178521958, -0.018837512836145813, -0.004239221739162568, -0.017476016360513096, 0.0027006601819160505, -0.01014392737532278, -0.005849887466689477, -0.00043422915202220657, 0.009367609480751344, 0.0006215362587156424, -0.0008457290959538689, -0.00033566663576079555, 0.007317636617345674, -1.2565907087540212e-06, -0.002630977711095597, 0.00030405929496929104, 0.018081651388547507, -0.01541561668707294, 0.006852941709173772, -0.008746346319750697, 0.010792541152808198, 0.005465978904055978, 0.0014644542357689348, 0.01438014473370686, -2.890332163369879e-05, -0.0011259032052580295, 0.003290443639898074, 0.008583898034477214, -0.00894832611284772, -0.00978928054252094, -0.005911488031770949, -0.006330873433558076, 0.012874089801225239, -0.0010852010015843505, 0.009499942015096963, 0.0029817813722471634, -6.24598958067671e-07, 0.008843537857713038, -0.003593198381315824, 0.0037998764954087208, 0.015501092186979842, 0.0045026438248055535, -0.011330540307620667, -0.005440223830395118, -0.0014154659403266317, -0.00479199837697041, -0.004677696698996908, 0.01270090119798205, 0.023315914704271915, 0.02108031358711238, 0.001109897807382351, -0.0011470944053960646, 0.0002923627033183976, -0.002301834243668565, 0.009739280732492613, 0.004564591517753608, 0.010595431446314, 0.006592821674680183, 0.00129127534668159, -0.001656017088283717, 0.008270016285115403, 0.0008485744131362214, 0.009220349634382197, -0.020220565968317606, -0.006893916759023842, -0.019275593239760698, -0.009972177760967373, 0.0024685548522045513, -0.004830057668814862, 0.00011528342148520572, -0.01274197013979553, -0.0052892734861282814, 0.008978935222526655, 0.0037476236184372257, -0.008561423481858094, 0.02438615335486733, -0.03186990865341446, -0.00043533125400506374, -0.029414221607268292, 0.013837203883649637, -0.002431715016216441, 0.011882162953632293, -0.01432701194858636, 0.015141961543440031, 0.008892696721436626, 0.006742705540757308, 0.0070494932756432396, 0.007291558628327552, 0.013826466048650283, -0.003747219311184495, 0.007346007933639161, 0.004550991933816624, 0.01109448526885747, 0.019962719531360758, 0.005976519398804742, -0.020130688422707703, 0.0006893545437145075, 0.0002187722591635333, 0.007995075417958178, -0.00617708520184146, -0.010017105791425432, 0.008642625943235943, 0.010351226403780046, 6.690890244021342e-05, -0.021699670672676665, -0.0014567241279150962, -0.013162029611318833, -0.02172326621333259, -0.002111546770401825, 0.01305608483785204, 0.005003028232888032, 0.01616830193224416, -0.0024656882351394866, -0.00532120826187542, -0.017399909186915273, 0.007054922531774952, 0.00901611760185398, -0.016714349698114788, 0.011132361006539365, 0.003738808008838088, 0.0033498151890384072, -0.00806393997362354, -0.002282347823536921, 0.0016726402263027157, 0.0047665069189121835, 0.017039800907379016, 0.019052869394388387], [0.019998146961600176, -0.0065882701796067065, 0.007090839879692506, -0.0040695220946338605, 0.008030834390360548, -0.03416165580820144, 0.01031921798663034, -0.016381611964834848, 0.006359641335394222, -0.004087761945466646, -0.004642717114978836, -0.020636159812657952, -0.00670159005314635, 0.010127920897231022, 0.0002439643671480671, -0.018837574388517308, -0.00017282459132903296, -0.004778300275216984, -0.011668980005105505, -0.0030477996527990547, 0.0019112934420340672, 0.005763533986646577, -0.0013796666225823115, -0.003843480480446918, -0.001901711573476416, -0.006517351707955304, -0.006266821861851652, 0.008702273776446787, 0.002998929857960185, -0.018276883749141024, 0.009920596786205658, -0.019027664017974236, -0.012278207055903694, -0.01417988720117761, 0.003940800840341587, -0.018266928208754796, -0.007951439199497437, 0.009284825638125677, -0.02019912082996708, -0.017561498029042947, -0.016618004053267906, -0.014418078839845656, -0.002234190410676583, -0.007275908755392451, -0.005965699884050919, -0.012417782315728177, 0.003309272297284349, -0.008380798968397983, -0.015320445936964218, -0.008962144747129471, -0.000275488270970162, 0.006852935010099992, 0.016273125753833197, -0.0037495905170009227, -0.01526286612020236, 0.01093027946236593, -0.0006770388706291364, 0.017783672232236744, 0.001903545625600207, 0.014320723786458323, -0.006801552810343214, 0.009774139932452247, 