{"layers": [{"size": 128, "input_size": 784, "activation_function": "relu", "weights": [[0.009380221755338964, 0.010932951025683105, 0.00045808035479083487, 0.0061945322638785, 0.011035954366275632, 0.0010572128077966146, 0.008567246465946634, -0.00824433830897465, 0.01198497960617898, -0.014933728265005816, 0.0013976446557243958, -0.01157082560118392, 0.009294475325482625, 0.0036837184705214607, -0.00036938158000380633, -0.008391664745172361, -0.0019319872094727454, -0.0003537644126265127, 0.01798714944930992, -0.00016439201538986475, -0.00761757991415808, 0.01659902102015299, -0.007553015741614456, -0.004292392680514935, 0.006027326346310797, -0.0037088960190631904, -0.0009310632888567985, -0.008897517211023463, 0.0025481224505185347, 0.00729101083637783, 0.011017340093146975, -0.00863344380103458, 0.006370991652383585, 0.0073081582130604585, 0.016449799054316587, 0.006288145115196299, 0.005696907808741598, 0.004941231963912712, 0.0052960089395299986, -0.017418604365234742, 0.011161152908916406, -0.00018186042670872445, -0.0017239027646011702, -0.021244508737075108, 0.004208898434025541, 0.009795390383131975, 0.008386593222651827, 0.01212873976255053, 0.0011338960638814547, -0.0038045504031603496, 0.008260969786065574, 0.009686518301931757, 0.005184529485505622, 0.011903133887784497, -0.011435864616736176, 0.012480920633636816, -0.0024509739878317226, -0.00035739189445286326, -0.011727748366298472, -0.0012203388669447838, -0.010391279850835138, -0.009780546924342767, 0.004729965061456244, 0.002536490733650223, 0.0071783713514399885, 0.002745286267432253, 0.006034348365050279, -0.0032826811033032244, 0.006597883391251086, -0.021064086504219027, -0.0006833053002278644, -0.013616661813508613, -0.005352816575121361, 0.002693213845402975, -0.003488012281967703, 0.013260219392581771, -0.0011694877840263342, -0.00048047729193011765, -0.012626333013010107, 0.0032118157214369087, -0.0023553815668913873, 0.007943960289790811, -0.012231516913232095, 0.007491801398744556, 0.005759820324017519, 0.0039919697000106715, -0.0021222479675018116, 0.0058724731373291615, 0.009336797962825926, -0.007566771682413311, 0.0025098640306167926, 0.002310160200344452, 0.010896515250007928, 0.016356701336204673, 0.016057331409961233, -0.0032730844463842684, 0.002586797371905815, 0.0007162231706523335, -0.01724874146396791, -0.0076069779248608, 0.010185332780196734, 0.0008287186528797179, -0.01500703754606142, 0.014762684581687464, 0.008315797001663653, -0.011114647471310832, 0.010299114057143245, -8.075831013676818e-05, 0.003696471340048772, -0.001044576138095261, 0.016752640403495295, 0.001209074839719887, 0.0053684054947362525, 0.004869891449941378, 0.007976965225042437, 0.0020127240646891044, -0.014939933824859575, -0.00636961140288573, 0.00016476853567875906, 0.008559486098270605, 0.0019526276920883664, 0.005009566824488174, -0.005884295896714324, 0.004894940472162867, -0.017057083378003445, 0.013116833098309593, -0.009047155999823468, 0.00636619657289685], [-0.002091320839586775, 0.021919440555413058, -0.0018069057545521037, -0.0074121822822351205, 0.007404475850602551, -0.008281440764719698, -0.0005757599202692868, -0.002767491533987318, -0.01869924156015867, 0.0017514907527517453, -0.015933873372017338, 0.004221848987140334, 0.0017850295114473346, 0.005579383469388629, 0.010554292411496006, -0.0008246889371934834, 0.001076464522444225, -0.00326988565275493, 0.00017743020614869616, -0.017228384912441937, -0.013562615224050101, 0.001595711772393452, -0.006886849369936047, 0.005995410183529247, 0.00927006449611187, -0.008247643633265623, 0.007626983225120093, -0.011874880629662323, 0.01672388145611865, -0.008872299906721127, 0.003898440891092183, -0.0031251929601984647, -0.017572062907700123, 0.009580081748834311, 0.017206592373957674, -0.006658256923565518, 0.01510849003313561, 0.015831535732873676, -0.023375326164226665, -0.00023112700547527423, -0.006766281135330366, 0.01420637681518412, 0.008322648189273816, 0.013266416685597079, 0.004090425426233195, -0.02329289727575489, 0.005674296181731818, 0.013449489127974914, -0.011442144135453716, 0.0026977935342973824, 0.00965628101375994, -0.007928109621627514, 0.02217765599694472, -0.009883675739646611, 0.012695517553483356, 0.009405293403876178, -0.00013075887452426995, -0.017037812032975903, -0.0035143898595810675, -0.010728948993635362, 0.0043266628809398066, 0.013768651259190905, 0.006635110694624914, -0.00367019105452253, 0.009726783281247915, 0.009613227980055752, -0.013753653222131115, -0.0040483886606425615, 0.004917028192501041, 0.00760971961950574, -0.009763543165821335, -0.018636399117893034, -0.013236934078736528, -0.008373692948254718, 0.005105819326102546, -0.004674923929580086, 0.011578068216081766, 0.004973646063985058, -0.0018914044958422886, 0.001381404971645259, -0.003696599378317982, 0.003337659679531011, 0.008954420376493369, -0.01670085172240709, -0.006716554368288632, 0.00017470574342744462, 0.005221826310910626, 0.005916381095838046, 0.007440887434125513, -0.004795437890112426, 0.011186096843253699, 0.001780718376889092, -0.0066353835379571935, -0.003380595743809579, -0.017048889169225673, -0.01578671654909566, 0.005929890242248907, 0.01400476338877219, -0.0016675116024778048, -0.008319412310396082, 0.0015373653221254428, 0.0069293002766436665, -0.007122830596133762, 0.002636869593621931, -0.009208957746782822, -0.0069966757350254215, -0.00456798072728929, -0.023404798705204267, -0.00995113071989663, 0.00667899484663792, -0.014001448693840882, -0.008810028222053333, 0.0008536548134105138, -0.0005769493315278313, -0.00812100707256261, -9.883535000708135e-05, 0.0049541011746472375, -0.007447649380543085, 0.009656665137652272, -0.010477507628656095, -0.008401294804867229, 0.021942958401637784, 0.011380631979506305, 0.012109352210940868, -0.014789391067404517, 0.014896168863075696, 0.0032418266434892074, -0.00880124022758731], [0.009410449639565735, 0.0012787327948473202, -0.012653535978291093, -0.0017291287224674486, -0.0011534543229891506, -0.01358325192363077, -0.011863568134051131, -0.007282439218593232, -0.022586617675992345, -0.0031515522313911547, -0.00866501005237874, 0.00625549435838069, -0.017257276527536298, 0.007827563892009748, 0.0067543208443062224, -0.008605930732927635, -0.003536544776349869, -0.0070775911647163545, 0.009571150631945705, -0.002044778551261271, -0.01154652729201685, 0.01343810396153441, 0.003007001630819376, -0.012915215097997592, -0.008031446666937418, 0.004989662734132412, -0.0047660339924741665, 0.018189186447892473, -0.0039020684392335725, -0.005511820270893834, 0.0012117461262262706, -0.0033467765057998812, 0.002054703412614121, -0.0133260812983382, 0.013927661475566778, 0.0052073494704684056, 0.009259235183483682, 0.01281606961888541, 0.011772552307541435, 0.007980474701969574, -0.0019378012605037367, 0.0034936544921702318, -0.012256051556484984, -0.015979139565480246, -0.02313198074802771, 0.009508907273414241, 0.0006989046229141752, 0.0029585443556737977, 0.013701807524397463, -0.004938211610153477, -0.012616751199765602, 0.010033436183292537, -0.002736783972231788, 0.011808058121156356, 0.0007346898652834579, -0.003715285316094021, 0.006104713867573198, -0.010796820447362021, 0.019482528061854704, 0.0023647853729697773, 0.0007979979415471281, -0.014940501525248125, -0.005712735069848861, -0.00036939119098586027, 0.005684532651619608, 0.008742350766290501, -0.00010457273288879696, 0.0043639781582651025, 0.008361203418936815, -0.0005802206116154267, 0.00021944187280685187, 0.010218127058206856, 0.0036364079365914714, -0.006884043259185688, 0.011760963262999712, -0.015557990816825495, 0.010803339524250248, 0.0027210682304419525, 0.005907722351072335, -0.004079289417746219, -0.0020166778913267742, 0.014227825279934525, 0.007284081128062103, -0.0019658015504621573, 9.071856982434817e-05, 0.0008859851465715911, 0.008150044094637545, 0.018548405440080958, 0.00012293208382339754, -0.006454549321013983, 0.0012144729856677357, -0.006581735385924131, -0.012301910722329022, 0.0056974595755136, 0.002523384743017699, -0.0013040736085883553, 0.016853624845480468, 0.018232793812388674, 0.01967521386910349, 0.01118394380901703, 0.007460753585878752, 0.007502342331414041, -0.0028359916835110992, -0.01372338745091759, -0.008461511499584623, 0.014488607348503964, -0.00677629665170347, -0.0010387722414952386, 0.013111955648671797, -0.004197953319539348, -0.0034376855917986294, 0.0014990597052522074, 0.0019074081206018024, 0.012348763711062503, 0.016244787072409082, 0.011956937793414328, -0.00259301913058743, 0.012883151039554164, -0.006409226637779215, 0.005058094802321868, 0.010150193621781043, -0.006818706122049414, 0.003391686042558122, 0.004673377181665988, -0.00997171909099738, 0.0022637264429704986, -0.004761866034015832, -0.0034840016843418775], [-0.008905048527259088, 0.018637494679892733, -0.02162217410659157, -0.02531876221931466, 0.007839124512075496, -0.0107889223735404, -0.0023413089671020706, 0.010891607265561242, 0.007778009811553346, 0.01485774686857558, 0.004316370597243228, -0.01549259532700855, 0.004028954787671722, 0.0055204703288569525, 0.00045021346900791826, 0.001214322019442601, -0.0007058800241780881, 0.021758207838175555, -0.013634680608909131, -0.003864985136665697, 0.012397682810361837, -0.00027052622778346125, -0.0024907353249714755, -0.0008922296989315767, -0.010620003427305758, 0.01002741671602556, -0.006618781960320708, 0.006731305370497852, -0.002776533705373589, -0.009463470818826215, 0.005205609053105226, 0.015022861541518056, 0.008784432256036225, 0.008721728846237701, 0.004291933273111254, -0.005009776740361217, -0.0016286609970697493, 0.008268877235248684, -0.0028381016280086884, 0.0011819726906308354, 0.008517157939197708, 0.00809500194861998, 0.0038404715639111233, -0.003043022119038951, 0.010204344162299723, 0.01340826537842658, -0.006388390674375062, 0.007377928973731809, 0.0007218902981963026, -0.027066238582004232, -0.012038218381103645, 0.0033624514689429325, 0.004504326061240038, -0.0011965709549481005, -0.01261238938596696, 0.009059331821851872, 0.01056884102516104, 0.008765127257578682, 0.006828352161407265, 0.013820021749538489, 0.01650512880277668, -0.0037502448223954185, -0.0012797711953635288, 0.004540333714265888, 0.01119700615419974, 0.0007168308198157467, 0.014291869019488035, -0.005546010373535435, -0.0011419582691718014, 0.0004906226953078781, -0.0015872231884038219, 0.004875358213018356, -0.008484378802627677, 0.019517069745138088, 0.0007546031150755015, 0.017054032634090766, 0.008435494197325507, -3.6445676548844e-05, 0.003156557320123234, -0.007889133898371982, -0.010720779441230234, 0.01550918141881257, 0.009338931887271583, -0.00715323245689696, 0.0036072852712893916, -0.007617299370525298, 0.014179532140223541, 0.005833049815650827, -0.00802902400893372, 0.006421048372218065, 0.018086061722159225, -0.029711195378594266, -0.003150974461141951, 0.007800869990723735, -0.01595707968209781, 0.0036887575323746435, 0.005580101021826654, -0.007410143508153277, -0.004690049512804059, 0.0077114935332696175, 0.007985243550156172, -0.015708479912161386, -0.004072376994424963, -0.010527482162313887, 0.006096204131552761, -0.007667222394593686, -0.009847582391470617, -0.010628878251482662, -0.0098719548709751, -0.016353285048098583, 0.011983455718430751, 0.01159934360003831, 0.014221589487751927, 1.1814228763173927e-05, 0.018300908157277977, -0.004447897493276279, -0.01291188013941078, 0.0017385842371229372, 0.005631230444306234, -0.0019211465928580254, 0.003138311689009435, 0.019583681282855023, 0.002407088890221907, -0.018950935978885423, -0.002129261832063402, 0.011084025121760748, -0.005236818727799942, 0.0024150786686843407], [-0.009876397132964539, -0.002688296744057197, 0.005274967255995657, -0.0023027661886165897, 0.014141903291218576, 1.6626732204872915e-05, 0.004960937332429348, -0.0021043808581195744, -0.00346441422802166, -0.015410199210376166, 0.02276048172303781, 0.016642862021553247, 0.01989433207307696, -0.006694215106620103, -0.007353910310801027, -0.007299916762561556, 0.011114263897430357, -0.0079784675108156, -0.009399804683428348, 0.00032541486665311337, 0.007585838671510283, 0.002319107764055682, 0.012142834175536826, -0.01183665170662116, -0.012845732400033354, -0.003179046593510759, 0.0014334058719808512, -0.003943960147372229, -0.007134997398863976, -0.008848147215167287, 0.0010503790817785635, -0.0013136407147971807, -0.0025899060170992104, -0.0013228969087879874, 0.008076519798249436, -0.0029194010880161385, 0.009058834546999019, -0.0023996330478590227, -0.0011953736120014448, 0.011575181399047523, -0.011290227114210398, -0.012336483598544657, 0.030655337199557594, 0.02139132744507968, 0.0014359885418531674, -0.01294558418745195, -0.009433004361335925, -0.005667532670437014, 0.016931443436202613, -0.010139761090425817, -0.01129358558250794, -0.019782752217566837, 0.011292072694373375, -0.02515504526682564, -0.01949999950287742, 0.006062323440239951, -0.018758073639106167, 0.009492479627823201, -0.0015088855094118352, -0.0019060751496741512, 0.02526839596026517, 0.002866136092685688, 0.0049268234027691924, 0.009869725005775157, 0.017842509143930804, -0.010274382490393244, -0.016711496569055552, 0.011023408731465265, 0.019098718971635033, 0.0008401277498947731, -0.0041850461304514435, -0.0004540494027715683, -0.013973615159072403, 0.00813983346188703, 0.013884627912566776, -0.004088765744436966, -0.0005929681203444202, 0.0017717250708882682, 0.014943198929084378, 0.00496023867163037, -0.0015645756564111593, -0.0027885637599039106, 0.021842801028802743, 0.002126212359418328, 0.023473205673666987, -0.003086255721893051, 0.019148343112904854, 0.007815474073939687, -0.018103357531568984, 0.016457159436327296, -0.01939066087019215, -0.016797331927175835, -0.011841296471574853, 0.02852513139999884, 0.0013950390041734648, 0.00025311384581993337, -0.0019503700060702453, -0.0018729190006353076, 0.0045353319181827825, 0.008408967850524737, 0.018664677838011203, 0.010016067782577845, 0.02175241303604404, 0.011193176690866143, 0.0053695992003999484, 0.0007005183940392415, -0.005701386362877302, -0.030565010409419988, 0.001954041710524411, 0.008258621236567598, 0.004894845807304954, 0.01947418043745074, -0.008210069258598508, -0.008593113377029867, 0.003289890177784406, -0.0015887107715969314, -0.005758405192642007, -0.005068980667607997, 0.0004909517799117386, 0.006218398093649436, 0.016338882252415702, 0.009854970912138206, -0.0016413596978625167, 0.004415527675208202, -0.011740209891700378, -0.01408659975457205, 0.003792941848760708, -0.010231354830362915], [0.016667118382276885, -0.020319243105034274, -0.0005499661791441105, 0.01698071163113248, 0.008056207169978822, 0.009197812219496266, 0.004448445299495297, -0.008847351211060034, 0.002402935876006263, 0.007064347326483149, -0.0013397079035002244, 0.01847037113137404, 0.003182635914227931, -0.015394657859471453, 0.00017924498723187517, -0.004429694826350522, -0.011334314306591995, -0.016763492256863417, -0.0025485644881574326, 0.02363672434375243, 0.006302897781918952, -0.004705718676096513, -0.009540695265447308, 0.01251879251992476, 0.007650339471365714, -0.0024907746252408767, -0.00038859830771900597, 0.009331202165517638, 0.0038258194377100404, -0.00022515324463584212, 0.0032042149777413167, -0.0024580212031978595, 0.012737641668498967, 0.005749674278187685, -0.004180328989569185, -0.017952707770412725, 0.005219062346542829, 0.014296659714795082, -0.008335621707944257, -0.0015875743295914336, -0.01069045009853304, -0.017861430250175347, -0.0058754761638547875, -0.011784645945477262, -0.0017056711924835896, -0.007077910744387894, -0.013269747825934469, -0.005642116292257577, 0.004560757313662315, -0.00486484910692232, -0.011287267964436805, 0.006836928789528254, 0.017837837168854145, 0.006837477359319381, -0.003124308662502953, -0.002652962684792172, 0.011018449378142219, 0.009826940185172044, -0.00433078615815702, -0.0015648596102766533, -0.00032989795504706384, -0.01123061507506713, -0.009458777563551986, 0.0062316559156780525, 0.016988644897143197, -0.004674683718847046, 0.011914820403201448, 0.004200918732747479, 0.006322323468053546, 0.006044956820906102, 0.001925907877193448, -0.016414137476505188, -0.009877495133657379, -0.01569956829179061, -0.002209590201425925, 0.007422027354529483, -0.013218830856364472, 0.013713993482005351, -0.005263627957147338, -0.005712087886727465, 0.014168275496360792, -0.006072334496636449, -0.011666474784999485, -0.004008353767727055, -0.0006405729864475888, 0.0037355207846205647, 0.021676566784185527, -0.024012590597326428, -0.0005490738206223044, 0.002417666174985928, -0.002120882099675867, 0.0034709293492165578, 0.003416740839043596, 0.0068458846642592535, 0.002190590621796756, 0.013909731265793644, -0.0019570089408055117, 0.005959383857415079, -0.006389349032196888, -0.0040038846249943125, -0.004800588703734427, 0.001779991746781286, 0.007015312920849295, 0.0013588189813992083, -0.0066445849914496145, -0.008742901749538371, 0.022889795633579877, -0.011419946298927492, -0.013973293589696836, -0.019778005725968308, -0.002495592720202083, 0.0014700906504096778, -0.009752000753719082, -0.0016748736808039346, -0.0007904536591057594, 0.010497812175345718, -0.015155466035781587, 0.002970214928909559, 0.009986213606947389, 0.0007853010564108139, 0.001065093492423205, 0.0018811108061104235, -0.013173532290379856, -0.013301178161144997, -0.0037374769433490317, 0.0048758466021550945, 0.00705062164166631, -0.003072933119711633], [0.008850415714202154, 0.0008527493273915929, -0.003894788729035415, 0.004097347895329997, -0.013079349646287628, 0.003933612299953214, 0.0031904897402049506, -0.00889102681826813, 0.0024998768509804175, 0.005550167092906614, 0.002772057594619915, -0.013005569952939996, 0.009005053342054137, 0.004590421649467942, -0.016357019407090022, -0.009554079003986075, 0.01632943822690333, 0.006022958931799715, -0.00681211344516577, 0.007752593514465372, -0.003185814977458861, -0.008754013776097734, 0.0008165036491773608, -0.005738977747515198, -0.02349076084333763, 0.002901319418369797, 0.005545868127839091, 0.0015802136139853047, -0.011792976364094938, 0.010571938711172648, -0.017035200067493834, -0.008878841695199188, 0.007124525509390185, 0.013453995457850428, 0.008549451874779785, -0.0185650436007114, -0.0055867408268046375, -0.006715470519708861, -0.0035753137068483105, -0.0019644839699787505, 0.011103909958194305, -0.005172253569569058, -0.023536528142508742, 0.019303092298955656, 0.011380838476157814, -0.005452157577427643, -0.008791440922018279, 0.01567431685954897, 0.020470937021686356, 0.0046884045557620555, 0.010103779571218018, 0.00559937568141232, -0.005706643161720632, -0.013536068531031824, -0.007785193614001015, -0.006525353907646823, 0.008277820090948781, 0.001661205781952278, -0.004768844853034785, 0.0038147969728649575, -0.004554061342561573, 0.00379638236691853, 0.0008122000661559516, -0.006630868814855557, 0.012109220048602811, 0.011098595532826867, 0.0015582034948118286, -0.011438584190703888, 0.014431492986645122, 0.012103076920433496, 0.0085104975575717, -0.00024199474865161535, 0.0022295248339274103, 0.00608307833071905, 0.0014341174899171864, -0.008044615059591316, -0.014654996067019999, 0.01482979841742767, 0.006504541712721998, -0.00866805784987368, -0.006283462701952361, -0.0028148805245782034, 0.009821774449055087, 0.00994142379700808, -0.005646997693354453, -0.0160181704705907, -0.0028101057283956145, -0.010426169035345456, 0.014628652289539659, -0.0034169543539968213, -0.002985783960444593, 0.0067562898215703104, 0.015628385557139617, -0.01423963520273576, -7.435470820481448e-07, 0.010932704658220166, -0.011501515130979864, 0.006023463359890112, 0.025748152437110223, -0.02146013220462847, -0.0025988268395422186, -0.022879052866246318, -0.004963867286263171, -0.008585879349735715, -0.027233241073042255, 0.014457073810085794, -0.009529846302647213, -0.013235119406827336, 0.0007816577562764103, -0.004342108097209035, -0.003850428794667365, -0.011539441233096139, -0.0002208561741935307, 0.0007108378723944911, -0.00485611981544199, 0.01666531261880458, -0.018641080651635028, 0.010636938776998206, 0.008425037399228735, -0.0055351273093480835, -0.004756936066902812, 0.013222598943410775, -0.0010133921205866, -0.0097393830744504, 0.0029962683182147344, -0.015020475069173643, -0.0006773183544971444, -0.010414288575987996], [0.0018177953923778553, -0.008020815221478888, -0.002762076166600483, -0.02122376088867725, 0.00564864542469535, 0.0025423753425054653, -0.016732315149982017, 2.025003829630418e-05, -0.016536344616347835, 0.0032593985041579625, -0.00835865034732928, 0.005550560974079969, -0.00798745815424834, -0.012361338366113873, 0.003024977718139081, -0.010227833009637087, -0.007295232376488903, -0.003990074874184583, 0.00014446429168769892, -0.0050874544006677645, 0.0007119493959706181, -0.014682369595596769, -0.006410942292338948, 0.009375606587970535, -0.0027606913608943084, 0.006270875517759717, -0.003807878643379781, -0.024589593429221544, 0.005873198979282271, 0.01185238693375095, 0.0007955506495548036, 0.00027568490172711024, -0.005832934755650629, -0.0069057557286625985, 0.0054104092902799664, 0.026948047521794163, 0.012010897209361233, -0.0006690843452437064, 0.007237772316466147, -0.0011750279571629218, 0.02020304406260951, -0.011498112383298831, -0.003435599564396967, -0.012510955522890116, -0.002356244389418206, 0.001339363055438309, 0.016105510989578443, 0.002846575276092258, -0.02697307806282627, 0.0019216125470155937, 0.002253308337877724, -0.0029778330179289986, 0.01482873572684117, 0.0032967657420586755, -0.0012380587864273926, -0.0024791250260569747, 0.004884318269533629, -0.003782967649108992, 0.006477463680148199, -0.018055876106412856, 0.002173737475935371, 0.0034881894661087333, -0.0013733478067133118, 0.011567275595204811, 0.0044920063923598605, -0.013920981312841753, 0.002981010851799186, -0.002172722882891891, 0.0016914789315098102, -0.012904529167471864, -0.00027137686258840585, -0.001516889211517265, -0.020550817022368925, -0.0014871761950653662, 0.004390538211231117, 0.0030169624139737197, 0.011566186790440953, 0.003118149178919598, 0.006448105504690521, -0.006003424428668573, 0.004594738686273315, 0.0027319571986061564, -0.013286089841938731, -0.009392500076886417, 0.0012941336686044334, -0.00680988925406567, 0.0007465125990818785, 0.012939258715706836, 0.0001478873785186838, 0.008754060471449495, 0.03716315801868709, 0.010548076474241523, -0.009515116932997095, -0.004499242226575206, 0.005781535212734359, -0.00839667822093604, -0.02373213557815766, -0.008574678826092336, 0.003734348123748125, -0.0010160441740521655, -0.02338356939804568, -0.012090395101031064, 0.00698614808389716, 0.009753562496457459, 0.003853332901378064, 0.010366266888964689, -0.020254572100333487, -0.008303194616519191, -0.008148352729689357, -0.0028629775900464666, 0.005486947308830302, 0.024179543181771228, -0.006676835333140647, -0.002253300004412378, 0.02641350941433886, -0.020207509009434944, -0.0012299321761365266, 0.00685901402263182, -0.01183957072038646, -0.0010175888502512206, -0.0004804286086922421, -0.0012075466410709135, -0.012593142406016602, -0.00018744066181886266, 0.024937762896543918, -0.010600396803747554, 0.00030945784972983724, 0.004736638921917373], [0.004751535502593451, -0.012946377038620544, 0.0004490823676130642, 0.0026455994285543008, -0.006582436639008541, -0.009131364861329488, 0.000712588124242531, -0.005992612351648541, -0.006797395617856023, 0.005873698698108165, -0.0021176742006473195, -0.006771852349362295, -0.01091310840788884, 0.013350110297535378, -0.010270811268173013, -0.0008763992850648755, -0.01419339616424464, 0.0105186392361772, -0.01332551254152564, -0.012880262428581786, -0.003360631810330999, 0.009056763155478448, -0.005568076888782329, -6.96580151912279e-05, -0.00634482463658551, 0.011862481714420675, 0.004150307666316948, -0.014757734632012427, 0.00891679058656598, 0.0004981285684507453, -0.000403514826790883, -0.0012930569403214217, 0.01251306294326694, -0.0010975637533244633, -0.010150944245791202, 0.012152045113933183, -0.0006137511229640081, -0.0065412762460862785, -0.0038410926925906293, 0.0012945155361297647, -0.0006271100529117102, -0.00865540285047592, -0.008788469570095546, 0.0010772578764705327, -0.016400938614958872, -0.013620064067370548, -0.001877135122085894, -0.0029788156370188336, 0.016430215459693906, 0.007088441703756769, 0.00011122878765709013, 0.003328431953653204, 0.004276345113497895, 0.010507058582274112, -0.002637187645652471, -0.00921183641540242, -8.916259781888243e-05, -1.6799625475398098e-05, 0.003962815395018309, 0.010461062581440299, -0.006683987958598356, 0.00026357296732964613, -0.00012993118266410366, 0.004564220518914549, -0.015539084315362044, 0.027051824542699242, -0.01431319893534966, -0.008377464340045573, -0.012494644410524076, 0.003944351420361364, 0.00762245605335598, 0.0006582484364933641, 0.015644685135673547, 0.007006227539095475, -0.016229143489851616, 0.01119453273976242, -0.010168509577058577, -0.0030751354598260077, 0.0016184656353177874, -0.00010691028152605871, 0.0007895137568032416, -0.006116066005678336, -0.005273052522429353, -0.008327352013298981, -0.01961852557041534, 0.0008336837390016129, 0.0011721501670989504, -0.012196042515043604, 0.001692506657928361, 0.00462176153163536, -0.004851761268968515, -0.013555916194138134, 0.007850684470203987, 0.008026409498256651, 0.0014193175415815192, 0.005730486224773746, -0.004395034143032389, -0.01718824993624544, 0.018474054702353547, -0.017567067757287447, 0.013712431321881227, -0.00124182352748843, 0.0027254582394067896, -0.003775128471843108, 0.008370774850214178, -0.012133444878370443, 0.015377260751276824, -0.0032808038503137644, -0.011483693267064062, 0.004495993093610344, 0.001230763160434147, -0.011331138255713562, -0.00890099634388588, -0.0070646901608579496, 0.0007274121775911899, 0.012126080256809509, -0.009902245752432372, -0.01212707411606184, 0.006240115014188652, -0.012470149388697234, -0.010762855311228024, -0.002035920833930556, 0.019866179578664073, 0.014678389439006114, -0.009243203835843905, -0.009422120016648699, 0.01827790446301837, 0.0077189941686327595], [0.007401368958330017, -0.0030089000907636814, 0.0051106085082371425, -0.0038696975255038176, -0.0006245929150544288, -0.0011736848554532223, -0.00391105207242471, 0.0028520690069122863, 0.0035968812328633967, 0.005454497726620232, -0.004812742538951393, -0.003956089341379228, 0.002280686810093504, 0.007833955515345782, -0.0015016892340855479, -0.011081973817612039, 0.01718018490321931, -0.001602629064304885, -0.010546596756654774, -0.010870894023951916, 0.0037500294877586137, 0.0016366686640282412, 0.01082366453664622, 0.004799582398853695, 0.00830813216648874, 0.002305863525435555, 0.012373073018246628, -0.0026168598219681884, -0.005039621917699192, 0.01048114908184598, -0.01571854344261983, 0.008110485480952228, 0.007371388494565933, -0.003245522534932273, -0.0124381265891711, 0.0074935716374802605, -0.005932165881961502, -0.00880225427517025, 0.0010933152489799552, 0.010916844714350645, 0.01446200298969668, -0.005995898770371848, -0.01604346961168823, -0.0011305161551689816, 0.008289437497547757, 0.007775109519623672, 0.007406175282591496, 0.015060222954925921, -0.02213785962961321, -0.020964302046901594, 0.007248211404419705, -0.004011878350276233, -0.007481717714412888, -0.0033045333120612507, 0.00032595695607147207, 0.006542979537037692, -0.01814702738044463, -0.0066820528143625504, -0.0064179353987244975, 0.011580619888777113, -0.0011857024293133362, 0.007474643126702694, 0.002659625388975951, -0.01325546062190506, 0.02675464595124196, 0.013204914205783324, 0.0060028914263069635, 0.01780191476534769, -0.014944460906882917, 0.0034825075621747136, -0.004115316194592547, 0.011901353706482333, -0.004793627746809164, 0.009466882945207426, 0.016949593588626216, 9.967825578327787e-06, -0.0012830526449964291, 0.007140129076142265, 2.772999913458265e-05, 0.004989732481390546, 0.001659904864506049, -0.015018971107348907, -0.009115336627664273, -0.010179695325250256, -0.01062112451680379, -0.016985067688793626, -0.019360748539925695, -0.004219380862801231, 0.004611802453992909, 0.003227851545161384, 0.0015938518232947103, 0.020842988823895597, 0.001497719164815185, -0.015577895169844315, -0.009518268982710442, -0.00329225965705204, 0.018471832779442875, 0.001616110828579765, 0.000746742389203986, 0.010610128653374544, -0.007284879415645927, 0.003717706658628962, 0.005162428801127043, -0.009185479372903342, 0.010446779659159614, -0.0075801204056475495, -0.0005429781290823049, -3.8427783274527815e-05, 0.0002236682381299924, -0.005916364979152492, 0.003667912354809738, -0.00943401565937227, 0.0052754354862942325, -0.01004874569588741, 0.010517805392840925, -0.0017248763937316141, -0.005652383694239371, -0.008300291410559948, -0.005647582472524758, 0.012040302646007457, -0.010078038636863051, -0.009597924487331154, -0.008572971102452217, -0.00523326435584895, -0.004805625663845933, -0.006732293616489757, 0.004556466737083568, -0.006218574378660721], [-0.006158100556904949, -0.004194857071757259, 0.01060058891438038, 0.0010139267356636622, -0.01376229210441095, -0.005534362440442476, 0.02710203596929349, -0.005698407681219949, 0.005469512639918675, -0.012043776174072205, 0.013380813442071537, -0.03352149488776449, 0.009418916615963316, 0.00032661423329014407, -0.005078402795774053, -0.0180535223795152, 0.0034358396312914865, 0.002653096047476419, 0.0005921908485618353, -0.00787683714996917, 0.007014762281682831, -0.017370283815133458, 0.015605137092679003, -0.0025613193414231396, -0.013488773100365793, -0.0012931376109618464, -0.0038270988925377665, 0.008826044547553723, 0.00831530208409664, -0.005235497904121478, 0.008843385854651498, 0.016296997040589102, 0.003177865800494304, -0.009714746599891569, 0.00047405185496462136, 0.006322613096322755, -0.0006898413941536506, 0.004428433478420137, -0.011112853730986147, 0.005463882394311542, 0.006559167116059669, 0.001513085840847167, -0.008988216502814554, -0.013447991831417155, 0.0247933556582552, -0.0013638288399201778, -0.004149726849220236, 0.0003403764501806532, -0.005353249677344547, 0.014184530138950357, 0.005032234060893807, -0.0030408745332084716, -0.018306438901133516, 0.0006178336145243866, -0.017623614591074203, -0.009172968295365003, 0.0002083298726173125, 0.006470069909541565, -0.0006162426750593267, 0.006797257192875892, 0.007627788858825258, -0.006169695174192231, 0.0044584191604259285, 0.013486188671086823, -0.0035900086973034797, 0.0026409662476737906, 0.01149276419012801, -0.004517749239244463, 0.021139931356466756, -0.0029386442110621485, 0.006339838068323771, -0.0027273330316881406, -0.004670166436771214, -0.013271778922672896, -0.0014071668799505602, -0.0010926815358903372, 0.0004647687459904649, -0.005794404951160725, -0.007360878655529189, -0.008115310510362106, -0.0120720522392723, 0.010599566988510941, -0.005208452018501203, -0.0041654170279785555, 0.001032925210619674, -0.01099803661402458, 0.016459688980762832, -0.001826576302155304, 0.001065487622279151, -0.0025669137117793213, 0.0033496767481820855, -0.004544424114507359, -0.004796811024796994, -0.002820620047455258, -0.0011883112861584219, 0.0022387991906281245, -0.0006885684759282342, 0.0066522440119924295, -0.008112261975855704, -0.01332257926458395, -0.000581253355612584, 0.007005210624739395, -0.005618789675635303, 0.010977331838621518, 0.0074623155648038874, -0.007798544082140975, 0.00815701100568675, 0.006012993766535982, 0.0019344475025478136, -0.012305209644814456, 0.009844856374064563, -0.004504588254520267, -0.009240368103804615, -0.0028083262013135347, 0.032098868777114514, 0.0030725142962959536, -0.012279748061270275, 0.005326208402397985, 0.01015803862228444, 0.010146076290756848, 0.014985780528169701, 0.010451305292367328, -0.013744042421191, -0.006439534192429183, -0.0062545166376184605, 0.0013841594246807557, 0.004155306876236391, -0.015443943711383634], [0.014195909189004133, 0.004005039683956503, -0.007997282439008678, 0.002285823175740754, 0.001377273863858899, 0.0013488372943815266, -0.010272533854660837, 0.0016685042846541604, 0.025009863503830873, -0.005714973572345477, 0.013309837762456072, 0.012157394639212083, 0.0013287587377487102, -0.004899337563316517, -0.0023021784697740163, -0.004596575884648678, -0.012015962943366439, -0.00014595662114084854, -0.00017344453085981558, -0.017994759977424155, -0.0005310409986064413, 0.0017086297823770277, 0.0002837362153062885, -0.00517140924925665, 0.0012904494330783123, 0.008619340689118543, 0.0028512019460068816, 0.0008043916316124221, 0.014818443518126072, -0.001326070202588261, 0.009787891941958962, 0.00027081151474130083, -0.015201452079448164, -0.0062734125040266086, 0.006392512366257217, -0.007456695908953798, 0.014686829098475076, -0.0035774879849666892, 0.014686413667967928, 0.007542544360013272, 0.0009221957485655131, 0.0016956241875831775, -0.022019292926717816, 0.013929414768308569, 0.0027053417880233237, -0.001821972191709289, -0.007129286692642411, 0.005359744310770588, 0.0003857819557727996, 0.007204848572465124, -0.0017534662115154653, -0.0079712544532221, -0.00612357931895871, -0.020668248870789222, 0.011791672420567008, 0.0006323535883248333, -0.005450825603488427, 0.0169531809917865, -0.008478698389055283, -0.006423511407481032, -0.0021389776658757263, -0.004266822692754234, -0.0011746138258997495, -0.0034959196521420688, -0.008204981459891106, 0.004070510933336198, -0.00015535749093025775, -0.003837572748788864, -0.017982177050224903, 0.0013899277698929146, -0.00915217307638241, -0.006288868572329217, -0.0023856398084543457, 0.0010281603994734137, -0.0014302507132554366, 0.014154898584818682, 0.005268779902818547, -0.014412518209523642, 0.0029694960774023045, 1.661972046104251e-05, 0.007066039657180804, -0.03354760004660192, -0.006172887025211585, -0.008159659682268597, -0.004447191084904424, -0.014703033475524041, -0.001157526220393957, -0.008474868752849569, 0.006775501501630385, -0.0006179889361014676, 0.01948484002575699, 0.006522245706568668, 0.009943826940747753, -0.0028828447482796915, -0.02135877515034371, 0.02490214487902051, 0.009644405673214122, 0.0013313375435183277, 0.0008359730123697804, 0.004575575665269791, -0.013379493603045741, -0.0005435698076353659, -0.002379441370837825, 0.0015913796492338659, 0.0026584002086079673, 0.0058350721874578446, -0.009800492145201152, 0.006502206678443433, -0.004978007732567311, 0.0011959810604895687, 0.007391018916940058, 0.008971325683589418, 0.004428112049848084, -0.001984650500404222, -0.009346527027151554, 0.009976318994875978, -0.007797247378024321, 0.0048374049175473255, -0.01182929387182942, -0.0020009614054869013, 0.0066714987315305485, -0.020619650927674548, -0.005076066033962342, -0.006422293767873211, 0.006230432705473269, -0.011797632994644707, -0.006289640379280599, 0.003506282891760046], [-0.00011505578049523257, 0.02352276825622274, -0.009092755832456757, -0.01691009950596524, -0.010036211355141027, 0.01117689382072896, 0.004349877185802808, 0.006808364187702767, 0.007094832690904886, -0.003603268336317774, -0.0019970576765653177, -0.005584646552026553, 0.014780912859639233, 0.01766489814533877, -0.01502082397371872, -0.007740333045326378, -0.0012577757602554383, -0.0002728169874069265, -0.003191837688956729, -0.010617726664761731, -0.012164875581721048, -0.0032968393529218573, 0.002247687492298916, -0.01399224365281393, -0.011746064854555184, 0.0026950405861256316, -0.004016239482258116, -0.008148582565956098, 0.004265543058237491, 0.017873981416814448, 0.008523247976324711, -0.012717721608451882, 0.015674617035553937, -0.002872381449454903, 0.0003538422011995916, -0.00017857335221845803, -0.003646909005059124, -0.011747270441832481, -0.005902277070615153, 0.008563050926612678, 0.007087253342161203, -0.0011667703488719159, 0.0023290693543011414, 0.002809931915536184, 0.001651897785618116, 0.0024640802606759296, -0.0023611822162777647, 0.008808967092853238, -0.010737052508810456, -0.008903788293504829, -0.009658152622206269, -0.0012102435730317628, -0.014694830839475065, -0.016100407711006303, -0.011149727136357318, 0.010564958978804322, 0.005032650345455106, -0.009157395577136235, 0.012554832447730148, 0.012571260476785487, 0.01009865701849391, -0.01138409484273029, -0.003443863093228992, -0.009647966063484495, 0.003651481054008356, -0.0013385382062949189, 0.0006537196861896852, 0.022411479030783128, -0.005372600638717663, 0.00920823993862046, -0.005227824478689069, 0.004537924537469299, -0.005597847685822003, 0.006080509155450437, -0.018855697542776873, -0.005838501711142548, 0.0007633644116386012, -0.006290501389883536, 0.02086388966155955, 0.01901803185577286, 0.012190708752650544, -0.007438498403746814, 0.007036722484505723, 0.01718015339481582, 0.00014759601203139766, -0.00801673572875723, 0.0024085108749528385, 0.009592216002808691, 0.00296473725294326, 0.0008598808801774841, 0.0032117361781306333, -0.0023271239876326445, -0.004245909111938447, 0.009068069675569014, 0.02422101728087714, -0.012121182031344609, -0.011650175019458971, -0.012507620897248868, -0.015536436859012768, -0.017426144478784374, -0.025842248850467903, 0.013890110913086362, -0.001509725775899976, -0.0013816506649962932, -0.0016182062845504135, 0.019542223938382678, 0.008271209382521353, -0.013028657180043843, 0.0010898001397393379, 0.00640910918707365, -0.006192270140293802, 0.0029705119857707223, 0.015121503226795258, -0.018747172365766562, -0.00799762013653632, -0.010263568731475258, -0.007815279597330938, -0.003920942755918413, 0.002919559272165526, -0.0013338919690176188, -0.014262521057148262, 0.014119774040424181, -8.49983642189529e-05, -0.012274859781221113, 0.006549567979087323, 0.01853775142587458, 0.0016694804833707363, 0.01236164752065006], [0.00027655209778988036, -0.019130481664431254, -0.016275073066900816, 0.003901156007462223, -0.01429618339561675, 0.005230630425106672, 0.002458175429532058, -0.013969142297860705, 0.004393464109420491, 0.0010474209217589355, 0.001796849811177043, -0.011028720921694475, -0.010083491711816918, 0.017528941213752605, 0.005129104742591848, 0.009481052525294215, 0.0026635110233480166, 0.0012685482889566774, -0.0028290695972427024, 0.011122149931580725, 0.001102729427793287, 0.004007313391016638, 0.005126106542242499, 0.00804692686084811, 0.0013075128768973775, 0.0022303041738511854, 0.014960689956604893, -0.013544949244222391, -0.017375360059270588, 0.013300253395093324, -7.032433243720415e-05, -0.011560595058625021, -0.014379607585540003, 0.005503823242048343, -0.004702948567153871, -0.006854532301463024, -0.01094109489854555, -0.005679474528498225, -0.0019174950533531125, -0.0036991312231711457, -0.010875360758028658, 0.0039828480072756555, 0.006856157034709665, -0.004252981108137808, 0.012791061865602747, -0.0033228777413382457, -0.0033291658339258466, 0.007404090476758115, 0.0036439824156034965, -0.00803078221915847, 0.006262459559080749, 0.009344410642339143, -0.013584573771188165, -0.004792004098789373, 0.011932011238660422, -0.006490489846454082, 0.009666052243425387, 0.005848669412889523, 0.002833802742110342, -0.00299431994535443, 0.008032398378779776, -0.0004392766772203544, 0.006176852769111662, -0.01273371483845483, 0.01077359512042809, -0.004408306513421675, -0.014980190507301904, 0.010705100581022522, 0.0016806071642545993, -0.013321736912915218, 0.00973947045418859, -0.01586186463722631, 0.021580371248594122, 0.018092119664462752, 0.007671072806465078, 0.009968573212447917, 0.011748675800908801, -0.002591635513372592, 0.0009425348248679862, -0.0159245212938781, 0.0009879569454114055, -0.014506353049321137, -0.011670800785808342, 0.012171225194533742, -0.018062471554982664, -0.002796398874732447, -0.003288927648388905, -0.02781457233225559, 0.005092862432703362, 0.006147047951755876, 0.0027311955268345266, -0.016603574777076073, 0.005942565985678676, 0.0020426739557248027, -0.007488691899779029, 0.009286013017526707, -0.0007218334886400318, -0.01416731488697431, 0.0009129024722172398, -0.005578490574460273, 0.02454327021465339, -0.005196839484306017, -0.007050204958875874, 0.002031556212189583, -0.002899127435422006, 0.0100595515381697, 0.010173952383039704, -0.018009853663238755, -0.0021921065938209426, -0.013962546264626301, 0.001940357319503511, 0.0028258828641623997, -0.006566151928082324, -0.00999661558626868, 0.005488111849941644, 0.0013310491683530324, -0.004888898158175996, -0.010457651532624007, -0.0014311477599859342, 0.012277612074701441, 0.0006842410324213169, 0.001221460723426005, -0.0034270960444180865, -0.006069916704622656, 0.007570393622897773, -0.008200587797647403, 0.014591467855435405, 0.008159182511954622], [-0.00298474746604532, -0.004014609690754095, 0.0053216086473198134, -0.005799715441123102, -0.015969241797447617, 0.007644550891111505, 0.005564006389284947, 0.015481213038191563, 0.011290513141760253, -0.006935204472008083, 0.005772959537663567, -0.013229698349321781, 0.002391892423207795, 0.0022107670135446743, 0.003232679068660662, -0.01372539626229225, 0.0006743940884392722, -0.0004748940588933759, 0.008440994353274459, -0.006185317437796364, -0.00458058458211408, -0.009216021945309282, -0.007734863329621344, 0.006113364879267211, -0.009141270025850589, 0.013276772184607946, 0.0049479177375174425, 0.0034664215453692575, 0.020934944406827704, 0.011217647349420413, 0.004106415434619801, 0.01150028726461603, -0.003971991741314889, 0.0021345125487759724, -0.011888696897018195, -0.00302284963646131, -0.003756785187611374, -0.0073330115298130705, -0.004577643977762059, -0.0056153268401893264, -0.0035332397570671404, 0.005350442531670646, -0.0022972212609697097, -0.01780021319545961, -0.00419888914677141, -0.003654406701545141, -0.0015597510496391084, -0.006556661132433621, 0.008342498618205697, -0.00027699480085573305, -0.010305801226675678, -0.008225602746698184, -3.425437685629648e-05, -0.006385384612781478, -0.006644157191501019, -0.0027817987744610103, -0.006595412854910174, -0.012370898374766426, -0.009215630376510624, 0.0022717163517396075, -0.011921907608408736, 0.009776711167883376, 0.011458433777116509, 0.015756977502643488, -0.004913881367073774, 0.001073070182482654, 0.008108745117630505, 0.005657095342645786, 0.0006627426834132631, 0.005103705450392919, -0.0032508583531808944, 0.004784978838453766, 0.0005342138376115883, 0.004888399373019301, -0.007845139621307397, -0.004561976109127813, 0.009901578352956403, -0.01079625442871618, -0.008336277730980607, -0.0061126563257806075, 0.010487260574973867, 0.007630400681890885, -0.0006441080579489814, -0.012904634021970063, 0.00768347007371515, -0.003721176888950422, -0.00011184268633260607, -0.011578027483563142, -0.022761610456296186, 0.012628929379103544, -0.0011139552870824887, 0.0010902879854987556, -0.016017904345361263, 0.016905891710377825, -0.013075906038510077, -0.00161090796015635, 0.01020064024966452, -0.00017286545845009125, -0.00528835187727232, -0.009314083064617907, 0.005362389298292971, 0.008218372889610822, -0.002285200366328974, 0.011025897369746476, -0.004560586913453005, -0.004270720955629378, 0.023455308714527952, 0.0024701675607888786, -0.0033670286106045437, -0.027634187326397722, 0.0077688589790531155, 0.008101420417553936, -0.004233857383093832, -0.013562155268243095, 0.00022330715167167488, -0.003506258316554129, 0.012703396283331109, -0.006220877527192905, -0.011382588129317613, -0.0034073177820186508, -0.006240266703144545, 0.0027680229058418744, 0.0048247642262485395, 0.003096421448289157, 0.024881223162326188, -0.0013195883593932806, -0.007748154351230642, -0.0031276485177485188], [0.008773919224169638, 0.027056855475054313, -0.016682901824314415, 0.008227768899051517, 0.01196614986130425, 0.009342804421362852, 0.0022403101580317124, -0.004381220562880093, -0.0008150172688914406, -0.0015073511645175815, 0.004435393855937919, -0.006809982197421789, -0.01013766511682867, -0.017951475088519016, 0.0039502417445199355, 0.0035942092578062227, -0.01233098623934674, 0.006808866774791495, 0.014044212718501026, -0.0009922112085645272, -0.004215008301022671, 0.005669596736563204, 0.02148244986533869, 0.0046787843719623004, 0.0023102052160153207, 0.00039346330472233535, -0.006274727814196513, 0.005468332882499099, 0.009047740570013944, -0.004336867092095403, 0.007032318486543652, -0.00015373653237805727, 0.005001536487249358, 0.00439438870670865, -0.01799484656909793, 0.013036781218480393, -0.0004936432381706769, 0.014550256735620399, 0.003401199597986599, -0.006999251185320091, 0.005862685129514377, 0.016323948604184013, 0.024379653073158664, 0.010740061514605277, 0.001528174671829543, 0.016446498540897476, 0.01168130033193819, -0.010165167031602931, -0.02131872868703503, -0.0028643562079400556, -0.0003545702108198221, -0.002213920085906987, 0.0034953270296672924, -0.01497920231423948, 0.007124182568860615, 0.009138628064434003, -0.0008086340807391604, 0.0009629474504748843, -0.008458112710483306, -0.00850951501240579, -7.006580091788212e-05, -0.0025219933739069273, 0.02415836503543651, -0.006247791205977763, -0.0006184448220855136, -0.014009738564991754, 0.0023898446304940224, 0.0044384015877243265, 0.02161271277500196, -0.004459018604267973, 0.002755295851413065, -0.010979243562037421, -0.003279866234622268, 0.006003806750444949, -0.004275498180296055, 0.010893349531504592, -0.005275523790785589, 0.003309186108307455, 0.001058375089925459, 0.02924363760292234, -0.0008052335277921016, 0.0009382959469486343, 0.005965887743455528, -0.012552047004426628, 0.003451509640410856, -0.002575121508808224, 0.0018227719033681168, 0.009586685047988035, -0.015142362820209284, -0.0026298245790592205, -0.0011351418006033205, -0.0075278177572048405, 0.021510365978556066, -0.01602890332520549, -0.022300287647294526, 0.01484170678593418, -0.004184882792770022, 0.007489201992090247, 0.0028644075639264748, 0.004582819733123571, 0.014488687750281644, -0.0018914685588969095, 0.011276269000123454, -0.01429553827352148, 0.006392421337369376, 0.00391884957275062, -0.027949878098198665, 0.0024596481533635307, 0.002965975943786262, 0.013073343400919198, 0.0006608076786772201, -0.0049981290411697035, -0.003238729585673591, -0.008157206775469028, 0.009163685090177894, 0.0001951684458997874, -0.005897876458547025, 0.006150063806238989, -0.010576502838782054, -0.017751887824593644, 0.01023771919444549, -0.023862839041731223, -0.0021828717100745676, 0.007993752926948004, -0.0121576834276499, 0.0037999477425897025, -0.002006062204742955, 0.006659003924264733], [-0.001164689214437554, 0.010281942412674301, -0.012056354779823038, -0.0054236869794140165, -0.0025151102514649605, -0.003940026972891137, -0.0021961648039811018, 0.007314141489897342, -0.015348391872357012, 0.010089029556344262, -0.0035373797665073353, 0.007118555407142148, 0.0014107621131914621, 0.02377299985076096, -0.0030850253997941873, 0.0017342116063594065, -0.004508496194803332, 0.008769725240083088, -0.0004672111729517024, -0.015396311722838913, 0.014071548215916637, -0.008047435082193305, 0.02734766599383126, -0.007349664833146263, 0.007405364844221666, -0.013209838554161264, 0.018762149390282857, -0.004421840646737565, -0.0032424890352556273, -0.02328384611573516, 0.009608376642831807, -0.0017845083724177227, -0.006890978266006216, -0.0019478003927299204, 0.0036471039623408343, -0.014866302838633641, 0.003150984119861563, 0.006948294408701997, 0.0020938978929534785, 0.002421092368903344, -0.005744457142385847, 0.011833551620386757, 0.01980731131896597, -0.002274900560358049, 0.003558923704344029, 0.008582734790536416, 0.008022477396563601, -0.0006419911875849412, 0.01264195697617973, -0.009024285548651291, -0.0004437565347287701, -0.008105622969114738, 0.009965765519887758, 0.001644105125414562, 0.012916216344740874, 0.0037743142601225073, -0.011862924236514487, 0.002365004945297197, -0.005331464922575174, -0.002889669642865181, 0.0024233686577866814, 0.003651521299048338, 0.001824218577107864, -0.0022279865662940173, 0.007048835156441702, 0.010016534054158612, 0.004201410548307929, 0.002825938516054726, 0.0023293651346562093, 0.005696386377664774, -0.0048326336714399785, 0.007347224376778275, -0.003389442426783609, 0.012314074769336512, -0.012724654310978514, -0.00808815177811785, 0.0036899479481798067, -0.005379139838842301, -0.005524956341901622, -0.011203884746542459, 0.0014748772446072358, -0.016365931451711908, -0.007835963327409249, -0.0028824910530353197, 0.005657669252687723, -0.0026428153645257873, -0.01716926175283693, 0.005777652535116104, -0.00341854611834288, 0.004329800304116927, -0.004708863473416101, -0.004176308889447081, -0.001497236931982625, -0.0015548793906395365, 0.007001334951532382, 0.002644374737705854, 0.014002671187353294, -0.0007023795134120189, 0.005667083476225131, -0.0006836384485341792, -0.009160247382128032, -0.016691317338218194, 0.005346846689770887, -0.006327474321198333, 0.0024026006491058892, 0.004455396054957371, 0.004536061080436417, 0.01664354023007222, -0.004752533381875554, -0.0017458614066095898, 0.010804904211866289, 0.01718380186520284, 0.004346384608362592, 0.0014389090635552996, -0.001721706358451634, -0.0016820999664806198, 0.00654115978173625, 0.008534251964454707, -0.009586190140656956, -0.004497550059900279, -0.005443183152019434, 0.01753532665451117, -0.002590814489756662, -0.012980387326029703, 0.010478772263087074, -0.0005662828961747309, 0.012530945656587154, 0.005261543343449373], [-0.003434980308882148, -0.013121957084075502, 0.011848577131525635, -0.003041471765281063, 0.006626984080997941, 0.006232460880250705, -0.012354157286429454, 0.0006235354415710525, 0.005004575673671776, -8.618398629763352e-05, 0.014491319877105993, -0.0007167073722933019, -0.010804156728141008, 0.005111590436503733, -0.007969672035662925, 0.0031338491038634254, -0.030853824013540098, -0.006116134550376104, 0.010863858789677916, 0.0062523640938124325, 0.01499973145885962, 0.0015375782662093401, -0.019172765287690696, 0.009545940475471235, -0.008198405931987682, 0.0006661567014568396, 0.011114990624139294, -0.006069508672459914, 0.00595696868871832, 0.012922507323630577, 0.0011328798880668855, 0.004395072193922163, -0.011129851323895738, 0.010429034752116869, 0.008882684819853076, -0.011313329921338253, -0.00489621629113305, -0.011860438253445356, 0.0009027192311026059, 0.005763597381581874, -0.018861508281652166, 0.013431382706812586, -0.00402427161647354, -0.013043004914356109, 0.018278266511882055, 0.008083074215210583, 0.020411534030859914, -0.01574663639855376, -0.02651660818825534, -0.0031962177638344275, 0.015367861467591688, -0.010075989409863473, 0.026979434516498892, -0.0017256758946624143, 0.0030793657144808874, -0.00018122973141782427, -0.00372613986284939, -0.022969705732452102, 0.0034794487799300893, 0.011273746621440801, -0.0015148145167751524, 0.0005498882284906721, -0.009828170913482799, 0.01052857659048491, 0.016353818402269973, 0.019978894060285652, -0.005596945978449804, -0.0035159193221777863, -0.009886297849479735, 2.5485772961824054e-05, 0.0138938922396784, 0.005906421026811389, 0.007138413676152822, -0.005725427487675663, 0.0291837218330531, -0.01346857849201177, -0.012012103556542293, 0.004890431425102114, -0.0005786205856301772, 0.007142787317357676, -0.009822197099344001, 0.006333604130148903, -0.011015048435714846, -0.001249756579858534, -0.008848993231825773, 0.0009409839702145159, 0.014854980809832392, -0.0003081875995447087, 0.0018672724988614004, -0.006149371456739049, 0.0002868281275647206, -0.0005907287137473091, 0.0026216837528838556, 0.004280008270129261, -0.013857885308714684, 0.0012053128512179774, -0.003784434700953907, 0.020478596819260043, -0.007761119245951736, 0.003170153757466995, -0.008558534814559229, 0.004500432420561986, 0.00617964504738604, -0.008081721131190663, 0.018886864965634378, 0.022037375389926724, 0.015085483914556505, -0.01046555179932506, 0.002475953836440449, 0.018327164100419166, 0.0022500490457082567, 0.0020023899429184263, 0.004381349978553979, 0.013535489588133609, -0.0016881491528326193, -0.00517542695522492, -0.00032973248291696163, -0.012214669333237931, 0.00386662345121921, -0.003991670354841924, -0.006853989934815321, 0.014510737834421663, 0.0053156149662983215, 0.019370027530951593, -0.0060881041128105174, 0.015658283203940148, 0.0031808045786278793, -0.007799872518271259], [0.002996980146013434, -0.0009498459986645165, 0.0027625587296647917, 0.013758522202904237, -0.0030385726246435563, 0.006151012469736288, 0.026911462300436454, 0.007187903855249196, 0.01380874473811388, -0.0017592820696920148, 0.01648040076352613, -0.00906000827217907, -0.0006810922583269111, -0.0025041962149112778, -0.012404477359695455, -0.005266904428393212, 0.005554536445786893, 0.007599676200296726, 0.0011122101948372615, -0.006930737207711968, 0.0035936285176876893, -0.0070435381148936565, 0.002297409635520455, -0.0042079574017839195, -0.006832860302179337, -0.0029068567198765665, -0.012285949888312383, -0.004908302798725726, 0.003965033040051357, -0.004241422843679717, -0.0026724876014921025, 0.012444549599525869, 0.007356912725120607, 0.005635236801525466, 0.010594983391645314, 0.02244350121238156, -0.016347287073747527, 0.011424811435655031, -0.007415828269027527, -0.0014648686739931857, -0.007717096952511154, 0.010646564893319853, 0.013264112982057954, -0.005152456851288326, -0.022659014128000067, -0.006453727236134611, -0.0035492986111295456, 0.008547050135300844, -0.025005268695721502, 0.0012062596124048919, -0.0074526309501500385, -0.004801085107734186, -0.009797016179846909, -0.0018990334402245266, -0.009844408298122321, 0.004328641852550681, -0.003338938924577741, -0.011483469070055277, -0.01607722172547744, 0.000725709580130958, -0.016568347908828, 0.013138535835815385, 0.007206403181706585, 0.006665650460384429, -0.01508614516569511, -0.00954813587459775, 0.0024532411351768082, 0.0038462436309680275, 0.011670973656872577, -0.005474305513107708, -0.023869502922040896, -0.016664692413850254, -0.009791568039446601, 0.016602203544764004, -0.012910044933269643, -0.0010004562674614664, 0.011798273991527422, 0.002836257413776863, -0.01136368503929543, -0.015163579016936548, -0.007761383279213102, -0.012060926176466933, 0.0020453107260012945, 0.007779914322152797, 0.011803771721643328, -0.01994058284568065, -0.0014198007400990386, 0.006119533705201531, -0.006465166666466119, -0.023980008187738964, -0.013453644880728763, 0.0023250456439477475, 0.004226622165162841, -0.015006477334215043, 0.0018709815505950408, 8.406665985250104e-05, 0.025621529068226442, 0.0062542664951802315, 0.013590776849150936, -0.003886001375184264, -0.0014057689352500564, 0.003853786502947755, 0.009622609353564564, 0.0023446467138895487, 0.007580753137726614, -0.003379402352978917, -0.004372604199005639, -0.010648509315487218, 0.00972286117074855, 5.67989574614288e-05, 0.013453936496686117, 0.006582340975472577, -0.009769617007748279, -0.004682880915876596, -0.006750841197680867, 0.008952400700519711, -0.005514909799723421, -0.0037792204528437883, 0.005647678516336905, 0.014904187087901085, 0.003146951093918198, 0.02093788092739953, 0.0207893480126106, 0.011105666398185736, -0.007455604968996656, -9.950742050582e-05, 0.009103620747391902, -0.002542541499236122], [0.0008487767291894009, 0.01728163709299134, -0.0034606201789940637, 0.00033306371208271395, -0.005411604235122326, -0.013235229354283276, -0.013653075942061698, -0.013612521517646223, 0.014586896542854104, -0.014369637099870464, -0.016322714719547306, -0.008538997286640938, 0.023287425248701445, 0.022496809934970833, 0.001514772076045133, 0.008195209783704112, -0.00216708752482024, -0.00906692608084384, -0.0018820643763472033, -0.0008291061894927152, 0.005410836150354611, -0.015997968333280307, -0.024916641411486445, -0.009642915325120575, 0.013049163463284002, -0.015098205459420077, 0.006331200012788324, -0.012601076567349859, -0.016808692942251742, 0.011559384623662823, 0.006797736024811285, 0.003900743823390627, -0.006356253424160673, -0.002089908770673793, 0.00322013450630016, 0.010354687711050197, -0.007971508581189574, 0.011620914314734396, -0.0012140190610736342, -0.016112767784134195, 0.019663390552615817, -0.006383150604273987, 0.010936622219663593, -0.009399126729631738, -0.0012491678750110914, 0.005850192748423724, 0.028134714213410943, -0.006502366031081615, 0.026877622914349728, 0.0128887557238721, -0.018670531032850657, -0.014092641399426961, 0.0031273500287484547, 0.006082310426307243, -0.0044611275309606405, 0.0015948506338920765, -0.0005957633577573141, 0.006335309216498617, -0.0026804739620781837, -0.0052227234112574555, 0.002044957096389715, -0.00636519106797964, -0.002313420719584822, -0.00792398056247778, 0.0019408843015568415, 0.012519457137487955, -0.01289871142353522, -0.01073884942224136, 0.016706154778832256, -0.0038179009003855213, 0.00010331721142220449, 0.015408522568346858, 0.01921895734161046, -0.0026201646114466038, -0.0026718039799233633, -0.012719995317209406, 0.013475798665360611, -0.0209135107560274, -0.012938939634182394, 0.01091092289459724, 0.013614084202497736, 0.002990996298445507, 0.006287380891372031, 0.010539247490222696, -0.002025245756054083, 0.002637413801345261, -0.013825097518987974, 0.010861403500405726, 0.015474363076548358, -0.00471430354546476, 0.002725485567858637, 0.009084160471759736, -0.01988017101234537, 0.008663922338229208, -0.00015924164545105089, 0.0005559807306232711, 0.00106925355349229, -0.0029023915268326225, 0.005187715422702189, -0.0002915826189751996, -0.005798040288008192, 0.0026764361448513587, 0.0017980536831752212, -0.016918111914296517, -0.009283087092757773, 0.0007055853043236155, 0.021258990014717826, -0.0012520068722781219, 0.018131544256586255, 0.00039057391767979523, -0.01700306813951481, -0.006462311119405201, -0.003217451631011455, 0.0007778325315190139, -0.0031576980041261938, -0.014569895468693464, 0.009611769439543108, 0.010753083236972737, 0.0029784394284875903, -0.0004141390814219137, 0.0033316863591534318, -0.00946924883284329, 7.49253248980491e-05, -0.0009090831033424167, 0.0009637703869135704, -0.004106707256478345, -0.00755732257506995, 0.005222306487134934], [0.007925884338701072, -0.005980089146643174, 0.006826005759408579, 0.008644886760356917, -0.008124686181061, 0.0014650572481702596, -0.0198891461654455, 0.0020689978233879485, 0.0013002668884643587, 0.0007960382235398539, -0.011029450991399674, 0.010960628870982205, 0.009247104048702343, -0.0006247215047645251, -0.011295258420580285, 0.004251701941053508, 0.015762440107725612, 0.003259145945550661, 0.014124589662248546, 4.955406459525969e-05, -0.0010160799481349894, 0.020850387415669948, -0.00300869174282272, 0.017963278995914586, -0.010503225554455547, 0.008905889733213232, 0.002739095065781276, -0.01677138648703582, 0.003994655591481329, 0.012738127953672556, 0.021479435307311875, -0.00996952501595639, 0.013737465348582936, 0.007643527024130289, 0.007351662496309861, 0.00990971204636744, -0.006643481700741747, -0.01860538539545728, -0.013602030937182477, 0.004532555776657177, 0.009038412695860986, 0.0014937756287955592, -0.0028597860451939463, -0.003135407445080532, -0.010997851834441956, -0.008233886459571422, 0.005436029694397614, -0.007367520466845018, -0.0025187368672385043, 0.007545587489236313, 0.007033745278397084, 0.015008980124531545, 0.0026074940930888493, 0.01043641412805459, -0.011210546700953491, -0.003909167488808039, -0.03274278596106376, -0.00947146281178677, 0.017079498215745184, -0.006072453050279753, 0.00893050249486206, 0.009212668355237806, -0.01245898334513731, -0.008015619096968015, -0.007484359187579698, 0.0011094949637471528, 0.0028771612656536584, 0.023440951806493165, 0.01421211012518737, -0.0028558247457365717, 0.0015750067907760118, 0.011055330566099841, -0.001498492348750461, -0.0002876311493971948, -0.010800482312972582, 0.0030913846813684746, 0.01222556914496039, -0.0038398550479924747, -0.002355911050786293, 0.005000098556410834, -0.01664121168079178, 0.009992756710485764, 0.019455160080723934, 0.002245327594580889, -0.004638235357177236, 0.0007333990104979725, -0.009456298782985643, -1.1427365616881122e-06, 0.008881555350765636, 0.012509158144638353, 0.01875443958155183, -0.006901613039123602, -0.005843999869055926, -0.004624128964280034, -0.003137388277309848, -0.005798438159630063, -0.0034114232662411682, 0.004517496899756551, -0.00791411252884563, 0.011351727123264347, -0.005658318254279512, -0.009022591350145506, -0.004135585973239599, 0.007912612454396022, 0.0024520869554509354, -0.005844978469052485, 0.007370816192501028, 0.007742899643846413, -0.0010388125351330848, -0.0034755148488913555, 0.013891678039498876, -0.002292364341668908, -0.01208463707836947, -0.017517106701990713, -0.009339180693771792, 0.006164482791478971, -0.014368111382307487, -0.010222153855284346, 0.006836042408896715, 0.003204205938257213, 9.713890301379401e-05, 0.011108548473225078, 0.013528490570622267, 0.0028412076687778513, -0.0016496932676426227, -0.011179109860183804, -0.011021082147449724, -0.009611597997517225], [-0.007081356940088208, 0.0200072697098346, -0.010037400685070638, -0.007654010078842208, -0.01014719732866617, -0.006293570016797581, -0.0068508401379501396, 0.011156177860047703, 0.004737145051077841, 0.005957486123702533, 0.002621288130488185, -0.021065561504239567, -0.008069456772288744, -0.007371578681968301, -0.006223136806316897, -0.0016413606610025974, -0.004183342029958965, 0.020275365348556847, -0.010651796665199522, -0.014725073211732099, 0.011717580189319975, 0.0031946731576674, -0.006009628806246713, -0.005947988881105894, 0.00736107026725609, -0.0065025129564334205, 0.0010213716845432442, 0.007592102397404766, 0.008736435039780069, 0.0003414725942276435, 0.007812630112996108, -0.0034625157320906357, 0.0008425715476998606, 0.005304723056745826, 0.0012432538725901316, 0.0008050790812594318, -0.013690567905101902, 0.0026904045043994527, 0.014071299318954627, 0.005687017209618783, 0.019395002378798473, 0.0004449625226496734, 0.003698761355338192, -0.0016456163104673874, 0.0033567641396376273, -0.005174164967326834, -0.007113640962288178, 0.010973796436199938, -0.001114241733377741, -0.008072415191141834, -0.0087794523242237, -0.010565147395578534, 0.018272653477503557, -0.002425659546960225, 0.0037075131260267875, -0.014636657557147275, -0.0017978789290479288, -0.010695912106529815, 0.006282662217679598, 0.008850157507701571, -0.018946164501895985, 0.005273563998998606, 0.01859072298862422, -0.003693430641789393, -0.024022268681527913, -0.0042065828859620905, -0.005762011660644132, 0.005195416909599813, 0.004550492959854284, -0.0033211241408504662, -0.018456175713923953, 0.004082653889894312, -0.009564491528011842, -0.013873848898613981, -0.009244795399309823, -0.011306439423783392, -0.002674373827365899, 0.016843586549493403, -0.009934522834252465, 0.01319238718435205, 0.0049988490820211205, 0.005669179571641154, -0.004401869851791507, 0.009918546643874879, -0.010418169684226007, 0.010376206480314036, 0.005514668020271974, 0.010055753694147745, -0.0030938526865226072, 0.0051621337663638345, 0.0012149279558144293, 0.008262550166085472, 0.010729050493160388, 0.01618754136194074, -0.00017710172827331897, 0.006204577720973554, 0.001070198161585431, 0.001967110440497287, 0.009625211260903222, 0.007618405436331748, 0.003779744321316764, -0.03051537671419216, -0.003459505874378688, 0.004701740437974582, 0.00895700154965756, -0.0058381711877180265, 0.003052265210750974, 0.017053768241003305, 0.009847583182105305, -0.009353110221027076, -0.008247377285905631, 0.003934200895977665, -0.017172697340789963, 0.014514004754340684, -0.005528154053205014, 0.0017305751161484169, -0.0027435236628176726, 0.015469618102053002, 0.0009890150910660384, -0.006786231004994944, 0.0016955867440143367, -0.00306507791200196, 0.004637470511477459, 0.0181257126780549, -0.014193122829630657, -0.010695181270721072, 0.00962952454843627, -0.011388942206627894], [0.012056673234396922, -0.002219653472666078, -0.02032412418208653, -0.0018811318318805487, -0.00045632207388767804, -0.014260776750532613, 0.0008231897475230621, 0.006692548647619956, 0.008002162827620724, 0.011168448090746526, 0.0049220652222861875, -0.01632763762462808, 0.003498693551802358, -0.007022873516715215, -0.013129282110895653, 0.002775564725651796, -0.0010324509033232594, -0.004054178472920599, -0.013470087971096154, -0.0038659402588418095, -0.000936886828063496, 0.0005528104532887607, -0.0032419061754488557, 0.005800605684994711, 0.021598004562986675, 0.005416721948060795, 0.00884244606500587, 0.0043062742643660825, -0.01172066073846756, -0.0013762167919040727, -0.0011699622188123754, 0.002582536192490091, 0.0034216927331644177, 0.014261423386621924, 0.0012180502311068856, -0.001380951832872101, 0.010109962466073753, 0.012414442865379112, 0.0011561823083219582, 0.0029799577615238523, 0.002241910198803696, 0.002243110218914725, -0.02108594196200655, -0.0071883650378483975, -0.0017249890771004696, 0.01164672678054488, 0.002045851844221166, -0.010716074325329719, 0.0014839880267300534, 0.004711924954606856, -0.0002616134151396115, 0.0002060435594057897, 0.01634318373411817, 0.017490882146204947, 0.002916612719640438, -0.002237561068208027, -0.0138381893215953, -0.00268942238086573, -0.006654570098226792, -0.013918014676862576, 0.0009750260533904529, 0.009382826072854714, 0.019893779813928807, 0.006224904185322933, -0.003368071238956052, 0.0022330376737279153, -0.00536831984001383, 0.009221845758606215, -0.0005541353257271068, -0.021617634224291655, 0.0034354376252466678, -0.014736692787753, 0.001451775703021181, 0.0244162018897623, 0.0018077292843462556, -0.022851836221854605, 0.0036655831891394697, -0.005314559646251399, -0.00832232317663261, 0.00487986357434796, -2.0906774172699854e-05, -0.00861065524593941, -0.01890290961470729, 0.007197974685998071, -0.0036863779728278953, 0.009605660854604499, -0.0005011192217391566, 0.0008203715131337296, 0.007609849500646851, -0.014740439430281048, 0.015814129841764515, -0.007672055552510738, -0.011768796167339252, 0.0032362544161720266, 0.00851507386708033, 0.008320404014649181, -0.008993268666101529, -0.006355727670917393, 0.007230406441899586, 0.008194882893408398, 0.004371660851127439, 0.0034085429710323657, 0.0005542791986987635, -1.1585604945273901e-05, -0.003710770324454993, -0.010974925765251487, -0.0008816644094670368, 0.003560134777352822, -0.007395099542659219, 0.0005498270261003515, 0.005320301279535573, -0.008629828781720422, -0.008268831675083474, 0.00929667224453309, 0.00552350625300744, -0.0009575387751842905, 0.005043904556822672, 0.005509362042104976, -0.024624131255676317, -0.014951535614702638, 0.009656218553063046, -0.005679105134105807, 0.011961377171095768, -0.012071215010504762, 0.00821005583406349, -0.006005877502276855, 0.008166647134560424, -0.0013254546800321816], [-0.008064081816956932, -0.012703224077825115, 0.007705697650803053, 0.004102507926735248, 0.007745847063724275, -0.004485956385983937, -0.018182431629266034, -0.012557656506172552, -0.014198457618434497, 4.3366453718710136e-05, -0.008298266991473404, 0.005566182127205022, 0.014082217123100094, -0.009229147917319762, 0.009022866749690307, -0.010894091749600083, -0.014755087673572562, 0.0006156008499738975, 0.008785202433856283, -0.0018696085512016067, -0.0025471912211117056, -0.009587672238035647, 0.017617704480664728, -0.012947824017345027, -0.008354516772119283, -0.018073905396924023, -0.014991954063341632, -0.005015484306993659, -0.01016372946376819, -0.014616157244597777, -0.0205026186206165, -0.00821965342692502, -0.006963371024277132, 0.008979755278909282, -0.014303476131043078, -0.0070169378093549355, 0.004951184254432703, -0.008162354223476555, -0.013256986579585062, -0.0007590362287798294, -0.0020008415792065466, -0.00652150583385942, -0.0092202927335626, 0.009183579521006855, -0.0013606392739802498, 0.010814889555379587, -0.009386210911961807, -0.00035021700817218455, -0.00454513433753252, -0.013897852519689122, 0.005213487496063551, 0.008922960352418317, 0.004867591891676411, -0.0035121873433139063, 0.012337996804345703, 0.007596897079232955, -0.016688348953812125, 0.008620889187580645, -0.00498943757767918, 0.013277639571040958, -0.0031472045520817733, 0.01842004687363838, 0.007612543276275248, -0.013174425092874401, 0.013152624981573631, -0.009132521472011214, -0.013743748713090262, -0.0018027130886057077, 0.004973619412991619, -0.0004197057143464636, 0.0009192395822494506, -0.01671615596578479, 0.0026359826906746813, 0.008573558934681477, -0.01600878374629028, 0.0005840424755741716, 0.008480896152396347, 0.0031412121420747387, -0.008206502377302338, -0.00013732517500039283, -0.010864309477965264, -0.002374604192330859, 0.015083190701279137, 0.010346676260500958, 0.011472669557454298, -0.010488204368210716, -0.0018770188824187473, 0.001303350917833577, -5.267601620437547e-05, 0.006281955178998981, 0.0070074506294292, -0.00829925416934637, -0.0021612908316825615, 0.014260835144688271, 0.016644765463657424, 0.0010484366229937948, 0.003931061214878282, 0.008505726144877514, -0.00059191331432936, 0.007887324143079827, -0.0008942192565225807, 0.005106340116344147, 0.014218895170573247, 0.014660513799417227, -0.009993081093257632, 0.005389497037451871, -0.006689267913719868, -0.01094939608885714, -0.008802265749751757, -0.004759248920040431, -0.008799791776184689, 0.0020809056824908807, -0.006782944746755698, -0.0293784359382009, -0.009788047267254374, 0.006090899076400345, -0.017767887034537855, 0.006090498846242645, 0.002749529642402737, -0.010362886634227107, 0.018689200788617397, -0.0037697390624326405, -0.007488354184237155, 0.01301063329977863, 0.002018871110469828, -0.006429599142554548, 0.0010022264302137114, -0.011291152484789346], [0.011738213145538115, 0.004610438100668793, 0.0012133892505046776, -0.019697782336034957, 0.021112294306120997, 0.0012329404580828712, 0.00781948241056605, -0.003181065318081536, 0.018279538178588798, -0.009566901856696196, -0.006002934496473191, 0.022224038730073028, -0.00044041067609907513, 0.0063363016650779935, -0.0003203291355369404, -0.01454628622089692, 0.007787646307610914, -0.015166819498707339, 0.007485882839633746, 0.002005723026653386, -0.007032905224819855, 0.00783499020894307, -0.008273584454439757, 0.006814758666895844, 0.01639711784100402, 0.025744990428385763, -0.008170309620887523, 0.011543099391711371, 0.00550448928013683, -0.0022266268795799403, 0.0010692169773103275, 0.008782109694593686, -0.01195985931265499, -0.005809251343044314, -0.005198593127832895, 0.010142424076480612, -0.012540597470432407, -0.016614140839146484, 0.009773390015698588, -0.007029445461685451, 0.0036211799322060645, 0.001519855969951109, 0.013401067020283848, -0.016526162044488153, -0.0012383862909386373, -0.0011585330242345295, 0.008560074758471129, -0.0061733867099284445, 0.0034749317288321063, -0.01043804501476501, -0.01226132343742525, -0.0012857728867498792, 0.019944970971869872, -0.009235378571040082, 0.010247410097103313, -0.004639142189082492, 0.0038901267355606864, 0.008972577519520996, 0.013924673897707223, 0.006219490959279451, 0.0041612167253957805, -0.008732619530022868, 0.011092999905805024, 0.0007425777765741296, 0.005672333284536888, -0.0005284634339358243, 0.00765102021664113, -0.006024598249918079, -0.011047373198002607, 0.019367443880347283, 0.010239693021456726, 0.0071252717293596585, -0.013192560698432283, -0.004385360191042024, -0.003009383097426347, -0.006985753915545206, -0.0017238446623581108, -0.015331984145314354, -0.00462294064778466, 0.01947080429451997, -0.007785018530576649, 0.005151966560952173, -0.016711103331204895, -0.010915228639650774, 0.010007618506473349, -0.0012613624384280391, 0.002604796553012348, -0.010551729041748595, -0.002164975606568874, -0.008549292799300987, -0.014775295082836527, 0.001330211358881034, -0.011652889924188012, -0.008855055418225797, 0.01026119382071835, 0.003623523797840932, -0.009163320749393047, -0.0071534045553486945, 0.0127657149232839, 0.013729097358247067, -0.01662487479944967, -0.024192244965614482, 0.0005192286596638801, -0.002233803267445469, -0.0010498532466626056, -0.00851549262739855, -0.005774156050002754, -0.012182336368435794, -0.0110592053782684, -0.007825086033646431, 0.01843546711665312, 0.0017970195089700594, -0.0002938641388650474, -0.0019168789085579714, 0.0028919679301379207, -0.0033349342750748348, 0.0019983373109464485, 0.013475622090615803, 0.012808411938498574, 0.004354154579708343, -0.009106210369862196, 0.0016609993327673823, 0.008743204710110397, -0.0002840268152668141, -0.01620750946096141, 0.0022566477924767306, -0.005311452423932487, -0.002380595248891836], [0.009330045922527685, 0.01436783096358541, 0.0052155045472397545, 0.008418517421661614, -0.00996711690685569, -0.0016581967920104004, 0.024772429752707936, 0.012895017320786973, -0.01645083468663196, 0.021001942744780254, 0.00395998913262579, -0.002060606565651037, -0.0048342492537798275, 0.021728263427186575, -0.0010676602144499042, -0.006879961889811674, 0.012161275858290563, -0.013293329479023565, 0.0045013248875515575, -0.009604587735576198, 0.01333611403378181, -0.00887807024295723, -0.005251175899909208, -0.008542395268501651, -7.013078168897297e-05, 0.011840064630773278, 0.0031259201828108714, 0.007451530760000641, 0.0016101210102235587, -0.0047397473542169655, 0.0066226587031027245, 0.002636076090408296, -0.00646709648640595, 0.0012463858642438636, 0.006986696600672132, 0.02504891455892024, 0.01144396627070593, -0.001962143481354765, -0.0015279688717733464, -0.00030170406476408897, 0.0037030261330030685, -0.005718786366939065, -0.0014644746452589575, -0.009956009776704421, 0.0009478208327171121, -0.011977213100891686, 0.004049538886677304, 0.008397498479931612, -0.0007453840831042824, 0.004056860828498362, 0.00824012886322008, -0.01270062390745935, 0.009952187904775011, -0.0026957719278671317, 0.0022416541560039147, 0.005559009632151104, -0.007608451269908212, 0.008122330117854128, -0.017863042042180106, -0.004973258582767904, 0.00019601119981088898, 0.009025200181533945, -0.0076329437285359725, 0.0008299714242326738, -0.002694766658482301, -0.011776863875242943, 0.008314827739670122, 0.005890441429077154, 0.014258945367514105, 0.007169926657886237, 0.004041240742596923, -0.00963496147553318, 0.009804132517728192, 0.0045972352269646796, -0.0018342291017728123, -0.014766737299747043, -0.002262199784752494, 0.0037343517666970105, 0.0035990674562650293, 0.0030799109504326917, 0.0120606006374739, 0.016115225904721805, 0.0192216312841115, -0.0021758289742429405, 0.0025827564420519912, 0.0034568417173502486, -0.009946637078581231, -0.012434919156020324, 0.006615715937321714, -0.012960007628109003, -0.0006124694114537787, -0.011230193897632253, 0.0038373867084160276, -0.005300855893392861, 0.015691256697749126, 0.003966002762397349, -0.009049565982589955, 0.014560768914857183, -0.0006310160118991112, -0.003033856937426428, 0.012114636807507824, -0.016746280202259992, -0.017605516180653806, 0.0035013878323099956, -0.01161305530855501, -0.0010039571684272543, 0.016949833119139356, 0.004224577003228863, 0.0010456260203579465, 0.0037174771841770567, 0.017791874942538376, -0.006280360330210267, 0.009211636730623352, -0.017283871218758035, 0.01420538624377807, -0.00015616987794129727, -0.009207539165670442, -0.0014037562759738288, -0.0006495095373288402, -0.013069764459125372, -0.0011856360027762416, -0.009854523091093352, 0.0007238388897311047, -0.011179594876689467, -0.0002251032580467798, 0.0005535912731037462, 0.013935281651687139, -0.008357251032326036], [0.010124350945322389, 0.007093198288961064, -0.001463480963012026, -0.004358882193735812, -0.005766557168533688, -0.014427158331545653, 0.016890633812254426, 0.008366549549926591, 0.01227787316368215, 0.00838972702845992, -0.013003577632815263, -0.006385658520853692, -0.00154299795076243, -0.009236166297044253, 0.014343367039641668, -0.010030405148212136, 0.00954580534597184, -0.004538097772283241, -0.005237913426817018, -0.012514009012046228, 0.0017543423358697388, -0.013024182675835924, 0.007358094419591446, 0.00037988619771192264, -0.014681321578768563, 0.005464606752053584, 0.005140947891360447, 0.004302577067705596, -0.01245050186506012, -0.009926882356445732, 0.009318144352649512, -0.0005366721912750677, 0.00558093743582744, 0.011025856707777176, -0.003951804338429742, 0.014550931183657778, -0.00335642320496022, 0.002776935111256086, 0.01480463297072313, -0.005694758783644069, 0.013637847413881505, -0.002469519137186062, 0.011520933509357064, -0.007397414003264345, -0.01055740840462584, 0.005687280842610878, -0.005331056170271706, 0.004527870677103776, 0.0032064730232428756, -0.008603291958315353, -0.008211234404699518, -0.005037250628491196, 0.0010795185512941163, 0.007225963617674537, -0.020836032779682653, 0.01409276562585184, -0.008801395439971375, -0.002028674592673187, -0.007561919349747666, -0.0062706464308461265, 0.016841748217885893, -0.009613012419838125, 0.026087697105401788, 0.003953686229254886, -0.007904582623507328, -0.0008776458303333682, 0.005075036558361853, -0.01232875500239123, -0.006789395941369825, -0.01655913729507222, 0.009309672545894572, -0.005322268380564161, 0.0014709266194853005, -0.007721588661704888, 0.00990997724616921, 0.0050062072169726, 0.007684483514369344, -0.0014146882839224362, -0.019059616884968163, 0.010131347057739548, 0.008918022368947912, 0.010740689722543785, -0.0021831568974987523, -0.010180774064748517, -0.012493186481861058, 0.00697490738320667, 0.02289593408432489, 0.01787397131591986, 0.006545583183247086, 0.003744848776834554, -0.002711621538520076, 0.012052662170455614, -0.006480605011409791, 0.0155991078402466, -0.007851950795819984, -0.005921227191698409, -0.010848979407484105, -0.006296962939212293, -0.016650199502389926, -0.01088803290631969, 0.010103639181359371, -0.009302418807947615, -0.014642129002522982, 0.0072547288743411535, 0.008570086657259763, 0.0166099423664785, -0.014759381629755684, 0.01337574689803384, 0.003998068063034328, 0.004015058527623654, 0.01757663380863878, -0.0033846274996768917, 0.008651037705678339, 0.00015552678545860315, 0.002557435884095968, 0.004181963710449734, 0.010273646511644223, -0.0030535872665574232, 0.006810855201224594, -0.023944565340174508, -0.015439468649558198, 0.008670503054255286, 0.008475973430850513, -0.005188745622607361, -0.008669370146903976, 0.010835769848295308, -0.014990690780846826, 0.012024349594330835], [0.010362507584292822, 0.01014401446524553, -0.019407437371115794, -0.010191613866150384, 0.006438562689768984, -0.007163182316111267, 0.012549298062331777, 0.005538226693848984, 0.0031934536182401463, -0.012257752863561159, -0.000407537951430994, -0.0014229530785313611, 0.0068163969034054726, 0.0069119124175490996, 0.006256432881534943, -0.01125553704176053, 0.007029317520766221, 0.008114724161972132, -0.006160682070179997, -0.012656297518735177, 0.0018296041425544724, -0.006916131608630563, -0.006279060506695716, -0.006979809268059494, -0.009726467129660665, -0.0024133173292933893, -0.012229614241844248, -0.021620934659014292, -0.0084897225300542, 0.020098826937964522, 0.003160265669273316, -0.0001573825406734714, -7.693481506247496e-05, -0.0011415509622826599, 0.003191654256229888, -0.010949751191226978, -0.002607216136061243, 0.007744058703287139, 0.011319289116112661, 0.0014355477466405971, 0.019606263083973115, -0.016038702345575813, -0.01210321404594715, 0.014909442102630911, -0.02556595649072319, 0.008135728962934984, -0.0009853992555621193, -0.0021350641962951727, -0.006061178430340569, -0.008378860228876803, -0.005858881068467163, -0.01091473389444597, -0.01928301695055263, -0.001812476718842583, 0.002915808986284342, 0.00056195210156293, 0.0030975884680070637, -0.004741480739993163, 0.008818345882511285, -0.004635987319508962, 0.002415807322737508, -0.004782480751768966, 0.0011861419760881289, -0.015048258315412247, 0.009322045132674954, -0.0036226684809123172, -0.008727023042143548, 0.0016509426873831945, -0.001485532378157907, -0.015327358591833009, 0.02444597278552025, -0.005644383971272715, -0.004038551529251811, -0.007284177473026704, 0.00513580415382462, -0.008214628048478608, -0.003204646518099329, 0.008856441060133459, -0.006340373713166291, -0.0022408156298426587, 0.020587973293255752, 0.011877725950872059, 0.002388174719683132, -0.0018015587337670835, -0.0040091788789998984, 0.002298807616590099, -0.0018402721399832437, 0.0034513769751980585, -0.017402888849229057, -0.002959886480996449, -0.003932286336631792, -0.007871341353099167, 0.0071298371616188155, -0.010287401626223132, -0.006490043767973134, -0.005921054900221422, 0.01159341917903654, -0.001964299128235248, 0.01412623636072662, 0.017935006075051073, -0.017331120714569017, -0.0021034221417299544, 0.0121737279644748, 0.009410280980053554, -0.010555771541104562, -0.00912088621333926, 0.00429723885761577, 0.004650880286389149, -0.0016239827934932743, -0.022104501570785858, -0.007887949030295285, -0.00886371492165452, 0.00805048365477991, -0.0008251293751658415, 0.0012922612430356017, -5.000460315364822e-05, 0.004397599512548874, -0.006258751119539322, -0.013379207581297348, 0.005659597213263993, 0.0100537367363084, -0.001920858523059709, -0.009261484685707233, -0.007185583941492887, 0.027406599599787657, -0.0016939162750162899, -0.01034316489761656, -0.004527037651681923], [-0.022830291972122697, -0.006724611872392134, -0.003999897688263351, -0.018816041168733755, -0.0085013883735221, 0.02203721497019999, 0.00360299746296247, 0.009183908877384432, -0.006232148150687712, -0.004439229244659036, 0.00420993174725775, -0.009363763378940355, 0.0010185346139647475, 0.01652658196041783, -0.00011038347136729358, -0.017098936352356996, 0.006543310787937366, -0.002118362030341221, -0.003404913073319946, 0.017325383695043686, -0.010334624929895782, 0.01092266233460418, -0.01668658286312063, -0.008258215106832134, 0.0017999945564786258, -0.002326701890956791, 0.011745066387978698, -0.009799171054730094, 0.023225520526760336, -0.009362253626070394, 0.010545600955572233, 0.014246868484412515, -0.003930284646041059, 0.013346328501678913, -0.0028771666570494747, -0.004617296798785981, 0.010913827689613353, -0.0034950457693638894, 0.00893998595222299, -0.0028074108429181057, -0.002272389766940301, -0.0009202999130182299, -0.005350730214786487, 0.01796681532581069, -0.00030505143802854484, 0.02008235307970356, -0.0013869500113398259, -0.011631370014995247, 0.012088688844676943, 0.01826920616982589, 0.0051088678612973195, -0.001249461126878582, 0.0019285567486506902, -0.0024338388980786265, -0.021218118645913334, -0.0189603356115767, -0.011481585304072726, 0.012216613900376266, -0.00800616896698195, 0.0017702733149754925, 0.008180973986982615, 0.015970815139931687, -0.01022192793689532, 0.010526281114661116, -0.009047526244117202, -0.001611306381767094, 0.014295249701856472, 0.006152782285375448, -8.786997400391211e-06, -0.010258006195520968, -0.007057203887246894, 0.010862255240341652, 0.004137276557797269, -0.005977098875719157, -0.005914688576419878, -0.00864870427208391, -0.010359623030696763, -0.00803153267316573, 0.0024075011224115785, 0.008415639110752047, 0.011393301733322751, -0.005798823357658617, -0.016081881091094055, -0.012500602694107129, -0.011811690147943667, -0.009058085399615001, -0.006676880571124088, -0.014377453861279407, -0.015086051179021554, -0.003738873482083172, -0.011771095739560844, -0.0024848588628610144, 0.010862089704769644, 0.0008354639245424908, -3.991992630049321e-06, -0.007491481045437712, -0.019914157206961818, -0.016580102181083543, 0.0023615163558596314, 0.00154334715174329, -0.011466941384428067, 0.005241822664878056, -0.015564820639360185, 0.02130008747250506, 0.011578667648012018, -0.003697667007378442, 0.0002983141009446538, -0.0037242769835318036, -0.0036647406277051636, -0.009555331032905866, 0.00041426120179588455, 0.00794151969903669, 0.017865678928832784, -0.017744276363776956, -0.014918124635064629, 0.006370341219864148, 0.0038461419970754864, 0.008237274338077553, 0.004729766117756789, 0.0008037156011231889, 0.007111048141633437, -7.714404327818672e-05, -0.00723086069059154, -0.0032442273423102424, -0.0016995215192900828, -0.005509151532100469, -0.006717199615931748, -0.011974994858734834], [-0.017105534141359843, 0.0008613971311345117, -0.0044309698910212116, 0.007588360318242003, 0.0019445599244127423, -0.002551974243828506, 0.0017982216230962088, -0.013876337772506566, 0.01699164728293117, 0.0026586459395204994, -0.005739805312859697, 0.009623881797258978, 2.774385762356947e-05, -0.015440301486489989, 0.0004127501925787187, -0.004020952305144965, 0.0010661473087761769, -0.0025687884291509854, 0.006415915991294869, -0.00644259731160913, 0.0049881901194875206, 0.01664466973550442, 0.022149796043350475, -0.017963326730631973, 0.01942099788034368, 0.008082365399633126, 0.010958474339301872, -0.020693127007916715, -0.012967420924873534, -0.00692823788620796, -0.007402072637649807, -0.010464597305301731, 0.0018991929364321496, 0.0022182842961017695, -0.005259781285109829, 0.0020936673748110294, -0.020761905750615553, -0.012107598206217216, -0.0002568015701092228, 0.0014113426386785268, -0.011499558987196434, -0.005804381738362453, 0.00953523529082171, -0.010946329779940863, 0.00699111617008482, 0.0016553213212175486, -0.003944181181929626, -0.01065223250965297, -0.016913155146219713, 0.006954098083568644, 0.010242286266521594, -0.006590069905501954, 0.0019122784805713313, 0.00850547674152734, 0.006424375422352439, 0.01249593816826796, 0.011933365803348847, 0.012759301534746494, -0.006110283374131768, 0.004880833463418345, -0.003928817631173406, 0.004272363249472887, 0.007725796419558454, 0.013367429984780669, -0.0057263002453404035, -0.006863898604204685, 8.639582571041851e-05, -0.0003814681329431462, -0.006063977607048804, -0.008054478157355313, 0.0038592870568326266, -0.011812468391341256, 0.019737854456832588, -0.00030191268113442674, -0.015456302759076624, 0.0020756718724422836, -0.004737812010161245, 0.002158942792352126, 0.010685033559391833, -0.0002618996836312476, -0.0022530581018273188, -0.022809531275917533, -0.006383072554100393, 0.013360391697322989, -0.00559464571508378, -0.012880060661184037, -0.006372780530538767, -0.0003065966411040872, 0.011770217000223258, 0.014064994455372655, -0.01835552827963585, -0.0007969374166518528, -0.008884421074018734, -0.013187511887716871, -0.0016544695130363246, 0.014248506553780063, -0.007973748371149754, -0.004215612461536635, 0.017087722125031634, 0.0007532172833243743, -0.00016262399741143356, -0.003413597486138039, 0.00873653707985378, 0.008456387077981395, 0.00646388186644838, 0.007723535953027814, 0.008245539844842577, -0.01115010519042165, 0.002678233769083118, -0.00017161794469726935, 0.0025265248032572724, 0.006583853282850548, 0.004892367447832116, 0.008528757413359999, 0.014108386792248722, 0.0008947206408295174, 0.012698436997017566, 2.9309596986192787e-05, 0.012283873912282337, -0.0014317743826228375, 0.0067671447618240475, 0.019220997557244327, -0.00039500559366623903, 0.0018582531772148808, -0.0017489832300430846, 0.0013640496346208194, 0.013956441066456243, 0.0033854404718954745], [-0.014352150957609855, 0.011456036867305515, 0.025838850272265415, 0.01963977011096146, -0.0014638925312340817, 0.005457120505130931, -0.004584664774747067, -0.0017599411128337084, 0.014241055733025029, -0.005841260261331608, -0.020895182365217046, 0.015781549191506705, 0.011141223829317305, -0.015943060743756902, 0.009489526014997406, -0.0277559183401289, 0.019863180965728446, -0.0015544758073829117, 0.0033623852026151107, -0.004106741979527175, 0.0018162068130400562, -0.002935820294113142, 0.006271124670166455, 0.0016076946637710464, -0.0004357330628339361, -0.01615163270298703, -0.006624627014715461, 0.008411148334460885, -0.0021900094391812943, 0.005142774166792593, -0.013343242155178753, -0.021171665695874246, 0.012191325284902124, -0.004657153114318061, 0.005880501038120581, 0.0063822664028414765, 0.011591451798385007, -0.015704304899131043, 0.005871165045620034, -0.007390411849983677, -0.01198597748502149, 0.001619305195453052, -0.004945078406991073, 0.002297984712647689, 0.008566223270441896, -0.003905057409523777, -0.005563342711800828, -0.0005197005425819198, 0.008542134849240598, -0.0036102864759797815, 0.003707358473031865, 0.010730073400884884, -0.009002340711952505, 0.00035280132276715634, -0.008005940268122656, -0.0017127097100086976, -0.0024195069505152916, 0.006413999369519758, 0.004567708306978481, -0.006570783546678859, 0.010398388075333245, -0.0036005564108304655, 0.005978448086597917, 0.002231514595406473, 0.007293336675044765, 0.013710027491157942, 0.015946760232939422, 0.006591827065210447, 0.005829870976218885, 0.024873051929056346, -0.0013097702694240987, -0.004128696070224481, 0.010518431762526391, 0.007619356489744564, -0.008072865324446624, 0.008082310826323817, -0.0024600573966741426, -0.012577421513439215, 0.0038402450983722335, -0.004869216640576765, 0.012640169476254116, 0.007813556173741541, 0.00682320162297554, 0.0024810215687405676, 0.0007086926186009911, 0.016391728494825335, -0.012218081747412735, 0.0029346024975283355, -0.014553792730600753, -0.005824112689165274, 0.002312329569562559, -0.008277454660515807, 0.0006294207347166306, 0.02161434933848231, -0.015324960947577163, -0.012445852900261243, 0.00717780802597028, -0.003174180983625261, 0.010210638916179262, -0.015381750880782504, -0.010256081028710671, 0.013124063313669011, -0.006805874180622435, -0.0002259371739665091, 0.010349607690120586, 0.013327849133059106, -0.014534279316881107, -0.009675907261393776, -0.0006815988794299216, 0.000790948299356454, -0.004976971087329372, 0.026265148059916334, 0.007330377028092849, 0.015998005403816462, -0.007932222466609285, -0.00944902841193889, 0.003997443640274221, 0.006097688623041827, 0.004670811551783612, -0.001833820951295432, 0.010547324047191086, 0.014663963642389982, -0.013637749184489208, -0.008304321150794864, -0.0002860009349061275, -0.0014377380462341678, -0.0002489448589159566, 0.019665578479911208], [0.013745140789910064, -0.00928156999915835, 0.003556846630933681, 0.006696202921008233, 0.010515637882973208, -0.01953919139658061, -0.0064829463894289655, 0.0054885137711107755, -0.008420420388344096, -0.012565003014695058, -0.0061648093432385065, 0.0027051722027765447, -0.020733184135261717, -0.0033452020355487105, -0.013848920692141343, 0.015607320119987885, 0.00962430265184442, -0.005848720451420524, -0.012768557305485819, -0.0006044662094191881, 0.019293483139092307, 0.003838725635252845, 0.0035358683849843497, 0.003919937736943701, -0.0025070838061600083, -0.001692972332073476, 0.007293268449910561, -0.003416655896924632, -0.0012190837418810927, 0.005109690114850391, 0.01734966195906856, -0.007618192121785382, 0.005382307820808107, -0.009034599278811853, 0.009144341439874568, -0.0034413547485171877, 0.018625749754252234, 0.0033329227672982374, 0.0019827453355475643, 0.018429138458037512, 0.0034281668023619987, -0.00677713183192083, 0.013684693426581943, 0.001277853489551258, 0.0045891059062034825, 0.0011544670889125925, -0.0034000707394879898, -0.004106768189001358, -0.009816414281443806, -0.003010101418539797, -0.005493607147629757, 0.01686036294730671, 0.01367557202603349, -0.012863156229193427, -0.0003769939062793322, 0.019049498514645262, 0.013123387797877216, 0.0031173252260029934, 0.0011213518195941216, 0.00896224022095128, 0.002410076511732762, 0.017214078144515206, -0.01593594826304403, 0.013098063071037318, 0.002180344833201685, 0.0008519389301705299, 0.007909333180846316, 0.0032480655244444033, -0.0025312934487273005, 0.019940998086758695, -0.005008061472401225, 0.00031588031778987356, 0.0014781012816493886, -0.006771894262451615, 0.017295563803249463, 0.016739439115174348, -0.011331765918302712, -0.0077851345516445816, 0.0060109572214571165, 0.00482045853884652, 0.008913355815752134, -0.0032066517157373483, 0.006527764540603791, 0.012620380044055933, 0.001464238539366432, -0.004744870176173345, 0.010700970450172589, 0.006515899732459369, -0.011928291058854115, -0.0049573087099681595, -0.016707372288424945, 0.011792416934923576, -0.016198382104738004, 0.0050251235449668055, 0.004225656555627803, 0.004260955504852041, 0.00430779821579556, 0.006439121873357005, -0.006492990921703003, 0.00034110859866243843, 0.009217749322520325, -0.000768829564013654, 0.011349762759950966, 0.0035074998141597685, -0.0005995389617985797, -0.002057902139460776, -0.011407249975847203, 0.019855999437766236, -0.0033476063128409297, -0.015887231364365026, -0.013194439516744361, -0.013034742014719094, -0.00207933670595698, -0.013740490479503558, -0.006853154723861765, 0.010622726023171922, 0.011635651440163168, -0.006941834290556833, 0.006314142046798421, 0.017804992711725223, 0.014433258652754253, 0.012505513856196198, -0.005716805651691659, -0.004527747664987147, 0.00854535668600505, 0.011225480200502904, -0.015025605562326207, 0.0023585363898935706], [0.02160557681986727, -0.005517197498404732, 0.0018303955607465196, 0.00633567194491687, -0.0031091673985187153, -0.010040261413611263, 0.0019924902408600337, -0.008630359773338724, 0.023072258704192175, 0.007317584022361332, -0.0008720886392631655, -0.03224234941062399, 0.0024523331338126906, 0.008208232186981934, -0.016069285034021843, -0.019195888699687566, 0.003359970877879334, -0.011546682796334353, -0.006735554143110007, 0.003044129876974221, 0.007919500712265791, 0.0039048599854125286, -0.0018453993252358217, 0.0005583173255865917, -0.004621529758045496, -0.021760146608151384, -0.013117635252666977, -0.002854472082941509, -0.0046986508816865245, 0.002484490456262489, 0.0026073067392753907, -0.0019322991996104596, 0.004867328246863882, -0.0036138203356365964, 0.0018291642479395822, -0.02018889756993363, 0.016913097518753487, 0.007888901167518564, -0.031587612505812324, -0.0054319366591852845, 0.0014927759446424808, 0.0012903319658371729, 0.02280690436868999, 0.0005574177992801668, 0.007550451647202932, 0.015302876854611803, -0.004001864699471653, -0.003925638761477936, 0.002852000182706933, 0.00468077647151635, -0.016840485020792897, -0.007064110286029524, -0.010957145313055437, -0.01276740229733442, 0.010224297232960075, 0.005523001607665924, -0.006458845051360107, 0.01427005192582447, -0.009616237151056384, -0.0043109249929986085, 0.018397191138613312, -0.0035151520271113437, 0.0026488784181304182, 0.005268009827366839, -0.006552156699422036, -0.021831920732997157, -0.007256529713029784, 0.004555312090785933, -0.0022539342035201916, 0.013088421863488258, 0.0010882733925290297, -0.02197647909315418, -6.821930273735639e-05, -0.007031157152022973, -0.011342192700564321, -0.008935083936011124, -0.0024545184908539926, 0.007280920071628162, -0.015181438955811461, 0.005954299965995577, -0.0008870725752475584, -0.006772346957698115, 0.010520144850349102, -0.005153159837479576, 0.007913876913953413, -0.008489054530339268, 0.0028879633375396806, -0.006353165839113244, 0.009099355651556644, -0.007204621125445108, -0.0003784857000063334, -0.0022391511682686915, 0.006831636962754785, 0.0051274171393676975, -0.01640567139150398, 0.002871561801848354, 0.003214110210583604, 0.012146160075575533, -0.015446262321577127, 0.004272384383247534, 0.007674004035267614, -0.0016728758510321832, 0.004795300746624411, -0.009121522093869964, 0.007829281665780554, -0.01495162688620348, 0.01168081383780998, 0.004137514901658962, -0.011236088138658373, -0.004983004883319583, -0.004642496718145385, 0.008183507787244228, -0.011535282872144302, 5.940277066739447e-05, 0.016326408481791736, 0.00272149487035418, 0.0020441954275147657, -0.006445020532538118, 0.0007670624420088778, -0.0027264688114197353, 0.0001273057389249545, 0.01569347125454035, 0.0045442210068676655, -0.008343393528234324, -0.0013405400570856393, -0.014576509159095185, -0.009677848984569411, -0.002998237420628192], [-0.003026180248528693, 0.0052949791838085795, -0.011786670499768481, -0.0029475987883936863, 0.0027920076661849774, -0.005909838347611284, 0.01025790603012892, 0.007449218647552967, -0.013256126189467907, -0.00027565281008717115, -0.004436186537896952, 0.0032951351954035647, 0.014549839978633416, 0.013682423954924082, -0.0023324625735672315, -0.0019436433606592834, 0.006980329505097163, -0.006171571073793799, -0.003247332844264837, 0.0005229668294777304, -0.004874654347726511, 0.003245320674939148, -0.008710137696519777, -0.0007198555035098823, 0.010907523160629986, 0.003749406754802938, -0.0009479527515368072, -0.000508826997478676, -0.012310910028194223, 0.016167399101667874, -0.017469261091335814, 0.011494301143538076, -0.0044582381320213745, -0.00831384883597435, -0.0017886727067641167, -0.0006837441287414124, 0.013804993880874031, -0.0064932838706927044, 0.02489269624411342, 0.01279207097742008, 0.015736963374402044, 0.01396294640123554, -0.010469358508375319, -0.0022473418393492567, 2.2806168179214195e-05, 0.0007300020932860505, 0.006882171355370998, 0.009886950942278141, 0.00884542063499123, 0.00815546883822998, -0.012259596553948232, 0.0013730128902102684, 0.0032164965525074197, 0.0015880913155605872, -0.010470398847334642, -0.0058107480014821635, -0.006224070079897646, 0.011522803866621438, -0.012962358376581516, 0.015854499887441333, -0.010794689287644004, 0.01603668904590904, -0.0012680025742396197, -0.015655024066761735, -0.015082809480852928, -0.003978580233166018, -0.009842336220676729, 0.01668801027585561, 0.013275417258908129, 0.007667252962506926, 0.0005077705838713698, 0.012755943242210821, 0.004764670847942381, 0.00894510180313515, 0.010543625595784707, -0.01353043066458911, 0.005039253390539937, 0.0046763291158056055, -0.01094649422630576, 0.015153995342800812, -0.0019193380199249914, -0.018406516997297985, -0.016083940579590134, 0.0047760827395760845, -0.007565575873592806, -0.015653611551432585, 0.0010267759708576336, 0.025235796836219182, -0.01151770030633134, -0.006581447749792544, -0.0006986692923182185, 0.0018000455692105282, 0.010112247484407729, 0.004469940292252677, -0.0019197513288493908, -0.0013082581988745872, 0.0079562091088845, 0.00047080588233661336, 0.004387996429292202, -0.004973563040190215, -0.0015549912949026537, 0.006861845530646703, -0.006074524773003551, -0.004415703553806421, -0.021430580658325926, 0.008153609666702916, 0.004013542744205566, 0.008081965599704697, 0.010230682966452352, -0.005525872027955803, 0.005735850449845362, -0.0028777065037981476, 0.002340731448167369, -0.0007818167217983892, -0.002095053575587165, -0.018570736743980295, 0.010559539367836365, 0.007949805119888156, -0.01308680353829704, -0.006663765012197493, 0.0065494060466380205, 0.0008156309213106575, 0.005579559217783451, -0.003684499896677712, -0.010339502386477116, -0.007472087410363525, 0.02432472246775038, 0.0010396955805020516], [0.008959878337434791, 0.006598389556465529, -0.00889227322843051, 0.01065122018273585, 0.03294917015094711, 0.002870330747275581, -0.010446542455128577, -0.00805490262330071, 0.015743899266241767, -0.01278857198287449, -0.0008917334157684898, -0.0038059037406376283, 0.014337898404057152, 0.007262876823715324, -0.010960824530454855, 0.00931981138483822, -0.017304501092463023, -0.01539054128188959, 1.3692639825945057e-05, -0.017281196765353394, 0.0028358495737280907, 0.002996835837924869, -0.0005529638515112945, -0.016575312907473338, 0.0034344230893050636, 0.0038027067634172147, -0.010605341073277702, -0.005146851714027653, -0.016847475948440296, -0.020530418974201214, -0.006986921180008841, -0.001445348827499903, 0.0007519831564357327, 0.00689425962816857, 0.0036319450475395688, -0.014959908771757463, -0.002719057253065956, 0.006831817478153911, -0.011888779619996131, 0.004844446828503803, 0.006964131389692283, -0.0010979494165754193, -0.021271377872275374, -0.01527459344505058, 0.00010464594944828805, 0.001857182394919629, -0.003398544649070419, 0.0019955528892281883, 0.0015308645563026709, -0.003520249664348024, -0.0007717384342022253, 0.005634152175089657, -0.022210865124407835, -0.01286646752096399, -0.013361998385859674, 0.006447238243854868, -0.007518882399418276, 0.017015956535756736, 0.002593521506159347, 