{"layers": [{"size": 64, "input_size": 500, "activation_function": "relu", "weights": [[0.017615396763638748, -0.00120469483179463, 0.008265890414826641, 0.005730366845597788, 0.007214793008184857, 0.007471110091632986, -0.003658091966007923, 0.002866439968769214, -0.002864965860293493, -0.004380342629395669, -0.005381806908318535, 0.0024272157904432277, -0.0033446756922458007, -0.0006446259992362184, 0.012656898613108574, -0.006930762523801335, 0.0009639812483371797, 0.003087341947109246, 0.019158191087146764, -0.0029130759335486995, 0.0017021486647898418, 0.0001749367556839217, 0.0013312338536421006, -0.004500826716261116, -0.008704360804839549, 0.02392627371566038, -0.008418459346881919, -0.0052513677893206625, 0.006510771236882488, 0.010363326758379388, 0.005403730610334123, 0.008080148415661932, -0.0017745527594124416, 0.008377845545562364, -0.01874521820080434, -0.01199091899150814, 0.004023625671781483, 0.0013785502157646445, -0.0011004999116553062, -0.002538975028534764, 0.010036950655281207, 0.0078100550209136204, 0.02393393032167426, -0.010363458234190404, 0.0003623061299636239, -0.0111473009703243, -0.010489996554903328, -0.010109415975217353, 0.0032183856063584277, 0.009881282581137206, -0.005545943390192985, 0.0015511982300297975, -0.002375418093544164, -0.005653448799599281, -0.010688227508495208, 0.011524914975131553, -0.012047066794788707, 0.01718547694678432, 0.0048319646791157465, -0.01072427308703308, -0.022486360121511645, -0.012085184979171128, -0.008344718484601209, 0.00014077515893975255], [0.23287385742931516, -0.00040928836488155125, -0.04316795772847483, -0.05285055624070562, -0.05453330485050076, 0.25776051422627627, -0.0783598264790298, -0.01763446677148054, 0.29781948421147353, -0.20454251588177674, -0.06930056759112338, -0.20555649979800852, 0.006839122995177279, 0.24951465036197812, -0.044812781591691504, 0.31255995317476704, 0.23200472131192562, -0.10639865671749466, 0.31793679684969667, -0.19824348712616174, -0.1869032648174056, 0.25430306946266334, -0.06874947496746622, 0.33604235320554976, -0.05620273921042935, 0.41247848515866764, -0.03662004327633897, 0.35705741348591497, -0.07862982074070064, 0.07982920258231065, -0.11811886781357869, -0.09352344289949284, -0.21809824619892332, -0.18793628236720344, -0.033223663662159494, 0.23038075745933395, -0.04526220766937649, 0.25231557559548745, -0.026277404342714934, 0.2591820737289242, -0.02776953574770185, 0.24979714135146713, 0.27531726451077054, -0.06255826813930077, 0.2418453208863855, -0.17451056382618405, 0.2798871519469314, -0.004540554083431542, -0.1238803355825781, -0.004941448393086468, -0.17926353573088405, -0.04195483053660425, -0.07132707137857265, -0.08884406259284494, 0.25931774417947573, -0.08426752910791095, -0.1730355467083609, -0.10042798091364644, -0.09149428524630966, 0.2881210886878608, -0.05221368813109897, 0.3368481343155414, -0.05158284471296352, -0.13493799185398322], [0.2576031142557644, -0.02600692829813789, -0.05888274910022206, -0.19487291242798915, -0.0661666758234962, 0.2725564361376795, -0.07124084653743633, -0.0376060748567499, 0.2977697147481629, -0.15508873360107367, -0.10490134329384568, -0.17069842735624977, -0.010905835159241314, 0.2753660339802169, -0.20262993956484263, 0.29426316733483565, 0.2682068243546117, -0.15108984183530566, 0.2911836263323872, -0.17026000305426223, -0.21827037125139892, 0.2570662709923456, -0.09401691295565859, 0.3088333481058469, -0.06227523009304701, 0.45749658225711926, -0.07271955865329979, 0.3317253477958502, -0.08597332420002703, 0.03615856341548006, -0.056871884120939, -0.0809696772899383, -0.16986748355528095, -0.19295714968719355, -0.06037238872413507, 0.24373415697647874, -0.058826291602894064, 0.24999597298062182, -0.0564003261079728, 0.26338056453230174, -0.03984070215716016, 0.23806286955508812, 0.29055427314515897, -0.2082522466682052, 0.24656724719465017, -0.18237762282876505, 0.29398189839118444, -0.011265297729630428, -0.14235068778506216, -0.007339486982657981, -0.09170191735618827, -0.0476128117305753, -0.08439520934776723, -0.05698232921740959, 0.23453565948222865, -0.0836183292527674, -0.23312468400758812, -0.08373466464204947, -0.0743139116466035, 0.2812465649048625, -0.1319583204288636, 0.31618659056546966, -0.10138390283892912, -0.15454333666166428], [0.26860717849778065, -0.006903825263389284, -0.01805362378083043, -0.05308503150145978, -0.05580733055452771, 0.29246202440696967, -0.0659194460838509, -0.026159539101552613, 0.3199434550645548, -0.12043238077812884, -0.2485364187397751, -0.2227388477189785, -0.022405497140519287, 0.2842652085010631, -0.2021307754965828, 0.3202366055615018, 0.2660060147519546, -0.24471109285482073, 0.3255618022419034, -0.2418178014799056, -0.19106482934116545, 0.281709296491701, -0.041818802109834616, 0.3024666964086676, -0.026877492988737497, 0.4217965242406741, -0.05245913424892726, 0.35980691130549997, -0.06553244722241686, 0.12212335066936335, -0.042979859582243304, -0.05083545121716612, -0.12223743762541403, -0.21594868018072977, -0.04243284840826719, 0.28394774789851895, -0.0407786703510513, 0.2812825412972446, -0.05713459394397288, 0.3030185628241889, -0.024592119523843135, 0.26336832935190363, 0.2963216025271616, -0.2539845028883409, 0.23810472362866206, -0.24510596243575666, 0.30585135034288086, 0.005588075723765981, -0.14474596827318473, -0.0035379149910997987, -0.13885460266589494, -0.03938358762198211, -0.07025039315222996, -0.066954827531438, 0.2698440204808094, -0.025829148432567568, -0.22004584099493626, -0.04935553029751411, -0.04035398719349271, 0.3051960199301385, -0.17563115728371476, 0.33589826869169676, -0.05873214570351686, -0.20096420291061445], [0.05204370200006321, -0.0045062438980465035, -0.006173412379722389, -0.006783371324115045, 0.025310439366888534, 0.05931843654013013, 0.01806049167866918, -0.01449857260897149, 0.043400805835247046, 0.01276113268067213, 0.01946551335706105, 0.03218142583175419, -0.0022386898563214385, 0.05463415752899858, 0.021350461635250385, 0.048410189333386755, 0.06747301702739555, 0.00450272262560054, 0.042642366940088265, 0.030769016906932917, 0.03483306317372177, 0.04244955410936981, -0.012818204254539887, 0.0064982169622330894, -0.007766172441810474, 0.03848680042185942, 0.010310840743973586, 0.038347682279593176, 0.006779359827434999, 0.04275249009325574, -0.0040721345434658884, 0.01744831385949135, 0.02060477588930744, 0.03674791829766452, -0.006413544756033376, 0.044995758656790626, 0.006335737241984418, 0.05159314886801432, -0.0008696335666335868, 0.0635840904151275, -0.00461328913209404, 0.06077337814409557, 0.027048340083811566, 0.016931834736164806, 0.07088833442685075, 0.01310991790844612, 0.06027486509762964, 0.0016260257808293273, 0.036525200280331294, -0.011110026807613776, 0.02411805248844069, -0.016198756522088454, 0.008970660828633048, 0.0026931534634203813, 0.05330933847206639, 0.004329869551680314, -0.021685880443926123, 0.017265656096100684, 0.001329828516499112, 0.05205315380204983, 0.02260597881796899, 0.002871674438495529, 0.005017791704336541, 0.008355004786889102], [0.007335527713165177, 0.0005504153127736668, 0.010816385326689998, -0.015486604869736518, -0.006938221602747138, -0.0030902345047699965, 0.01104122693477603, 0.0008045763260272502, -0.0020854922394956013, -0.006198885262918572, 0.0011263598747317076, -0.008485523724506281, -0.01962132541978777, -0.0010294291442648925, 0.012023398799743814, 0.00037334309149893597, -0.00530254521883077, 0.004737530870497809, 0.0028956786509283946, -0.009885951777650538, 0.006944781673033446, -0.029038558752286555, -0.0062208855271819845, 0.005541856435760234, -0.010682312747788907, -0.008982438684166148, 0.018705573734848494, -0.00270474324269123, -0.008280510043103362, -0.020012366527915344, -0.010876054325339503, 0.0018881133127922058, -0.004720217498056337, 0.021355870453977546, -0.013610436798165898, 0.008657682769469495, -0.0033070696634312975, -0.009665112272189927, -0.016928486767007544, -0.02118011720012383, -0.0015900435325219015, -0.01696055260898179, -0.00401369353806418, -0.007296876914406597, 0.0024890396375704137, -0.003986235432245631, 0.023183815505675272, -0.0038072274364094488, -0.006190422337282647, -0.006146201768734871, 0.007714513050245317, 0.004079605483126413, 0.015956247842125144, -0.0008611509313269719, -0.002046585580358287, 0.002912349002053395, -0.0014264918244767189, 0.0013398029657526874, -0.002653615424080303, 0.004280766446543462, -0.009275372378651678, -0.004764044388758686, 0.016229272163763214, -0.009316262201694276], [0.10213830675679324, 0.0010871569396247087, -0.057204049192038926, 0.014484104249837005, 0.012298737101689161, 0.07902111444706707, 0.023995065769444792, -0.0014304002359478987, 0.07039715854153265, 0.008217375057074, 0.005887537228753158, 0.02453324613400153, 0.0012461230615619448, 0.08806083546940721, 0.015685156526636518, 0.10154228623668687, 0.09943508165743674, 0.01239230290032581, 0.0720143761056144, 0.0008144234187204145, 0.018865893799183082, 0.09527543971509476, 0.015887500162123595, 0.06747878977216178, 0.007225112610947829, 0.056441223696603045, -0.02249223019647211, 0.07520630663689043, 0.021450139417780425, 0.05906074188740168, 0.035755232752518046, 0.027049765894596546, 0.006101490692226909, 0.01968866874581982, -0.0013013409492802419, 0.10823662116926198, 0.016134567392441644, 0.09473848690792232, -0.01919531752119391, 0.07735778221999891, 0.008950673821995573, 0.08310438261655212, 0.08035501443034422, 0.02382952466652562, 0.07938916147724494, 0.011378867932316041, 0.08186024319029751, 0.010796306736398366, 0.025106415511591325, -0.005481754423333094, 0.004070993074564111, 0.01739554915029788, 0.014571967780395047, -0.0008785798410250478, 0.08165294547336006, 0.01464809061200468, 0.01623172172600303, 0.003899368231532505, 0.001620404781550737, 0.07583696405902159, 0.013418843913413409, 0.06275374828507127, 0.01400167300233489, 0.012030196174552064], [0.03383163948794401, -0.0006826923062397442, 0.010599699026724411, -0.003534813235643093, 0.022265326517741355, 0.013792783867765805, 0.02849989460391093, 0.009638375670342496, 0.013058005978889946, 0.02797768141544262, 0.018324780552569815, 0.017568682810092388, -0.003257041924729031, 0.034281033870778264, -0.004742641061629697, 0.03485863236714272, 0.017948725202278453, 0.0034249940209374525, 0.013845981204778063, 0.00023332708976128542, 0.01246114963343137, 0.015669515768721845, 0.02222119782572974, 0.027454040236117513, 0.003974008208998198, 0.0008466676867549265, -0.003399772002007631, 0.031137883476774816, 0.007426919111254775, 0.042012054835401394, 0.019699524615761535, -0.005635303244871033, 0.01492000103728343, 0.0056793572410664475, -0.002514385361942106, 0.01601742682030877, 0.018694350022204823, 0.038045651331821154, 0.003626693203155131, 0.019216831500712912, 0.015031648278503545, 0.031441110567399636, 0.029757274462714825, 0.030933801894081715, 0.02439148692360776, 0.01426865914036943, 0.0165899407544113, 0.014438945807415924, 0.00788913994155941, -0.002447068392946432, 0.013756265596324256, 0.006317772015767892, 0.009971994995031585, 0.0208649865181735, 0.03347587227926173, 0.001046870612179381, 0.0006834441490102369, 0.021512385365563554, 0.006087535200889305, 0.033800196983496664, 0.014790822509508791, 0.018820220453914856, 0.024103048188545997, 0.018049463799018037], [0.0428694677599306, -0.01332131819151046, -0.0008586899757254286, 0.0051184668558610456, 0.0001874828943147809, 0.05387167589643329, -0.011003737009041531, 0.0005771151828976516, 0.04681891926109183, 0.017345580166204393, -0.013034249577742867, 0.01864964556858788, -0.007517509317985497, 0.05557834787228494, -0.003607684990982255, 0.05098800579737671, 0.055164993982650797, 0.015978641274974285, 0.05289680625751605, 0.03149774731786624, 0.02746640745610381, 0.061824508220787486, -0.013229148686338184, 0.0623476905063665, 0.02139281929382189, 0.04551068612775343, -0.004342780209170938, 0.043459428682490434, 0.003028019373690205, 0.03927347627390316, 0.012010973085698904, -0.010705415681465184, 0.02228242099818136, 0.016625661231720025, 0.0035952955942652365, 0.05645599736429089, -0.011671886983551228, 0.04501786079913338, 0.004088107837457962, 0.058771722616534454, 0.02240053633724632, 0.06815789423429494, 0.05489737646059104, -0.004518173115811481, 0.08036625659705207, 0.009507204073144128, 0.06388126220107414, 0.005131757661911852, 0.03718316053557264, -0.0017744633478935757, 0.0096700092310343, -0.0030391361923391967, -0.014209340938850875, 0.0069563169765911904, 0.07236833040019104, 0.01756376398595787, 0.011318538662540022, -0.006703964153353261, 0.015448635691159411, 0.042535317159076824, 0.009323178299395713, 0.0441424201254691, 0.010761373104840004, 0.012360906460015326], [0.06988773831087612, 0.0004057761101312321, -0.0154560039148297, 0.004082304236977542, 0.003938082688829429, 0.03128400138153168, 0.011500892527734686, -0.001643025626537904, 0.0392906165788485, -0.026615720147989328, 0.0008147221440825808, -0.0296954716573314, -0.0013313035612874061, 0.040522206651454215, 0.008197038504088575, 0.010940948704372308, 0.06485063703636301, -0.00794024657645139, 0.0519850171905888, -0.006922713399192983, -0.0024032403971784113, 0.045391250485577635, -0.0071374079772381725, 0.09864018330662776, 0.0007103551512920752, 0.06082122039728097, 0.013826456769717008, 0.04299300751370484, 0.018287284255780863, 0.045149252558621476, -0.00484096056104585, 0.016210463487809062, 0.0027699698970191275, -0.006916040908076501, 0.010856535062087173, 0.051526405848608334, -0.010705165414787157, 0.07919162045213161, 0.02949300014243715, 0.05829588626978879, 0.0003648527089670964, 0.06967136430514921, 0.0484419190932749, -0.0011946541304603743, 0.08481827067425825, 0.014453477581065216, 0.05520237575170895, 0.01068869716547546, 0.003949237803125899, -0.0031031991804312277, -0.009563700022296841, 0.019641454745336982, 0.0009530220607342491, -0.02739070738162767, 0.06781748727290725, -0.015705829431111065, -0.026491168879240887, -0.00936245425640978, -0.018559073388835827, 0.05460961435249847, -0.004570332938373263, 0.08731913796312156, 0.004694083421241425, 0.004883597705063321], [0.017877212303852898, 0.005623087114019324, 0.01079418528625526, -0.002507180752357917, 0.009922931083218747, -0.0033130686478346043, 0.007024297385121315, 0.00487902246020325, 0.005209240461755764, 0.0011482766539470323, 0.004255680425446464, -0.017215073264372573, -0.01044922813303645, 0.004792208098882126, 0.0011539787131111074, 0.018617708293626432, 0.012702034571573045, 0.008929861023426812, 0.0043988464049748354, -0.021638540726416765, -0.01950878750689703, -0.009809024222013187, -0.018448128066770823, -0.006563680980142122, -0.012221892818131621, 0.0004869622954968822, 0.0018520690594017422, 0.00039060873331398915, -0.011237411781958312, 0.011461230306395934, 0.006602073521377654, -0.00682334121422584, 0.019430149876361075, -0.001952875273374537, -0.010913657869626465, 0.013268278541690838, -0.008271004841903289, -0.0021001967322293665, -0.0016566245778215306, 0.0033462830350054875, 0.029964200683954903, -0.0078003191146038126, -0.0035239105104772233, 0.003693245475108979, -0.010228098182737204, 0.00616333189794149, -0.00047835694325166616, 0.009207143026692267, -0.00851788912177613, -0.0023857091886754955, -0.009263869549262395, -0.013413422483658833, 0.007309850847055785, 0.034731767174502964, -0.006882057503179432, -0.006257377191118501, -0.013967143738710155, 0.005668361125231368, 0.0067032453085489685, -0.003668293724814348, -0.00914524812886206, 0.00759049670377568, -0.0010059958933388083, 0.008372521370581438], [0.016421640355275276, 0.008611758403027671, 0.02934479033064391, -0.0015792258217956839, 0.0023139844335330903, 0.017900993752677053, 0.023427793282486977, 0.010973625305441615, 0.007994458870511574, -0.0005574717696099508, 0.004109617741039061, 0.015099998194978335, 0.00817701632965668, 0.027729174745211065, -0.0055579213487267545, 0.007293002308144267, 0.005592547224450951, 0.0027044298915995897, 0.016017475473862453, 0.03479011623836988, 0.03276362925966397, 0.017707468317353103, -0.026248812930043944, 0.01585883021446609, 0.00906565221557662, -0.016698546512841587, -0.024320890073661932, 0.02816273572977486, 0.01870754247731401, 0.0341266141554261, 0.01726286629267241, -0.01189017338378069, 0.010557887569190096, 0.014826877230238037, 0.02156789563589443, 0.023439226429109627, -0.0034406805789473005, 0.0336906848059081, -0.014420135569628737, 0.007726023028981802, 0.008515433871458708, 0.02959146392319846, 0.010920806135385795, 0.010143070290780952, 0.0284765649261251, 0.010190679329604877, 0.023575029576367642, 0.0019933120748933247, 0.017393672323571994, -0.019033269729671193, 0.025472943389967476, -0.009476444680195657, 0.01977877176261261, -0.0031642056848652463, 0.01755388932763448, -0.00403427046214188, 0.020362902135684147, 0.011062192264579315, 0.005840225445205028, 0.009684063315668663, -0.010980510999225894, 0.00901972232157367, -0.00025019304791324483, 0.0029993965938125183], [0.044763132338661527, -0.007357562873306619, 0.006673278032052576, -0.017797594343915247, 0.007102637404845446, 0.02013064818296831, 0.006610488575915339, 0.002632836383167696, 0.01950435079323852, 0.007770786699861324, -0.009505850128636485, 0.03756979609112487, -0.020418342382438295, 0.006917366953410554, 0.023873523915917207, 0.004272858502281994, 0.03847485318838783, 0.0007408853585087551, 0.014623917705774567, 0.024068823421079376, 0.02888090201378036, 0.008841064785833247, 0.01709676762621865, 0.003981725387602057, 0.0023405794072909407, 0.005758573569927088, 0.0011794515092702676, -0.0032128035050884456, 0.01506387068874244, 0.03795005512430617, 0.006807605033608522, 0.02019375169927499, 0.028644856940203668, 0.053934781308066934, -0.001612556101811614, 0.03372887999951474, 0.004911992931647585, 0.039930034620678324, -0.017917082688677206, 0.0161154236945428, -0.002945291291077747, 0.04132902444212624, 0.016083950145802547, -0.003891873560028656, 0.05756802653535691, 0.0154559143946966, 0.053727597752782436, 0.005042142313219173, 0.04067988096899516, -0.0038795612050233903, 0.017296835431045526, -0.006094576234817299, 0.03270709029923072, 0.008527122740658206, 0.037561377238446506, 0.006429577416332801, 0.027569834977189043, 0.012551333848549845, 0.020126905787914765, 0.016795988207546818, -0.01632633071222085, 0.022488698741081368, 0.012500382882989606, 0.018353338994870134], [0.02984338518488268, 0.004421288445024724, 0.00047504522138596783, -0.005254098271706224, 0.010179604490879988, 0.024049851633206273, 0.010066172265633116, -0.011798344609642273, -0.0029103558658067257, -0.012808376711938652, 0.018298762451876026, 0.0391708670365824, -0.003960675685258247, 0.024292708998981657, -0.0011378420545910142, 0.014663029973994691, 0.008373343203256292, 0.007523435643462549, 0.008026723326425771, 0.014311113840270541, 0.022375664181399826, 0.028540952355159185, -0.012074962589327823, 0.014642599835683702, 0.01454269557485247, 0.011892897841380604, 0.0168881723413338, 0.009832878843963881, 0.0065119896181707075, 0.036009048178873335, 0.006847057846138256, 0.021185914506218213, 0.0030967964590337188, 0.012238766881533586, 0.005223039852432749, 0.006248053014517876, -0.018613132105260652, 0.043399004232234605, 0.021950335316106465, 0.01111604579550747, 0.013420022581781533, 0.013946267093779316, 0.018324186518618675, -0.007283893665443189, 0.024027654366495316, 0.0038827245546865477, 0.019400861299549915, -0.01441541319322355, 0.03615932895508463, 0.00288341176770826, -0.01310492634714367, 0.01706321522051341, 0.011753920762333213, -0.003641986392119773, 0.02078027405831226, 0.0006468932100305832, 0.030134835039629417, -0.0015604754110571143, 0.008048875728177224, 0.009759999489866368, 0.0072539657441259555, 0.02862266174219228, 0.007475230308732297, -0.010215062221647897], [0.07130458897509447, -0.011405248079439155, -0.03198597764306053, 0.017983286188852334, 0.015052826010625336, 0.05761972968239072, 0.0016473131869182206, 0.014912332580821986, 0.059169369038701784, 0.01681083794487276, 0.009944673437476704, 0.017528994888989315, 0.005703965387881718, 0.0745147314366273, 0.028461964210186427, 0.06702858928226554, 0.0666989552030278, 0.0071155520718329335, 0.0656777964705911, 0.025662750836636477, 0.011103507174304727, 0.052173403395391144, 0.020631322410238677, 0.07315501048412118, -0.00706872496418547, 0.07721016765621003, 0.007304611946806814, 0.040826250055737846, -0.010618568187109125, 0.047572243475253004, 0.017325917270179653, 0.019788620884525345, 0.02979154364992988, -0.0003073076817452157, 0.0028018010101680036, 0.06590822195194294, 0.00407398108837849, 0.07405527112790522, 0.02272252603026996, 0.07301435611188428, -0.0007097806611505755, 0.05906952111636204, 0.05492847022807143, 0.02765234233520174, 0.0738110514346161, 0.0058887140723672, 0.08056024161593572, -0.004121419673162993, 0.023774989644151652, -0.021492389613608318, 0.019427261781510174, 0.0175581444387797, 0.014876723572449022, 0.002652538722534627, 0.06683345176972073, 0.048792323666148475, 0.00448885622670238, 0.018778403405437318, -0.013256976407685448, 0.08690831357673022, 0.01849503084258495, 0.07186264799055626, 0.018706026265533204, -0.00014940100059777965], [-0.0038509470404389503, -0.004184826100033269, 0.006081667160043368, 0.01766531809775208, 0.012153268989699616, -0.018492916608464114, 0.00443507625976982, -0.0037211164509429046, 0.005465726073707088, -0.008941742358075681, -0.002111508418876, -0.010776624244219995, -0.0003890167855858431, -0.02567923805072553, 0.0008807371245697541, 0.008749596921979812, -0.011962169833186674, -0.01612629455398005, 0.014553403924143869, 0.026141292677357538, -0.001382735126519756, -0.0035710090058287624, 6.976129079395561e-06, 0.011584428500480661, 0.005834798152467331, 0.0027082760709550113, 0.005368931792565661, 0.01095824700884062, 0.010233099696457892, 0.0010604206476359473, 0.018473886766493492, 0.0069841562940927675, 0.0011892480088534032, 0.007764921251079457, -0.017890258944143173, 0.008607577571354974, 0.005220033358295853, -0.0024368257947626317, -0.020594748568919147, 0.0015279002464705595, 0.011753231606752955, -0.020899222485558814, -0.001230296335406619, 0.003553571105941761, -0.002635425163270473, 0.007710234799787005, 0.0006489738943499088, 0.0041059177682768256, -0.015156450109590271, 0.008417380865474533, 0.012232516435278437, -0.0005064354324116248, 0.006881101960406264, -0.012398526342562742, -0.006103040009708562, -0.01702634220170543, 0.004837713595147367, -0.009439030792771612, -0.012573107957344573, -0.012417694550782312, 0.0031568564209191654, 0.002260619287015248, 0.0005087186845237899, -0.013118461937694635], [0.022354743975411696, 0.013608344324888286, 0.017087506703005625, -0.038003562633707993, -0.014945337113810223, 0.031467921162096416, 0.012113380612239783, 0.0008240142063425198, 0.031489423584554026, -0.020727448803340136, -0.04101556007110866, -0.01214553893468723, -0.006876232407285578, 0.009188565041584867, -0.030877420289008896, 0.027916732697278852, 0.03751553260124951, -0.030186531827491963, 0.004822045861143089, -0.01647407099855846, -0.018044741744226874, 0.025726364327287914, -0.013045234318102212, -0.0072231705186849215, -0.019858460531254642, 0.004899339467636656, -0.004494148980289886, 0.016677924509074203, -0.0037146700462282784, 0.01969316606609479, -0.03229750549574196, -0.010978836820949812, -0.007131474778346281, -0.014465948287790215, 0.014264887520201731, 0.03483392569463908, -0.011671800463072661, 0.024618196298662604, -0.012485427740313955, 0.01947078077379379, -0.005219988468327645, 0.02130428312368615, 0.013520492767674717, -0.02770640531114045, 0.022362975995315434, -0.029181968274058744, 0.008113974320539584, -0.005417476471884628, 0.004961488704788936, -0.002640925412109968, 0.003882759077840625, -0.012126934956924735, 0.014014520496173315, -0.014422815471357727, 0.025507453824181566, -0.0429564493299966, -0.00913042827217839, -0.021888624140914408, 0.026012468622632172, 0.016074301149541385, -0.018465943723930612, -0.001304090699006201, -0.0012762809566580504, -0.025869798441858455], [0.09998192231136582, -0.010341260893541687, -0.03197285637129678, -0.14722014564972888, -0.04044665786903085, 0.17127233436603045, -0.0483836953157619, -0.018527157571211747, 0.1837547849938876, 0.01362915527760326, -0.11787888693179097, -0.037533563862176884, -0.011144467702236115, 0.11586694805829004, -0.12814085699566688, 0.25383876399763317, 0.1742190278249758, -0.11310501217948644, 0.11861819361012974, -0.019425005970588348, -0.05832530418353214, 0.1239772269579698, -0.06522441561098365, -0.02725353977062093, -0.039960858775867046, -0.04514728890486264, -0.057402418407361454, 0.2370624367157468, -0.05068272377464316, 0.07303481445486215, -0.049954474487368346, -0.05973265095761561, -0.022407454904781694, -0.08845204685605404, -0.03452354667657613, 0.16166854926833038, -0.051393958688055165, 0.044577107638863495, -0.03306502023231751, 0.18445639021581123, -0.011846095819958968, 0.06242035494774569, 0.1771903649488588, -0.1580131892554624, 0.06017361256227955, -0.03355708265971837, 0.0647542910135163, -0.02274271747295584, -0.08809611585638395, -0.006842713156024658, -0.06702299209024401, -0.04097186001887677, -0.07060332905017654, -0.028004753662319137, 0.0381151162073286, -0.04878770307787836, -0.08800230547922765, -0.03841978268888736, -0.06514205140372112, 0.08537897490109846, -0.1369053083025086, -0.016217339361235695, -0.03811733919139624, 0.006788081060731224], [0.09259470994695865, -0.007332674603268726, -0.0020837003544842145, -0.02158953923462391, -0.056570767467326706, 0.1759445830000039, -0.05747300184765166, -0.040033385823087894, 0.16305398099051308, -0.035119047605096564, -0.03754864113212711, -0.051826896545100136, -0.002774093095476919, 0.10618815791018031, -0.0020413111717243926, 0.22173406630314896, 0.14553558999796853, -0.01802542903621543, 0.11530085576040529, -0.045068223403605306, -0.03418394631493069, 0.10680297810676195, -0.046349796442895226, -0.044047927658171636, -0.04502999622606129, -0.01067781006550215, -0.049723707095316906, 0.21958460520395198, -0.0841953179367646, 0.06503312933823305, -0.08334879333691478, -0.06172075213050897, -0.052909286466797524, -0.03697991733236659, -0.06016217497935119, 0.14692727650273046, -0.04900675201649748, 0.037439990141969394, -0.050232354831527326, 0.16423873548851806, -0.012557563210143436, 0.0643147647813652, 0.14557439235348094, -0.00920614492660734, 0.047631937210457276, -0.023905959837595418, 0.08447260413544255, 0.006138838907006582, -0.06375809666376661, -0.008355917175441058, -0.0674456761430497, -0.043026577982197625, -0.06651712276825543, -0.0843529848193756, 0.05509992188312405, -0.042009592420610635, -0.03917353084559367, -0.04954326834294983, -0.013503605016405204, 0.06655846520112996, -0.04231540434500474, -0.008654994526551212, -0.06911874551813223, 0.014132183195636168], [0.08609409487382161, -0.01152166159846476, 0.011676527681602867, -0.132200584906971, -0.05359081294105654, 0.21493324848427922, -0.04936656866493783, -0.016774713227261377, 0.19296332659938162, -0.04160466177423105, -0.012782768210628313, -0.04767525254626232, -0.013054744316226139, 0.1381145849512657, 0.015816319591102336, 0.23177957318277226, 0.16007336646195766, 0.005112135238527847, 0.1299925755432666, 0.019598533649881573, -0.060807262385832235, 0.13525591400977724, -0.0560441771578714, -0.05370599416813023, -0.0418080761090193, -0.056793967322074666, -0.04497753028394793, 0.22733633368131737, -0.04383685430406268, 0.0663901887554922, -0.15604035829126064, -0.0434075592433598, -0.08917338043729531, -0.000822755016273054, -0.042498863196951564, 0.18296716352909023, -0.025630290738137173, 0.04732501630865171, -0.03948857987632079, 0.19767782727983632, -0.028226196932793685, 0.06809601279542941, 0.17792422540922306, -0.0029634971186028223, 0.04424221400488858, -0.009388560905979608, 0.08187373409268918, 0.0045933183124910485, -0.05575226633266583, -0.006530684254297991, -0.028225549954798937, -0.06688310815071294, -0.05630389891231614, -0.07208064286531825, 0.05422910205301702, -0.1331672617769656, -0.03819537411024464, -0.03536241085785537, -0.017906347913343328, 0.09537470405286341, -0.03151398165101138, -0.02900585027501286, -0.046828359710499784, 0.02811981380206542], [0.014361060098504207, 0.010011892840899303, 0.006942818609820612, 0.00919419890786596, -0.0057673987181009025, -0.003750461531052585, 0.007227387054315711, -0.005952885848166198, -0.004146761146351852, -0.009226168189787585, -0.01195467602852053, -0.008952063542914869, -0.0023445478378052286, -0.003000407080254862, -0.0030420293725711796, 0.0007527799453716963, 0.003540629986137485, 0.0034527172749064957, 0.00908256275526415, 0.006046640647768223, 0.010396332830052327, -0.004756408210950808, -0.011180569625560367, 0.0041233154096538185, 0.003321476036613282, -0.003503338345254813, 0.004600367667152579, -0.007684578635819879, 0.0023487013179336576, 0.013374317502886382, -0.005395746942550448, -0.012961907954657952, 0.0012073224814355703, 0.011397272329981311, -0.007002494560679022, -0.0027842434391169885, 0.007350192178573646, -0.006008025333649361, 0.014813473578592879, 0.0024577613240690933, -0.0008015123072454699, 0.003769713391290963, 0.0057509736310679726, -0.003711130251042459, 0.02253718968379904, 0.0028558324736573763, -0.005162230729034569, -0.0009683604809525373, 0.00748374704661782, 0.006334668231015162, -0.0030184982928497077, -0.006503690556207426, 0.0002557027602047641, -0.0049544262093926, 0.0012524115345490742, 0.0018161789995653232, -0.0185332117806669, 0.00458893912574662, -0.017727975753774584, 0.0011757399711661458, -0.00947484391224949, 0.004533413769131577, 0.016507835869965966, 0.007412109778296654], [0.07739000343756963, -0.0024209697284919927, -0.03571722034580709, 0.021701743467494164, -0.009534468546119177, 0.06448852083140777, -0.01079336359734376, -0.005136578574180703, 0.04882732090090963, 0.02684315553045138, 0.03586922080045368, 0.0360013088525422, 0.015471073280482719, 0.07205230688028544, 0.006222408180922959, 0.049539910850784206, 0.06259363669819387, 0.032602329615649586, 0.05062193018656662, 0.02409649845250014, 0.008462693873224018, 0.06235088714840862, -0.008979202546905039, 0.07338470425807472, 0.007098549104043289, 0.028988858710595918, -0.0019569204009230604, 0.044713694431624366, -0.006630469317820036, 0.05814599732245398, 0.04788790564677642, -0.02431885781779168, 0.004595815975351666, 0.037126487921057875, -0.010464970697886046, 0.057192666858845574, 0.007132748327142307, 0.06766355320821771, -0.011575692629641839, 0.04357904414443471, -0.007265526541091839, 0.0533142287229192, 0.06332998774636693, 0.019084789738792306, 0.06782890439379878, 0.022780261159513447, 0.05956675631977923, -0.016011766183411394, -0.09152626905546234, 0.02037483228828606, -0.016211845686437812, -0.007259386410210776, -0.022873126825809855, -0.009775427999688412, 0.06321780343141785, 0.031605638023621575, 0.02247060845485401, 0.01563420413804791, -0.05274618329730486, 0.05753990841946483, -0.004184623326493681, 0.07706295222363145, -0.030014935131524326, 0.017833270841763477], [0.046464597908568675, 0.010734070303629264, -0.05062274425363877, 0.010916915513274571, -0.011759481118706, 0.05119196314338392, -0.020719627957772584, 0.005621931932151095, 0.04243752035138626, -0.007819974998934833, 0.021017887366534285, -0.01941364319167703, 0.0002979465603336696, 0.06305191816742085, 0.016332753160216356, 0.06687177248341579, 0.05466959291286222, -0.015526940664679424, 0.06219108645515322, 0.03218639374944317, 0.01175542798760401, 0.08092061608416558, -0.013529640949642494, 0.07593853117295936, -0.018322397621640663, -0.005775664819042539, 0.00739969197380023, 0.05735363849938922, -0.019527262007717414, 0.060958360430253704, 0.04191529881695609, -0.018256169919582017, -0.031227743830214125, 0.013099897643423212, 0.0022174079625745043, 0.0639985474158343, -0.001993678517359055, 0.061425485139900676, -0.024949379508897522, 0.026850080095107143, 0.006449760973048158, 0.05005888314495469, 0.06274539007263555, 0.006597120893122507, 0.05815342288009623, 0.007879292645786441, 0.07097520101730943, -0.009348139868596983, -0.08782632051505276, -0.004247946821505847, -0.0795666419562054, 0.005979066519781992, 0.0042267738497642655, 0.006331835805673454, 0.06466559096278231, 0.030355518170612012, 0.009940970662188894, -0.002432610865193182, -0.04962592945345589, 0.040734888826965805, 0.009589169438052502, 0.05775478304160676, -0.02429396984892134, 0.006352207807931226], [0.06500351561165904, -0.0020918067959522957, -0.0451062633285545, 0.016816399004849523, -0.0008330805011528484, 0.06846342433033721, -0.00101777754309555, -0.015576945479109454, 0.056161634261011804, 0.012345378637476787, 0.05996617514231485, 0.010916845544657855, 0.010775781515009585, 0.07760327590370242, 0.033149735274294184, 0.05124078179519272, 0.06499802396552228, 0.04022078076947887, 0.04365150838527528, 0.0304017776028181, 0.006677175485799908, 0.0547815207226528, 0.0003913931752924712, 0.06716512809398051, -0.00027332266571576224, 0.0144632799131167, 0.00022431311405033536, 0.05723526830037089, -0.015231502974053665, 0.05904494677257879, -0.007460034522880746, -0.017292750443948623, -0.034915245905485955, 0.022963807547324872, -0.007106461805989154, 0.06099932126027985, 0.0026699671550668184, 0.05603330514088751, -0.0005828087442669558, 0.051180566782265555, 0.009364983605591374, 0.049133589368676386, 0.04685225210816167, 0.05424362642552656, 0.05196783693625886, 0.031878627911027906, 0.05501727883012483, 0.005384248164583135, -0.08182516402105929, 0.006536903152871124, -0.05361003013541516, -0.005764628830720263, 0.00607216949228444, 0.015142398743587231, 0.0720223013335749, -0.013429350264590908, 0.019097182052947626, 0.009370159540276292, -0.042307799963195114, 0.06957622066215176, 0.027425636644800414, 0.048825016630308034, -0.0164858551681239, 0.0197595302711453], [0.06798245635900087, -0.01339473994029158, 0.012447724196925972, 0.0059398852771452215, 0.00328037109084629, 0.040539033960571604, 0.014999907330542265, 0.010731307013017487, 0.04292372110475829, -0.0017510514041018145, 0.006199461401528516, 0.04550109452980308, 0.009545134637806013, 0.05442799086258458, 0.025534210357262173, 0.03724285664095233, 0.05483085145907398, 0.05520857007377236, 0.03275718794826554, 0.007005109545576322, 0.028409820108504, 0.03447718973516435, -0.0012596645953743715, 0.0035484697491669106, 0.008655787029135817, 0.04382327330656598, 0.008219741470612862, 0.0385103267250343, 0.005832225920479647, 0.04484864800618591, 0.012652395637913908, 0.003860869179475549, 0.026560784845338137, 0.005618529459432734, 0.0009768235458984446, 0.04294243198291497, -0.005694983138036385, 0.06396742184662291, -0.0033050646259927454, 0.048344066898262164, -0.008219515881790181, 0.048991605132537974, 0.056449656010422226, 0.015424597248964606, 0.06862325871902925, 0.002208961985104932, 0.03394412637009374, 0.0018293345431316548, 0.03080874698009959, -0.014907215475011098, 0.037727175507230835, -0.020165107010126696, 0.012491645916883927, 0.0012705966085545207, 0.03433089053580936, 0.024212778047584087, 0.04720816419125706, 0.006842201845910574, 0.003703295609149887, 0.040705740544867086, 0.02296574024763876, 0.003416143972257967, 0.004661822550527751, 0.013923895711032593], [0.0013026801089238687, -3.071740138280441e-05, -0.0026369772518497338, -0.006630844277054535, -0.002489766080983913, 0.011570767299940133, 0.006804119931928806, 0.01389818632736276, 0.012731909946014829, 0.015708501531659435, -0.01240484276819205, 0.01272255804697597, -0.0070534345757271326, 0.003718910975934309, 0.010038265022270992, 0.007545162545337046, 0.0037869257662135687, -0.007298547215166231, -0.00336369197657499, -0.002957581815724812, -0.0016853429642593413, -0.013241830987467925, -0.009702683015892895, -0.016874849776871953, -0.019449379876174355, -0.005836099614050698, 0.005101767173923898, 0.021968501702984724, 0.00273366704055846, -0.010755835229839217, -0.00425035667075952, 0.004664273707217218, -0.0014352992561288988, -0.01644739619691745, -0.005372740427651339, 0.023346336346366896, -0.012525979268063958, -0.0023484926035094856, -0.0072245716628319846, -0.008038499698687392, 0.008421607937971176, 0.007665526030405462, -0.0051422389462016105, -0.008918203527922112, 0.0017463764976555548, 0.0056330756696606156, -0.00969864680481461, -0.009178324982713775, 0.007119521381065319, 0.008652425228470446, -0.003200844935821078, -0.009435270986348445, -0.01991447828511468, -0.003465016790291194, -0.005505036192467062, 1.2850981121084665e-05, -0.00020933040741308916, -0.011322354859902897, -0.02661976661433302, -0.014491713365086721, -0.0006594680671047838, 0.0054033633653990856, -0.014591811736195748, -0.0004139245925994567], [0.07619872242272022, -0.012643658274349705, -0.02832461600347723, 0.021467419119084005, 0.005198351834837418, 0.09054802522187128, 0.02292763483134083, 0.016243572828710872, 0.05962037433394424, 0.015847497940520414, 0.000867747353019639, 0.04115391354080234, -0.011242997891149515, 0.08681014097453428, 0.008967003930064396, 0.06932463309416642, 0.06555392343857416, 0.008690501294395862, 0.07647889413434246, 0.02759807389463513, 0.023170435363294176, 0.07537011054595083, -0.00010962825252770354, 0.01661386494403584, -0.012250393404391343, 0.018126653341093025, 0.016630007857240513, 0.0654380029356519, 0.01627102015329299, 0.05460533813740362, 0.012055586789761912, 0.006975597783905337, 0.043354463697925255, 0.02079104875391132, 0.01753945190997151, 0.07461587992510757, 0.024593436552486296, 0.0934449899793343, 0.010092019237542466, 0.05919984932771277, 0.005920389952812616, 0.08549013249133335, 0.07920262473024266, 0.02102944094225637, 0.06836732819290464, 0.026919709852176107, 0.06916085274589359, 0.0035449437824502487, 0.013554012007807504, 0.013451830302816768, 0.028862566686030395, 0.011246352382301867, 0.036323585865583166, 0.014420241185636324, 0.07896753094227216, 0.022641673284944052, 0.0107850893606948, 0.013517246545132809, 0.0049941635080383235, 0.08203735430541988, 0.037072663371170864, 0.03156783320899544, 0.00926709778142349, 0.008045807121794488], [0.04171707442880796, 0.0014019622749288862, -0.008954843248043739, 0.01764165877363234, 0.008245518848123492, 0.0275453589110073, 0.011184629175367689, 0.01470168742500789, 0.014635976972225042, 0.016170265412026607, 0.00958338666732358, 0.028016864196429188, -0.009811553693978079, 0.024998045549562694, 0.029279203982792282, 0.01839727243347974, 0.02768046991399985, 0.042547182701926936, 0.04077984211903069, 0.010982696810358204, 0.021834124948523933, 0.026809247749004703, 0.007387926655239106, 0.03205364439908778, 0.0006151117049951408, 0.016074109387334, 0.005962637307577342, 0.02200052533636325, 0.012900798283212944, 0.04427341446328355, 0.008074935739529885, 0.00825897767712096, 0.0019393588064416831, 0.01040472489875659, 0.010318883545002499, 0.04284103761073987, 0.016581763400738712, 0.049030642334802615, 0.003814319616123899, 0.030764811927734143, 0.001114554898415524, 0.03930387080092149, 0.02864749063255455, 0.010441073453685548, 0.038730788656632174, 0.004905003028276459, 0.025530404358762186, -0.005905113058930019, 0.010395490206801208, 0.008072524423645283, 0.021863676021828184, -0.010306082751318118, 0.023511623782669445, 0.00843500833201852, 0.04599165756367621, 0.0029996646997931097, 0.004416925523515163, 0.00894658308052943, 0.0048128465187744, 0.03874647707499358, 0.014313857764331764, 0.034480724268939854, 0.03116366171768796, 0.0077972877251977785], [0.04459362249872689, 0.0043442979757225605, -0.022400005893249943, 0.00021478905002812087, -0.011165501470467345, 0.029123187133116922, 0.008497809654350506, 0.0050943770156345655, 0.025079642172328137, 0.0023315925556786515, 0.004505202604278952, -0.003969946324750168, -0.01248824268244667, 0.030780706805289725, 0.014178435918763192, 0.038108825546546626, 0.05209911987985958, 0.019015931244052098, 0.047780645495801286, 0.022929675320637263, 0.004397221580420876, 0.03419106561437794, -0.003782055858334054, 0.007724901407366563, 0.011765273797804109, 0.02845840600963923, 0.0044693728292314406, -0.002870452414917181, -0.0015384236145270353, 0.035301355078597364, 0.007268684657455206, -0.005140384643987419, 0.026118512781323308, 0.030817700825173967, 0.007710919032688266, 0.052894458990247584, 0.003104934020132623, 0.0579269760181677, -0.013919664963375758, 0.04798231021501495, 0.018244765089505784, 0.03302461239408608, 0.04640650067350481, 0.03126029383658181, 0.05630357358963562, 0.009683749768976747, 0.04712966730692461, -0.014311226269729152, 0.023490449221690485, 0.0035919627464461703, 0.011437461802878426, 0.004053326307378481, 0.006208769419606003, 0.007383472029865558, 0.058669384416313065, -0.008217338588809816, 0.009584682316084309, 0.0038675292441253764, -0.007133460827882069, 0.04059825346295833, -0.0010449536510813194, 0.029778182774095264, 0.012396015963108076, 0.026903868478570327], [0.06300386352945196, 0.007621197324711433, -0.005149038652412753, -0.0045781020552953895, 0.008058438990283988, 0.03616214637884185, -0.0020316778754567184, 0.02543537117099591, 0.045966096609358874, -0.0016920715559625757, 0.021878273007855786, 0.002043373001270672, 0.02054570757882124, 0.05779118051954443, -0.019858505836163172, 0.034684022265998864, 0.06519342646133254, -0.0144038021885331, 0.052477080411624306, -0.0035559824329981413, 0.002490931056422223, 0.05984033116653946, 0.014666494402977227, 0.0342354201501512, 0.004583259961547719, 0.009260119823874386, -0.006313890900533418, 0.019773118261639303, 0.0023213800443555566, 0.04112634125805149, -0.0035658016385116077, 0.008661666507782679, -0.007511361865581606, -0.005459923575355189, -0.0035782733045849344, 0.05976103656967741, -0.03195176701892972, 0.06418783149261813, 0.005921308404635901, 0.027936909699098202, 0.0010677825488623906, 0.06009964304046184, 0.035270087683870126, 0.01440317796481286, 0.05393717690213123, 0.00966543795002344, 0.07088027195958936, 0.00385136212497097, 0.002326301063457753, 0.004054530386423169, -0.027992932258597628, 0.002396449705142708, 0.037124539296383194, 0.007027785813090416, 0.06257506493412199, 0.009233708007701097, 0.010635779448077313, -0.003522771096667271, -0.0037524572396613843, 0.04302864068664748, -0.004551501511747017, 0.057681646429849485, 0.021258425955415942, -0.017316269763527126], [-0.0005846096412633778, 0.004797385797829627, 0.014465463463572577, 0.0015222719487546818, -0.020009370714809536, -0.018792997737262312, 0.003480730358713125, 0.007931945916691574, -0.001878407898731774, 0.018350609582080405, 0.0023834858937463186, -0.009660823630335434, 0.00028030073436482224, -0.0061175443560742985, 0.014278482118614549, 0.0006555657953394067, -0.0020902293871981033, 0.001379344375155144, -0.017928780503623735, -0.014630863435838467, 0.008054559092222673, -0.005136627083195484, -0.016159495140267065, 0.011755915075663205, -0.001489571584166738, 0.003880698706081553, -0.01638015993691276, -0.009304155243694198, -0.006847409881135368, 0.003340615421798178, -0.0008285083721431515, -5.041819826738096e-05, 0.00435139405386668, -0.0028139202560056374, -0.0016443040882141028, -0.020690630019463075, 0.006014468022509871, 0.014063839797464256, 0.019420161207658382, -0.011547650936526354, -0.009500655979537663, -0.015786298621108, -0.0083359506662826, -0.003614916108225012, 0.021374817401711814, 0.006320622504443397, -0.005848047770375679, 0.007412515274086641, 0.0029261455901319873, -0.011135139844626676, 0.0019348412355809676, 0.0023680262542219665, 0.011039221611656522, -0.011524517514374633, 0.004683100828213918, 0.003921916193982712, 0.002895042924936733, 0.011642661321087575, 0.007325847167236522, 0.00010678150805841638, -0.021307174490581397, 0.008614558948569806, -0.004640447855587022, -0.0006078449512585692], [0.05392704285944356, 0.0018633153748852764, 0.012584557612480651, -0.0039242867862408866, -0.018985666300045077, 0.022606701738795473, -0.018463125022799714, -0.0017817884196574703, 0.03372695561182531, -0.0023573436713855618, 0.021292999756429745, 0.03232995539594922, -0.002862750913217748, 0.021513183626306484, -8.444519666885833e-08, 0.018739423494274314, 0.021814164073188414, 0.025884209002708325, 0.038264519104200506, 0.002479191664705943, 0.022241663307003896, 0.02723311642649075, -0.004398777824306889, 0.014348323059390168, -0.0015414944962531005, 0.03440972302324064, 0.005003741770456439, -0.0030579628681135893, 0.010134538105957797, 0.03541706218952536, 0.013373114546411397, 0.0029100340051594676, 0.006624406201293227, 0.020806492630373864, 0.004679603366083686, 0.03951223925816434, 0.008055229384775108, 0.061588128528678746, 0.014878761542576608, 0.03053335214753358, 0.0231353898016322, 0.06702775125264958, 0.02419607624063678, 0.009274661889820169, 0.051810951262585676, 0.017315267126383125, 0.03448827945293544, 0.0004989298141361241, 0.04368046100050534, 0.003606644666570331, 0.020351993093490967, 0.0029501797199653237, -0.00029865141057642706, 0.0344262729658323, 0.024094823575861634, 0.0025847562542308075, 0.003877694819462862, 0.0007502359256148854, 0.012876495478667606, 0.03521812318515103, 0.016618256458754515, 0.022593948519521314, 0.009010002652019946, -0.01951321694212022], [0.040642527556880664, -0.0022081608749886517, 0.015214153747454929, 0.041828765886460964, 0.024284479432345605, 0.044986988391318025, -0.009141554896293477, 0.00872020425890069, 0.02703141016116671, 0.00689474527262648, 0.017096268858893836, 0.03517997556788203, -0.016708032381473153, 0.03830240876113702, 0.012040486417254834, 0.024572353374588105, 0.036313823945139836, 0.026099008412582475, 0.048039735448645544, 0.012857735670380979, 0.040133614023144894, 0.036514742376345485, 0.017556519801203596, 0.02570981921972421, 0.004378085989428919, 0.03728609431266442, 0.01433165373863722, 0.011920444301723876, 0.006940712446986154, 0.04063726901429055, 0.008245724082441003, 0.03710573280257131, 0.03057864793811975, 0.0008565383247399242, -0.008831555797416455, 0.03606507491581229, 0.017173523694551336, 0.042369960559890105, 0.015158526758376787, 0.028409146017602086, -0.012206654674201907, 0.04070778967128134, 0.024919104439747503, 0.0007897680800383332, 0.030635455326210502, -0.0014253044078984534, 0.05704263843519453, 0.0010839670618423807, 0.027538444500058778, 0.009746726552322034, 0.017432211973949903, 0.021065948853776557, 0.032296153638259856, 0.008428634614602942, 0.05686661311740393, 0.03810963381883251, 0.0014024718183346786, 0.0073803258447121154, 0.007261750402070738, 0.0474132134662983, 0.03994677826704614, 0.018224960160007013, 0.01278683807595864, 0.005475167536315734], [0.03302862881760502, -0.0042377346008671025, 0.01341781897779329, 0.0007479805596899731, 0.01819523387168051, 0.011225468042588595, 0.00923425120464149, 0.02558643847535339, 0.01150368581060125, 0.00106257042632676, 0.03075981248390882, 0.014583826976881369, -0.013533499980704014, 0.01763052929047939, 0.005868107763583837, 0.010484528459065645, 0.026270614348584888, 0.013668489125631771, 0.03354150575883281, 0.009605555447502908, 0.001892290752791406, 0.007751877823212588, 0.00775850047403703, 0.013464835035282022, 0.008344942938298803, -0.0034346051942881315, -0.0012963292997825685, -0.004396809088102772, 0.012472799506137198, 0.036918619089966666, 0.018570025317746836, 0.00251805943602767, 0.029915502602140674, 0.025699047970190153, -0.009834397273080327, 0.01846524226984457, 0.019534223550179235, 0.009513239378096377, -0.003369442376616228, 0.03322758773076334, 0.0022731735812226666, 0.015748964947641993, 0.023683342441078562, 0.01056785915826265, 0.036341438033977505, 0.023417703578838125, 0.016297889963594835, 0.008611610679397625, 0.009455785485633118, -0.0027716194333034, 0.014396491352869334, -0.009459877271696096, 0.025538933455172122, 0.0020025290019032873, 0.03750252137141596, 0.026334819851093302, 0.012048923258403572, 0.0007189198643556903, 0.012130241262417123, 0.010366756704284653, 0.018617456568280035, 0.018551693530086167, 0.008989453567882872, 0.0029487896896763506], [0.07794861357263999, 0.0040251265777058705, -0.01960485457462207, 0.016933299492572215, 0.013472556718908416, 0.06214471318692196, 0.016782803079571317, 0.0035630062064137677, 0.07369371854982694, 0.003186645072493149, 0.021069669984842124, 0.026117220883926026, -0.005515064961823524, 0.08008993393744733, 0.001545233854311212, 0.04735660705391437, 0.06515782509186492, 0.0442335356746223, 0.060662318278702484, 0.017323381815459678, 0.02910432677103614, 0.08489054767699893, 0.026535448882035427, 0.01928806135317283, 0.01910358823143029, 0.02444345824142235, 0.00927310445065084, 0.05932174127621246, -0.0037022888592259796, 0.045409202714178136, 0.028196581936917285, 0.01313776010224973, 0.02085145902010817, 0.026378768253377104, 0.007367825921891123, 0.07979800202274896, -0.007848648427011549, 0.07084932241267139, -0.001082600214290274, 0.07456413824809578, -0.007194371794709942, 0.07922857330916336, 0.06790948446526389, 0.007966080142582668, 0.06183898758804333, 0.009039991835800782, 0.07403200086518534, 0.000945693747934374, 0.025943644746115487, 0.004941735885388872, 0.025968152010943185, 0.008115055335269426, 0.02853964852703357, 0.014354615582152914, 0.06498810830717007, 0.006079289929115861, 0.03252341567654077, 0.023819045908381454, -0.0015987462087872434, 0.06063537787261117, 0.02152521792453806, 0.03992250100770514, 0.034228897204662725, 0.00508113104514827], [-0.0032359505390028966, 0.0011412833573130243, -0.0023179267076469433, 0.004485374466626509, 0.0015263511013648002, 0.0008115698429092822, 0.006704878686169948, -0.005632708804379484, 0.021595265745671367, -0.005395378010832267, -0.002698651925864637, -0.009436328751252896, 7.206546941080407e-05, 0.006498542725941989, 0.004395067280779203, -0.023370241317933322, -0.014293655978160085, -0.010411650794755423, 0.00475014107754136, 0.004082135116709092, 0.0019530743961262576, -0.009399214658156628, -0.010533136271067224, -0.005295884934259667, -0.0018658037912869865, 0.002370623600936638, -0.015854276989428123, -0.014898809818308276, -0.0038946540520593495, -0.01612837888065877, -0.004583672601458345, 0.006161112996412602, -0.005309389426567623, -0.012171770575196125, 0.00810844249980779, 0.009667004219928145, 0.0008748217079577699, -0.001728193650871318, 0.009106485660723354, 0.0019227789746146513, 0.004535606589589513, -0.015515708040153727, 0.0027588929747375053, -0.011161937741138779, 0.001460530624719836, -0.010465488148513565, 0.008460424956783346, -0.004066399248917644, 0.011706204795799091, -0.01297013242202161, -0.0020062571037788106, 0.0025490860120594093, -0.02033198199468278, 0.007130541015409837, 0.011669488747223405, 0.009290282532467099, 0.0026864217140861847, 0.009929880950861914, 0.0027496219933375826, -0.007918843576321008, -0.01113304852631111, -0.012034922653257426, 0.02038068712217939, -0.006300856651633969], [-0.012648778814591734, -0.009798362777602479, 0.007779347510017453, -0.014369413177555763, -0.01769732194418674, 0.015599591764774417, 0.012011626744108442, -0.005959810608892768, 0.007627141699617254, -0.014007401554145161, -0.0025883777518469608, 0.013773530726933316, 0.02179758552939484, -0.013444764521039036, 0.015122040735164124, 0.0020121672781369853, 0.006285284640440314, 0.006219310491364831, 0.005515337978483086, 0.007042366387637875, 0.006135815022418459, 0.010522799736643051, -0.0037924345984798355, 0.026495910083722894, 0.0030583893543600577, 0.02345999763027431, -0.0020506373715799445, -0.013658338511772016, -0.0014706896831581222, 0.016776822445920127, 0.003161806316231004, -0.0018738412570915221, 0.00785513066336638, -0.013912721312003233, 0.001824487990243521, 0.0042783092247946075, 0.005851965183397056, 0.021697256472349807, -0.0023261798397090703, 0.01503945431644961, 0.005939352245462033, 0.0043074778354289505, 0.00983905858488195, 0.008747764144756982, -0.002166246839567785, 0.014693866144461614, -0.002758448599544316, -0.00745922417739935, 0.012840016261559027, -0.018927632546506, 0.018541903622397053, 0.001702796018629733, -0.007713949501696262, 0.011913913268602349, 0.015081751976423065, 0.00045096589810582214, 0.008199254139832923, -0.0009020051774503697, 0.009361376505945745, 0.010227835815287835, -0.007287984203986967, 0.010320502812731003, 0.014858694230872905, 0.0024701573035373946], [0.05570385248745014, -0.005288135381888788, -0.006339379668695593, 0.02986419418980814, 0.0011923477758905227, 0.03812218360969634, -0.029774132603731823, 0.005785974616074653, 0.04377669705717597, 0.004516959575859717, 0.03250770212020413, 0.03212307817196814, -0.004498885403802116, 0.05599060576959007, 0.03209517303443316, 0.033770573253859376, 0.04250416455803005, 0.041278525233202926, 0.05564718428178253, 0.003130923558158777, 0.042872257588022676, 0.05968903340591112, -0.008675154179787214, 0.06281754082878135, -0.005486067992986072, 0.037271475324789936, 0.01282526438309877, 0.032234336344077845, -0.017302261080698437, 0.041958887487246126, 0.04169057796443537, -0.03377255059133218, 0.0004740249950744644, 0.04669701337191086, 0.008566546169425945, 0.053031169623230796, -0.004802989219043258, 0.06945370210893592, -0.007450292036516988, 0.05561695997690119, 0.010554085147351759, 0.05157824688567999, 0.03240181102412849, 0.022653021841536593, 0.055577603219297285, 0.033844298653302934, 0.03872731415519439, 0.0014411276215880347, -0.005574631013485128, -0.008943908279714178, 0.041305178286133434, 0.009660081295192332, -0.014130421707350438, 0.011262026332803852, 0.031927073234329084, 0.016011115298014984, 0.06248123224624846, -0.0008701866164003418, -0.02505584301772867, 0.05481809037685771, 0.04955157206079443, 0.04815818661677122, -0.029049252262688594, -0.009637743762814342], [0.029635327094996188, 0.012140677688288972, -0.0022888500854032503, 0.0056552271699704644, -0.008755811306075108, 0.020922920152773097, -0.002344307660544039, 0.004463567475316294, 0.029026494593564666, -0.006820378957466669, 0.014966875144100935, 0.020506835969580615, -0.00569804868660954, 0.019499636819577042, -0.008416006025224201, 0.009365772396498008, 0.03205351891704751, 0.021916364612887623, 0.019033524543766462, 0.03089799525165803, 0.003527706982839225, 0.010376644340496214, -0.014466545177735558, 0.056383998246889194, -0.015098178751437378, 0.0027786276649350403, -0.011036338546809339, 0.020725205181615636, -0.015896752357008086, 0.02326430429954528, 0.018050507822049394, -0.0033699170996535827, 0.041505049025104046, 0.03136987409913224, 0.004466128184912944, 0.030157671104031846, -0.006284727706749992, 0.03733259630164624, -0.0246024344615042, 0.0245411787118859, 0.0011752536728001424, 0.030229564310191775, 0.02132102951288532, 0.010124766161724707, 0.033340504031341985, 0.0025847014053133974, 0.02640416392581177, 0.007114901387334293, -0.015103409421930048, 0.00879033403251153, 0.01732216536932572, -0.0076375665286237855, -0.031734744737238404, -0.012474960130333878, 0.025080271987069348, -0.03572228739368702, 0.024627926312757415, -0.004114300235947057, -0.02759174403429893, 0.01919332805835377, 0.010563789199539687, 0.052057566232572024, -0.020499923633787723, -0.012252812097561495], [0.04666884190686632, 0.008498691971648683, -0.005314630733117292, 0.026348845526351607, -0.03234676927517061, 0.04097744426585027, -0.025111153096499503, -0.0010496504379048548, 0.049155320427254894, 0.03251502806005701, 0.007821113761719612, 0.016765391241072482, 0.0004139083345282363, 0.029655588053583783, -0.013925285889192958, 0.030054901332539935, 0.060863695835450066, -0.010437157592567053, 0.050074010794258085, -0.008216929009767617, 0.02622736038092673, 0.054327899039640005, 0.0021602299505543805, 0.01702852205700823, -0.00821857133531437, 0.008531728672874266, 0.01935520517749285, 0.026766548199461355, -0.009305261135336343, 0.03377685627972056, 0.019921483944347104, -0.007621700570943324, 0.036949570564564424, 0.013347804922887741, 0.013238709880156331, 0.04384248200258862, -0.017006759902106, 0.05271684017079806, -0.03282573734889511, 0.06834663800179899, 0.0004134014500302111, 0.032435382524508255, 0.043125879299257576, 0.022002067839248504, 0.057495483937090246, 0.005731989204531263, 0.0398282195004362, 0.015322008376049657, -0.0010869858109347295, 0.014501417830888978, 0.04142416030790219, 0.0034047193759848093, -0.002765899609508594, 0.02908552955158942, 0.054276658427549265, 0.03053218060583099, 0.007620827664142866, -0.014845240248843547, 0.011879545886470867, 0.039227647437746295, -0.0070106851198022575, 0.04019197718570416, -0.01225403808950905, -0.0022139756531875244], [-0.022069284091167648, -0.025594750462624438, -0.0032423825829178423, -0.012511789733105929, 0.006033519256202872, -0.020326640136329864, 0.007931991479629388, 0.007750272152582019, 0.012864824466906025, 0.005117825777519925, 0.00714998615812397, -0.01320077015945902, 0.0013368017725484708, -0.004002374962996297, -0.016361658976883495, -0.0105367500441538, 0.00294891565665783, -0.002671046857305965, -0.012362463216931232, -0.0009999146329644707, 0.007529708242436537, -0.0007659741267847028, -0.00076900755375243, 0.013990108064993281, -0.004382496711849106, -0.006503726349115727, 0.01539746885559343, 0.012035692457008546, -0.014776912679417147, 0.0015353878557693075, -0.003564139706995026, -0.009929589479054264, -0.015060828284426859, -0.020830276054966967, -0.002338603065269617, 0.011438656497725089, -0.0052943901039365195, 0.005831653511374503, -0.007820464436420196, -0.016534231597969417, -0.006414417646653105, -0.007220949703383558, -0.004255703496868411, -0.005255762940676704, 0.013904233406919986, -0.00816961254032382, 0.005184951122300758, -0.0014338413374176686, -0.013062110034826215, 0.004488876137298224, 0.006247577503060919, 0.006761085377062356, 0.01271727181545447, -0.01202123174129641, 0.009040201726169152, 0.0008491257587236348, 0.008807932160575738, -0.002736705659193915, -0.014781161100119948, -0.006511928258421443, -0.010627031305446016, -0.015438685194174307, -0.009116672097003864, -0.0006212103656397163], [0.15908931723077618, -0.00654448158333268, -0.13740168184510967, 0.010358688029777867, 0.002324368803855597, 0.14651127322652796, 0.027120579086872047, -0.0014373316526737512, 0.15184164692956312, 0.006109613555643506, -0.0006384400219307415, 0.026889062943148447, -0.00955925215708315, 0.16246199594885274, 0.018617064777418403, 0.14736345403250117, 0.13850464191751782, 0.009217838273950363, 0.15207977451684832, 0.03233300209835178, 0.011346312068498824, 0.14528345381228716, 0.02295913997527957, 0.11467026452741116, 0.00015714496224190978, 0.12322318112605339, -0.0001656228532087021, 0.13290038484055083, 0.014285794669413104, 0.05414182048638692, 0.001972520331173607, 0.01030422582976151, 0.02406378881452476, 0.004164364146814974, 0.0012887870512095097, 0.16747680467691814, -0.004670845088600418, 0.160150368818645, 0.007409845181368007, 0.15131580410114528, 0.00845013814621434, 0.1510554919212088, 0.1544027574407874, 0.011263789522822523, 0.15001405268628556, 0.00341300432603643, 0.1478164909583626, 0.00115802741899777, 0.025613652093357423, 0.01363867261787588, 0.005980766434670977, 0.001947490776551167, 0.00017689732255114912, 0.01700447340258077, 0.13968369432305014, 0.020726016178990815, 0.015162708469156396, 0.011826036357285505, -0.03646176752269925, 0.16188284625842397, 0.02661418105557952, 0.12194237132484922, 0.008556405631362778, 0.0032557807599724485], [0.06234454196412688, 0.009497111043879743, -0.021404874653531927, 0.0014005247136718263, 0.009355784498888135, 0.02944147082673043, 0.017992658395124685, 0.006891945675127732, 0.05285205749940522, -0.005728665044357543, -0.01074265881566795, 0.009809471613014245, -0.014482290095998598, 0.058854781701120525, 0.012740382543186256, 0.051250206571041915, 0.07451131115442218, -0.009033419862606067, 0.060410061268693534, 0.001956404107043777, 0.01876013573877307, 0.04387473387434922, 0.007934003926309403, 0.062456728560212, -0.0016995967546713268, 0.015267951437020293, -0.009654373903352494, 0.04179568633387122, 0.007534837726091198, 0.04875474971480787, 0.007660923560970125, 0.006393740294917684, 0.016995548175221836, 0.005960518213304483, -0.006966100086930327, 0.06945054479370616, 0.016399103991784392, 0.06040353649947111, -7.94968632487582e-05, 0.049840520880420174, 0.005905480692860132, 0.05597380513183871, 0.05586465308841757, -0.007363292804102053, 0.07590652915420368, -0.012166587065400986, 0.053758097301331145, 0.009629434535370691, 0.029599357408762166, 0.00834003872896331, 0.02799700498423803, 0.010023309660069016, 0.016094551341308945, -0.007144030284410686, 0.07270717592313819, 0.003832649208613756, 0.002736857330247459, 0.002202864183158311, 0.011853382731061665, 0.0727384478301612, 0.019267201528836254, 0.0592078847154008, 0.009878321198844575, -0.004950080013731498], [0.12307152330844605, 0.010444141502710478, -0.07879449668279899, 0.033881123087887516, 0.003511978640163883, 0.10374703389610461, 0.011955414274644187, -0.0030081725901732153, 0.10473351266884179, 0.027612219750153093, 0.015589030579767153, 0.024054243106364556, 0.006820217962082379, 0.12831555919170054, 0.005135734183677343, 0.09315876760065685, 0.10346343181983347, 0.020311438736844552, 0.11009361215422805, 0.047340635638158414, 0.030696100361205306, 0.11018323421699619, 0.017739398054814726, 0.10603222504494597, 0.010772991655863557, 0.08543869229224087, 0.0010994410235041997, 0.1189163351712206, 0.015986669097629316, 0.051904429380489774, 0.020416628124070774, 0.008235344551731342, -0.001888968791021706, 0.0006606805848564254, 0.001777623979844242, 0.1175157614957089, -0.0007559071949270862, 0.11892148467008025, 0.015294684253000875, 0.11740277875655258, 0.009373249212862733, 0.12243553623875682, 0.10662519139897866, 0.013730247068986932, 0.1292453158744734, 0.028028433350396717, 0.1262341365502054, 0.00435363895366686, 0.00795645556504806, 0.0029688845793496644, 0.030464912351965773, -0.01788105068981819, -0.004576674080095849, 0.020497705471463533, 0.0913721295958387, 0.0016984556447745911, 0.03479381836286584, 0.012387392854458364, -0.019576651807842585, 0.10743717529033883, 0.013508211068053066, 0.08585333413043789, 0.015854146667579314, 0.0224742883014879], [0.11927565581013636, -0.009463971881738444, -0.06773815187827084, 0.016551366497902655, -0.010253971577360932, 0.07806266965941351, 0.004363825209978104, 0.005208358592535114, 0.07650377864500892, 0.010613098083658188, -0.003669434806273391, 0.010242880401423115, -0.003413605065827726, 0.07429825401558504, -0.03586097625098344, 0.0580559661275794, 0.09399353003929656, -0.004130750686348407, 0.07766452128460104, 0.013649166075233091, -0.016417968085279722, 0.09190050751264825, -0.013609118417192144, 0.07499047537771864, 0.0013062403166777658, 0.05718141764986522, 0.012491939196969778, 0.0798830844945899, -0.0006824309871308024, 0.055530249619075676, 0.0003682610156349519, -0.0004837223451916523, -0.0028796204607859956, 0.0005933402183142432, 0.006154895383013478, 0.07605530070010125, 0.003802601889213978, 0.08254942009855143, -0.0008334923865330877, 0.08944614910016352, 0.0008453292704474489, 0.0817535853557334, 0.06720912914045504, 0.02010154821021337, 0.10019659621433255, -0.0019650380232221817, 0.09458322522812639, -0.0008899438389924573, 0.00583365771518979, -0.004988251566578668, 0.00991302940277394, -0.021160914158074525, -0.0012023331821554364, -0.0027441966843573164, 0.0830334230750729, -0.010444597641259651, 0.023914552162755096, 0.011678988851703112, -0.02001612607588337, 0.08232208908158169, -0.000650630555709107, 0.06078245693458459, -0.0028927024203631345, -0.0045583037043002185], [-0.008276641490959497, -0.012739896298565303, 0.0039031474049178007, 0.006179183559227217, -0.026788429844945633, -0.004054026854584278, 0.006473912485464981, -0.0017945021200588955, -0.00345560168297792, 0.009844942783093327, -0.005592379675494616, -0.0027845753627205854, 0.006188682458849793, 0.014771597424736143, 0.00821296019137424, 0.005512220976511867, -0.0011119010819264736, -0.006425918146999663, 0.007029410565134449, 0.004079188644144659, 0.003969795188820589, -0.000718034342798005, -0.00974204135900922, -0.002387712736403511, 0.006118943235876698, 0.011524264408931277, -0.006001984719812852, 0.0011438928987196027, 0.004000734124824823, -0.01086022843706257, 0.008453370780626657, -0.002023189197394128, 0.0024007889879937815, 0.006593237809159166, -0.02541033768395054, 0.001847135490846467, 0.014307296913235817, 0.006410037112923373, 0.015504119643833398, 0.0059692887561352895, -0.005411472047009607, 0.0038001023360635143, -0.010577286208206927, 0.014677365763796702, 0.009020463063227034, -0.0037855553045485707, 0.003220600844978686, -0.011924360658501066, -0.010084428364668338, -0.003640990124883641, -0.020084744118467685, 0.014756210526462957, -0.0020523607756045233, -0.0017056684694238004, 0.0065845820007807854, -0.0001800857868852411, -0.004649411966525954, -0.014560978227607786, -0.021451574005412404, -0.006888340244772515, -0.005778582160982288, 0.00016294737349964192, -0.003769587961753568, -0.0007444927969196106], [0.057851288034428294, 0.0007078753242558636, -0.021828917117992803, 0.0025833468269635547, -0.013147690480606971, 0.05742619261141627, -0.017071288189279298, -0.01921331030966662, 0.04707631772055742, -0.0037914254872788112, 0.004496399645822728, 0.02263668114216284, 0.0017638083463222094, 0.06191812387922888, -0.008731798257865703, 0.049503700185880885, 0.05148336729833293, -0.0032118360733330424, 0.054565868991516706, 0.018632921537351868, 5.0419553391561016e-05, 0.05126186435584682, -0.006498920748319525, 0.039610921638847295, -0.02362054845372798, 0.0644008910332026, -0.02627734852086327, 0.027794660732973108, -0.02321382814670678, 0.05610673201825193, 0.010324640008526155, -0.012300050296963037, -0.0018523694857323272, 0.002562144092837579, -0.018324043301454478, 0.062064345163432635, -0.0068648157046960565, 0.06308662157340564, -0.030654311748900803, 0.04777398501024832, 0.00024237887665271365, 0.05339955756019735, 0.03809623938897227, 0.010429976108717043, 0.07251836432828883, -0.006753318696991659, 0.058770603105201984, 0.017355616259674123, 0.020349140833200708, -0.01266642043463466, 0.003736211650205848, 0.0011943803302462111, -0.02372497111843419, -0.014013091277863475, 0.08267037031302091, 0.008053425677645639, 0.02637862090319921, 0.015735262873021412, -0.023283009201376586, 0.055548748295660984, -0.020998978907545762, 0.03804817431208267, -1.8092996186648582e-05, -0.009606204718721593], [0.06869150457956705, -0.0071310969850943125, -0.014416693505292644, -0.0006428816129023802, -0.007869860178268014, 0.04441428781855211, -0.025596752722068485, -0.015324743364707684, 0.049704316283642205, -0.007355635323230205, 0.00026350854068433224, 0.004724654103889548, -0.009142646189879559, 0.03651027687722471, -0.01590246148870998, 0.043687644819604694, 0.05250212588833578, -0.018510977871600266, 0.05075440659358888, -0.024490093520847626, 0.0035661091011245202, 0.051712155220522575, -0.005488243429265012, 0.04350379012056436, -0.0025765459207017735, 0.020529196689677374, -0.015131973591420064, 0.018030774668112093, 0.0008263421431216072, 0.038524265689314226, 0.016962989334399214, -0.013231349663550506, 0.029063794549828773, 0.0033061876086316415, -0.005219117893278452, 0.044739274060775665, 0.005056072686154419, 0.051686836792243666, -0.010199168436592026, 0.03800419555476174, -0.01661106250410925, 0.07232535098136714, 0.04842070968519385, -0.011837281400293293, 0.05033181954233496, 0.016616048168057628, 0.0506570961601613, 0.007719839881832967, -0.022686317322924216, -0.010889724382787371, 0.0021482590963530445, 0.016399659235052017, -0.00879452640584247, -0.03987864519867074, 0.06940133072921884, -0.003851026289353314, 0.009639506891921786, -0.010648404321224339, -0.012799391453286294, 0.034038522052771344, -0.022051870353460436, 0.028596507090369306, -0.010135652036177127, -0.0013756001477906233], [0.11120468411570104, 0.010630670480620996, -0.0578629702789123, 0.01805500966425468, -0.007872201712267888, 0.07752585413694102, 0.0011190162713947377, 0.0014557084199438798, 0.08700690259516768, 0.008288220039434451, 0.012466575868797217, 0.009233072529954086, 0.0025076248319801805, 0.10261839837557697, -0.0075663891906939005, 0.054087738524776725, 0.09782928649370413, 0.002497157568302254, 0.07264366292192997, 0.01459995765166263, 0.030283238364771044, 0.09086019336210716, 0.008431545238086433, 0.06738140574567084, 0.032694546674443804, 0.07814482910373366, 0.010419226933848847, 0.06587122011787935, 0.016198384395754443, 0.052403738913343025, -0.006972918717254566, 0.004753888959165211, 0.034177766936929574, 0.022056532422397107, 0.0052028442453272965, 0.0986176431116697, -0.011404096514505411, 0.09673432504905104, -0.008147298173933924, 0.08430414028660879, 0.01113395208330421, 0.10895267973244961, 0.09931136071279639, 0.012944085018037288, 0.11048041983852853, 0.014813117924833204, 0.09521747388270882, 0.004730314878314177, 0.038194501959335235, -0.004933222208061945, 0.022146888248137313, 0.003787247972631977, 0.011320357957885857, 0.01142600621212567, 0.08648925610505329, -0.002018706034869881, 0.019579024495107258, 0.01212924069805389, 0.009955320421176386, 0.0964571805059742, 0.00856441729332466, 0.054243721233540126, 0.03232289414148886, -0.0013676595753734522], [0.06163526823674527, 0.0074715530522203024, 0.007244339853722794, 0.009534284604913446, -0.007641397009000247, 0.07282754936276113, 0.017802740029021828, -0.003552486627802262, 0.040130763479961015, 0.016612193225433707, 0.024427960928015646, 0.039965174177871515, 0.00024484540160446056, 0.07476963608088089, 0.015450464285142365, 0.058714574550892976, 0.05136598136989715, -0.003969730719275942, 0.07222829512328237, 0.018766143563101325, 0.03876952465271976, 0.06719859319556853, 0.018099617751666897, 0.06072988349240486, 0.00657063171116972, 0.05079711139019125, 0.011680477580041499, 0.06374756048671013, 0.00876463054297819, 0.04381472146399429, 0.0020968554519660084, 0.022113391024674977, 0.039762705239419306, 0.013201237260069543, -0.0007838752020149576, 0.07623580481214244, 0.0072358669753032, 0.08011569386489939, 0.022339914283936373, 0.08154239260274074, 0.004709892682810565, 0.07265857979038216, 0.059449172222757835, -0.0028689534709630967, 0.062008575609808575, 0.01774279725042105, 0.06827440206932937, -0.0058787497054351885, 0.025549535595737218, -0.003525026026183835, 0.02446144070583741, -0.013406894085240833, 0.004899929464157906, 0.018311094724804983, 0.06428579878111795, -0.0007128807248968282, 0.01989855121799466, 0.006371172282017271, 0.002028786545213262, 0.07293134895499771, -0.0003448746390838863, 0.05820711684861581, 0.01949326298425359, 0.02634602926545437], [-0.0015762931827301321, -0.005570266871081723, 0.011525324593992033, -0.0036392875017820137, 0.009227853032655213, -0.0032823448879875385, -0.007349984215396227, 0.009355048200304979, 0.0010406117652255963, -0.003859074315366136, 0.022069138370711762, -0.008347750744858825, -0.015268500713048715, 0.0028152372296309748, 0.0031226917904664943, -0.023658223062832093, 0.00724748761499404, -0.0048960705958090095, 0.014873124316385223, 0.015030283909280271, 0.002306116551967244, 0.013502087208375637, 0.00616712475868871, 0.005033697841792706, 0.009317398608318461, 0.007796072832975248, 0.006919407704838715, -0.004013763969109747, 0.0015831438046283689, 0.017567387747113968, 0.018722553812308706, -0.0029504258853070716, 0.005024651018151971, 0.020408445549875785, 0.005530847159808034, 0.0023408050149604925, 0.005670464466453852, -0.004111321383058398, -0.01584221410769366, 0.005297827318692487, 0.006663429048656437, -0.00257965825541894, 0.015239563806220281, -0.00487753753911944, 0.006509515765486757, 0.003948373256784391, -0.0005681027672686261, 0.017279094644102773, 0.01026803946604781, -0.008036245035073563, -0.022316737065397326, -0.0037205213330465236, 0.015503781606286966, 0.008469628598230887, -0.005526019151144645, 0.00019147593967336083, -0.009529016467337836, -0.004245087989310042, -0.0271403178996874, 0.007207543534739096, -0.017420944877547445, -0.004768846171674956, 0.005993260648458342, -0.002286171297843901], [0.05951640014234788, 0.01654156848491901, -0.016304019982139248, 0.0176862035472902, 0.012934220872693693, 0.06892733725675337, 0.013701840510640287, 0.0018471931554352647, 0.08150242474011522, 0.009818707360393933, 0.02654467689958598, 0.021198341117894304, 0.021727848119198402, 0.0753697340424514, -0.0001797300831695236, 0.06394768052176616, 0.08127019587483802, 0.025763677050502837, 0.05838525750547198, 0.028293240474743197, 0.017006857364520976, 0.0895476262177618, 0.001877831603526929, 0.06495575319619132, 0.004246372320081236, 0.08981489162390859, -0.0006923074388981111, 0.05551521051744099, 0.035143832033658604, 0.056405821157986535, 0.019081746442192394, -0.007117150853211798, 0.0058086730136090135, 0.046120446301008935, -0.00772480590301439, 0.064850818673409, 0.005608554824627291, 0.0573893285744598, 0.022888253893128846, 0.0747971169830683, -0.0010855809850674704, 0.07047579066924264, 0.06323082319072995, 0.037811109709559594, 0.07838535045305892, 0.01859261208794309, 0.08009243853313924, 0.016854338558701065, 0.026265968868998096, -0.00844897617719102, 0.028510301247738436, 0.012121468908883671, 0.00991434526513202, 0.010685911863349716, 0.075108470898935, 0.0032660675317517157, 0.024006486617158405, 0.004579096642796097, -0.004564221162454482, 0.07517315293273658, 0.01763229691278508, 0.056106645659708874, 0.01428916549529764, 0.020420591027089433], [0.014001058775282816, -0.0011595947608749428, 0.012400900788453281, 0.025056971901093423, 0.0005608468283948515, 0.03163052247377097, 0.029742970782589858, -0.015636021666318084, 0.03702564035706178, 0.03081920077329968, -0.010501652354482091, 0.005615262328232175, -0.0002505026558839505, 0.036083778733022674, 0.015261834679191386, 0.04883025660117392, 0.04764193534298677, 0.0061273613730400585, 0.042306791434863, 0.003425791642032948, 0.013175688279789714, 0.05820186164572657, 0.0014322321154661521, 0.03153409561990717, 0.0021194936280434277, 0.007511619465677437, -0.005403663140291345, 0.03908538375238467, -0.006994108673748797, 0.04786076436969434, 0.01195455710624327, 0.017204815527261084, 0.017960524161361503, 0.011438196286201295, 0.01275606563684198, 0.040837158275713756, -0.002471937123744606, 0.06354714588169465, 0.004781013639137511, 0.03397503622237667, -0.021339267476832076, 0.04236161493729925, 0.039659675213160904, 0.005018935404158127, 0.03954392200421095, 0.005696871276672792, 0.04828036291735757, -0.005948435289200483, 0.013801132237060613, 0.008563700560551907, 0.01718100350512091, 0.012207365701104839, 0.009699909129118668, -0.004781003928470856, 0.03058694189849843, 0.01104142305183901, 0.01811640742807586, 0.0076425855063011125, 0.006006430702707186, 0.04170333080745282, -0.010067569002964393, 0.026758985904979944, 0.013213279410431948, -0.002065667663790576], [0.0626040617670158, -0.008152705462354639, 0.006094766085561902, 0.00945975903591669, 0.01856155070173637, 0.03420619765012163, 0.028371212328666445, 0.008589240939692456, 0.040687556744490615, 0.015359231740653456, 0.00023608425800386042, 0.0020965241420182745, 0.0011690294026214772, 0.04554933709554278, 0.010653860298583038, 0.03374842513118828, 0.04089188851827328, 0.008297268745126206, 0.04028297977136887, 0.0036206264046572635, 0.023354384025831114, 0.03501903119991908, 0.008515711955402743, 0.02797586194570735, 0.008149849970709994, 0.023627593551019895, 0.018914501859021406, 0.04328233277043892, 0.021728576005664385, 0.04607387394691867, -0.008125755644415797, 0.0037376870500454356, 0.03899327242672607, 0.015634764557893376, -0.0009119414315929378, 0.03235884095200955, -0.003117369342347405, 0.06291362503003932, -0.003039630904266398, 0.04246040608593081, 0.0018743639188401836, 0.036154494289309655, 0.049507412720646994, 0.004192170412089066, 0.03332223855896686, 0.02798481811003916, 0.04003530345660423, -0.008361062872408401, 0.002772117026653899, -0.008445694113913271, 0.016530304267314958, -0.00481354336579796, 0.009838186167246545, 0.03236194537041199, 0.04199155165024984, 0.025973569276133736, 0.008353493557215236, 0.0215580127996033, 0.007758678754978397, 0.04522079191816725, 0.030554136822578175, 0.0234304570224343, 0.005230977376058795, 0.008816680241701695], [0.05789843688104538, 0.0070189253465355265, -0.030929116494164847, -0.0010572122081234294, 0.007052351225787344, 0.026785346212537822, 0.009862746596253153, 0.007749534853491077, 0.04990315303529796, 0.024886573802079103, 0.0011010494150289216, 0.01869580499002616, 0.008016136503194549, 0.04986468841200839, 0.0007341905290898423, 0.0202756825329973, 0.04148552809850247, 0.010904753724019308, 0.049563211271472674, 0.01322549748521246, 0.01477807431982861, 0.07341561320887592, 0.007559867431133558, 0.013733551222526718, 0.0002931179028866128, 0.04217387882244005, 0.019442410897016572, 0.030801686510579594, 0.02095521012796042, 0.04680187858860484, 0.018191786986806225, 0.004821255021716662, 0.013295867354245974, 0.024641042659078412, -0.0007502466293921123, 0.03384241655079115, 0.011248272303378248, 0.030790665911807437, 0.010464539706156052, 0.04485667128959589, -0.00673000761184254, 0.04299529721136668, 0.04461551562046569, 0.004500255032423815, 0.03594922935317023, 0.029074143047850227, 0.0508597396736762, 0.0020883254593772036, 0.02758299502155396, -0.0007154418006099743, 0.02297853215728784, 0.009259623163907186, 0.029089970702804738, 0.01758394101941874, 0.047227054825983314, 0.004051669052184287, 0.02683365453579374, 0.0180333844600054, 0.020601671071502438, 0.05981186962905899, 0.012793792921983788, 0.040292269836444086, 0.03100442635989863, 0.005530372614244618], [0.008382311709914797, 0.004405953109482566, -0.01184069792007403, -0.00039717870928595303, 0.00597032096753558, 0.0017832516083244282, 0.01267065869828948, 0.01605320037689068, 0.007152976435526264, -0.00042664667446869377, 0.0076595567554133374, 0.013495795726771637, 0.004289430688310417, -0.004313500150519402, -0.009489173416054932, 0.008370435461131018, 0.0029541085449063375, -0.0035032475480552506, -0.015066446095619128, -0.015808969158692798, -0.005607973135817658, -0.0031232058831874173, 0.007769991249272363, 0.021124191298887745, -0.020860530787051867, -0.0005315308357809471, -0.00929218843929023, -0.016977537315285406, 0.010975733964269428, 0.0024416606954094536, 0.01665619809008129, -0.00296144132925995, -0.004862199500324895, -0.004545890956053083, -0.003509643185426559, 0.014987232040388827, 0.00020677024175314037, 0.02111050423771816, 0.0008698659438342082, -0.012308828647384607, 0.0018216986920644776, 0.014612788719700365, 0.003234710197789731, -0.012883995350764309, 0.0062166547570500375, 0.001337296853872091, -0.014109011717915971, -0.011359725849274535, -0.014571879389078023, -0.016615211313792094, 0.00010270635776383465, 0.004809650743030271, -0.010473288940739704, 0.004163366598398024, 0.010647696539549641, 0.015849747887685103, -0.004278907108669952, -0.00449901145688023, -0.0035488784585675855, 0.004243490538544987, 0.009777666847822145, 0.001571623248447996, 0.009672757506654727, 0.007136698974154625], [0.025624016257161816, 0.00519498035596243, 0.005676142567624964, 0.0004886877492526664, -0.006147158928062017, -0.00018089939346759536, -0.017005616143859016, -0.0013255340301921627, 0.007045394520526622, 0.018644417571693165, 0.012332243859946164, -0.0013383964120643888, 0.019818233968253336, 0.020424015516702768, -0.003802415094618841, 0.005777377642995366, 0.019676858394106222, 0.0315749155710391, 0.026191136669821428, -0.0037101506645786544, 0.015792182633165154, 0.006458624901520462, 0.0007273301487223608, 0.007984453059252685, -0.014309804910019937, -0.0076808696401702925, -0.0002212698839021758, 0.009307386545563921, -0.01821690453729095, 0.03034898948289557, 0.004450474336643104, -0.010214718337905097, 0.01640108800866602, 0.015878798271509797, 0.004297674967373549, 0.012313426538681454, -0.0026756832025035164, 0.035527026320797635, -0.005101251767592244, 0.018936975091101094, 0.01430172482059705, 0.03963816741910216, 0.014804251049345752, 0.0033175242963049854, 0.008909287650776167, 0.01160190115327382, 0.013128995914927787, 0.001370890106235423, -0.002673992719420498, -0.009084576288066894, 0.014421590052216856, 0.007184166168150075, -0.013619277026860733, 0.001022292411026464, 0.03617784312493632, 0.007300116226123575, 0.02192166023440076, 0.0004900676439718013, 0.029299854597896458, 0.020560214195476493, -0.009142516860477653, 0.006057306486659752, -0.0032983296497125086, 0.0011812892253094008], [0.020882811829546613, 0.017962284174495857, -0.0038978223016584057, 0.0009972838473787354, -0.003945386911356428, 0.006698619856147824, -0.004496542833331343, -0.0018483100291988522, 0.03655471864288606, -0.0026053035893665324, 0.005051802525587011, -0.025546919834290166, -0.00894968032316494, 0.008816510188112128, -0.0036485458999330144, 0.004278207309251527, 0.021177252422267992, 0.0017256485228238578, 0.025983430193261683, -0.007866179742394692, -0.004992963765986694, 0.04393220849684999, -0.0008868036032133944, 0.013664899329527693, -0.00035785228688066845, 0.026687019698467852, 0.015651322969884286, 0.01053981804242648, 0.003752904368475615, 0.019092963989731277, -0.003755238328933605, 0.003066575887040665, 0.010647542082854488, 0.018677149389860745, -0.00953674396288807, 0.020120297599549017, -0.007386682788094151, 0.0036735143472063263, -0.005157697297450421, 0.04416897146075303, -0.005078436070422715, 0.014561109300678056, 0.02184424326840357, -0.007736570125671557, 0.029691851287946436, -0.0018170228184806148, 0.021188672991589656, 0.0040913054314331235, 0.012574937728622188, -0.007390183760962083, 0.005673377293072383, -0.01929270077565519, 4.81786462547992e-05, 0.008027684522423055, 0.02656741140585736, 0.007157481756349044, -0.009182780521936822, -0.00010711500568338605, 0.010683962304734406, 0.02180272818661511, 0.00018314634034626668, 0.012274258387944399, -0.004723856465606024, 0.010648937892528902], [0.002736621189214526, 0.011533626765450342, 0.012788068367498025, -0.01079922151473493, -0.01098668894404744, -0.004435234373502795, -0.009306323801055841, 0.004860644656334179, -0.017293971341888415, -0.009484257029812423, -0.01819556305053689, 0.008929969230379255, 0.0066248270980902085, -0.0007563882490202882, 0.0003750897625920161, 0.005325792823510413, 0.004544159474127251, 0.004176168526298901, -0.020913412834119575, 0.005588241927028391, 0.019009300934990734, 0.001579557269803971, -0.001885459368892848, -0.007247930152361322, 0.006085458466652878, 0.029605500146844935, 0.0032467606945628213, 0.0057466840588396, -0.0025411095710400175, 0.018890728093319546, 0.010982629240634003, 0.001611816236459274, 0.008097531438913314, 0.017040328129550957, -0.013982085258608086, 0.007937131310990005, 0.00213147081419319, 0.004845719028343397, -0.013918789885462806, 0.012938895724647239, -0.008372678700911617, 0.02306763097599102, 6.123858640897409e-05, 0.013339293483549588, 0.011712180501412461, -0.006652694263435846, 0.004489089601976036, 0.016780847746885257, -0.007620127243807747, -0.0027479568252054974, 0.031849485491838476, -0.002805884564519377, -0.017230832150883335, 0.0012998489125173548, 0.003540036269398407, 0.0057761675314978314, 0.016488659680271366, -0.011620532183113158, -0.004308561970734874, 0.009278950453222346, -0.003824535700325185, -0.016213608886928573, -0.00665120215320281, -0.00494134143593903], [0.023620502485166527, 0.016543007000814628, 0.030564328925379722, -0.004727497571875481, 0.013809138806092856, 0.013791593720096989, 0.0008099077905829157, 0.004136786884416312, 0.024505811691562213, -0.013926824233876204, -0.006211215552805525, 0.009837894160411547, -0.0004978246458935312, 0.020296348951995287, 0.012022314418276657, 0.00669140681836649, 0.01104326419197962, 0.00644049762062235, -0.00366573246270356, 0.02118741144817463, 0.014512244192421494, 0.0014503675358157448, 0.013681363132992818, 0.018302607134695507, 0.0010601017753315838, -0.008152514939446735, -0.0032562009229344956, 0.008477414095072465, -0.012793770284667248, 0.03548789429198854, -0.008491477375194553, -0.0067797443627445365, 0.008262845892291919, 0.01533544981106431, -0.002017320442050241, 0.010000633807341883, -0.004689228883646267, 0.0146393577238579, -0.014070205104206175, 0.009570987922373105, -0.0031981629478939877, 0.010362903896428183, 0.009944779786912503, -0.004459519430961692, 0.011055013593853033, -0.005511960352773033, 0.011096191105904693, -0.010962836307430309, 0.01631056119103194, -0.0035504535017017824, 0.028215811376645646, -0.019657806340417232, -0.019145523609723297, -0.007604631846566465, 0.019079486452232824, -0.02593034482340629, 0.016234406604158404, -0.012315357671370052, 0.0182454969399165, -0.007182384594625275, 0.000560591108231137, -0.0020666486201548046, -0.0018544284735009023, -0.004519892780551786], [0.007271765718473257, 0.012831302933461377, 0.0042699529088491535, -0.01977475115350496, 0.0012381815595435216, 0.012102103521411865, 0.0018749672417700078, -0.00844322991277245, 0.006888284455957416, 0.012600605114406234, 0.0004364849466243705, -0.006476333072341943, 1.3575826716756287e-05, -0.0016943179305018282, 0.0035846825011930017, -0.010750869444291386, 0.01103307980421511, -0.007172198430302297, 0.00771617729352747, 0.0021965410713728835, -0.0046920908822240355, -0.0014496864753529585, -0.008827443483488597, -0.0023303113983029916, 0.00282583682063464, 0.00036126941467457604, -0.007380588381495555, -0.0073155581039170275, -0.004895242062437581, 0.00937999659295026, 0.01905803568726777, -0.02283370749061721, -0.010837486059382727, 0.0030914151291637614, 0.004414602062810845, 0.0011749579497617017, -0.013189507738381456, 0.0036591451838364555, -0.01290847070030028, -0.0064719543322067155, 0.0011235742922172517, 0.0029198592928979424, -0.0038025561908867655, 0.004021826643096578, -0.008151576009638737, 0.0018781446327294743, -0.0036374878206259925, 0.013070391887588595, -0.007205664539506486, -0.004452522894666358, -0.0028066337218604644, -0.011733773312990919, -0.001676911639717096, 0.015508383948911344, -0.004792000543957499, 0.0012970693558120017, -0.021419577586908795, -0.010927805608472533, -0.005517816329460542, -0.021726379850323694, -0.0007829752785212859, 0.0062076799862490865, -0.007763626422346038, -0.00216393006062195], [0.05160813746196995, -0.0011700383710860783, -0.05748268193257183, 0.026970755531473344, 0.012885422065252306, 0.035151785892415285, 0.015641919814061704, 0.015438176916255587, 0.04062292593982405, 0.010001342649617051, 0.0179621446476493, 0.02874688498437611, 0.0009385377449926332, 0.04063886144471899, 0.006543348274372226, 0.046381397203228425, 0.031515500767759816, 0.0029070611285088714, 0.03488739568541403, 0.01873529029346163, 0.022416495215365276, 0.040268864553488666, -0.0011549191922019687, 0.018050085200743544, 0.020533883400666843, 0.012940369091659805, 0.011673504999194995, 0.0013673872668958681, 0.0030425506335531364, 0.022108832923545475, 0.0271476649069482, 0.009624209737463885, 0.02612273459883369, 0.031288558266585095, 0.01488310420485659, 0.045667641141935306, 0.014532918572962301, 0.050705039059752294, 0.021301797472161866, 0.053254312885312814, -0.006177316736941109, 0.03884055764235182, 0.050002180829205246, 0.0036686670011868952, 0.046016732404634574, 0.018485949693176983, 0.05266244468555955, -0.026993157750333098, 0.03215269807190462, -0.027254503195907942, 0.026915034103080035, -0.01271164446698011, 0.01696581654984743, 0.0326101943196333, 0.04130018068248471, 0.02640412482579066, -0.0008849160314042941, 0.0036305539256044467, -0.0049456602930203425, 0.03869015642868823, 0.013273514989996349, 0.04901450037268544, 0.014884643139838118, 0.02504368260868542], [0.05401022575633466, 0.008514567468397875, 0.012911683168848793, 0.0016596130508155713, -0.0023795616415360488, 0.018325923301304607, 0.010399216553551551, 0.0010159659030276986, 0.02530292733180357, 0.008515799219834171, -0.005197425650746415, 0.02947654440123743, 0.008614095057241986, 0.02580302930800989, 0.030996725187386602, 0.028496451139208758, 0.0329755957331099, 0.007432154598512399, 0.018471922961891308, 0.023418698763901846, 0.0197125018915735, 0.03110038562516788, 0.00516187482288581, 0.023357682743058363, 0.015095747825446369, 0.01059842997149643, 0.023334981664219653, 0.010611454445504048, 0.0026287680551749333, 0.034415654602977526, 0.022396632106339142, 0.010328406334274244, -0.001979210286039468, 0.01461693404812757, -0.002630721676578352, 0.023887723080101876, 0.004967080455799105, 0.008436941956624039, 0.03217324856015045, 0.02079929742852623, 0.0004119377953254132, 0.02046394066947474, 0.024536057960898448, 0.01925636264622798, 0.02337445978162136, -0.006570195943020984, 0.014429918605346594, 0.015105284651993066, 0.04092972367634996, -0.00707822624840229, 0.01742770044603747, 0.016273233980168177, -0.0012417874819350243, 0.005605497594226278, 0.034919169298887255, -0.004782795342554572, 0.027650724188352998, 0.009687273878386122, 0.011582976986529575, 0.02040486129505114, 0.010418476849610466, 0.003547563668080664, 0.00412575442010602, 0.023255439401126426], [0.03271820509620628, 0.01034352739318077, -0.0046919369876501325, 0.025888507828404, -0.0057576775760670735, 0.017604286752795174, 0.013066817680447233, 0.013398462506270536, 0.031072950538216355, 0.01754405615006398, 0.027462395895819624, 0.01920246512860458, -0.01532952741734093, 0.05092481659191299, 0.003547156077058813, 0.03884742055981965, 0.022199779229620638, 0.024798521793922317, 0.04081663716412916, 0.025224384152127438, 0.012079664629377549, 0.04037130671673232, 0.011529026666129191, 0.026080616107162856, -0.021058782307512153, 0.011061802077579778, 0.003584254144549941, 0.017971035880969547, 0.005722420284496441, 0.022031816717114742, 0.021953222172450007, 0.008571589655941335, 0.04252814593135896, 0.015140548943201285, -0.010167304898544394, 0.02877521171711756, 0.026314616397774975, 0.048146930112192225, 0.010044117799676096, 0.045797090756204986, 0.01602159270530505, 0.010795010172605986, 0.027297473941116004, 0.010640799635396585, 0.02486762296142625, 0.02729346689310164, 0.03837751437893624, 0.009453281469680259, 0.05512332625807, -0.0067756810221494095, 0.018417006807493034, 0.014161804506707325, 0.03094559150149307, 0.013635730971848446, 0.0440291355646874, 0.006405962679913749, 0.011340515244389218, -0.005695931387523079, 0.012216425844911631, 0.03604526439519337, 0.013909491220691177, 0.02992792038658161, 0.00366019703261832, 0.010185142035112426], [0.031141064386514525, 0.003358463124895612, -0.047959778374467354, 0.009183515340936654, 0.009735068714870941, 0.04139933723006477, -0.0009437822816868573, -0.021543849376192154, 0.04066303901456296, 0.010062149475307387, 0.0346999895266128, 0.02433986758151896, -0.005624637970985089, 0.04364755254667996, 0.052747440470418495, 0.03566135108727788, 0.04765297841410608, 0.016248443893885696, 0.03264015868712088, 0.031581106761622395, 0.025519514754203974, 0.029240632184101712, -0.01795036056552936, 0.027674812434674873, -0.013954976515463487, -0.0007500734342407515, -0.023743460088063183, 0.040902517770078264, -0.011578606592892036, 0.03240903258817336, 7.054406104029193e-06, -0.010476990829290081, 0.02118609412759283, 0.009248866268755974, -0.004271302596543829, 0.05950111659751079, -0.001436041475636216, 0.057378662703622185, -0.020221185250096647, 0.053997713559916276, -0.009088235682599574, 0.03885212975788808, 0.033297428625763736, 0.015662870930225527, 0.04546409633855922, 0.02770597587970102, 0.03913862938384591, -0.017458563640797474, 0.003649586561718205, -0.0005861990614984717, 0.005785133308954929, -0.00430665256221885, 0.007488212259455681, 0.031281140488824126, 0.05808758531881175, 0.032382848760393886, 0.023251661771027582, -0.01702334972849454, -0.01205509718119138, 0.03359162552524044, 0.010036960664557244, 0.05858400348205462, -0.00760843338636672, -0.00024610832023788675], [0.0035230896193822413, -0.005942207198457802, 0.005027627496427639, 0.0006461277480706335, -0.003855158594525131, -0.005473758414772652, 0.00431237216817628, -0.0006029033213568396, 0.02552616238402103, -0.021129722535215518, 0.004330493923868763, 0.013694846422063757, -0.0065953572181739585, -0.008475165965262373, -0.010746962414969348, -0.01499758467603396, 0.02414916584200913, 0.0006552064791861416, 0.010953497835630228, 0.02204440988829142, 0.02009829104613907, 6.409894597915122e-07, 0.007486218964952084, 0.0035791194395285515, 0.004215964990982565, 0.0015859435339779016, 0.003644967806856093, -0.003712466576852284, 0.01226352527240248, 0.014281965153651262, -0.010152173195029271, 0.015481109113027003, 0.015580755251746294, -0.012576620445998514, -0.010419947581161344, 0.0031335725884518036, 0.011966576742982007, 0.024327542617233078, -0.014141838720959152, -0.00024694623007258984, -0.002793248975379683, 0.012454803067066868, 0.00431273678575649, -0.005230454686310365, 0.009265446091294337, -0.010698808748838289, -0.02230305501802259, -0.010000564625788797, -0.0002644369266666478, 0.003946865566122681, 0.001068307469410197, 0.008199221561828033, -0.007556878920465017, -0.00253412660401979, 0.026095014749634916, 0.004786746721809726, -0.012846220270317803, -0.0015321929755568488, 0.007519870756714386, 0.008900595484311262, -0.004027268798777254, 0.011948370187231515, 0.004096894759527509, -0.0037554984927933377], [0.04751814682089064, 0.0023677432439420643, -0.021475455901175368, 0.03642308001909809, -0.0028393592933906777, 0.041689558405610574, -0.004278336318218947, 0.006056504186421608, 0.03621821243494174, 0.016114081958421726, 0.01130881424052548, 0.03536972418471248, -0.01729737659148328, 0.046271566801531654, 0.00992823920078617, 0.024957614980296704, 0.03397108076436486, 0.018168900763273058, 0.02694299623561858, 0.010202827291431233, 0.00757001832052554, 0.03322015913567652, -0.0028262814414320627, 0.014064189573616598, 0.0010176638732622462, 0.012453753596438681, 0.0116384935308186, 0.006507212876292009, -0.04624297647934125, 0.04558339521243589, 0.034834387375664855, -0.00021506765107811313, 0.011410300446339958, 0.016638851801387227, 0.0057955797888256284, 0.0508792104304489, 0.007575861878585851, 0.03485169275214477, -0.011164182957804282, 0.021638240626263686, 0.006423342723119113, 0.04346139805520259, 0.03861841238693913, 0.015074899315055148, 0.04665965857489933, 0.021093510148564226, 0.038507723592121644, 0.0077649348749584835, -0.030256497706606156, -0.009205548168146567, -0.008394238977010512, 0.009922655383649576, -0.013040089609253066, 0.013080697640596174, 0.054465103843531926, 0.028669537925393444, 0.023476821987930753, -0.00034261413696734777, -0.018656482039362685, 0.03984510500126132, -0.0028095963918352545, 0.003723947995505934, -0.030753373897368905, -0.0010013050060099279], [0.04589804485313291, -0.006644478081240706, -0.05010528548171466, 0.024713516209477055, -0.0007271066249274154, 0.04930737380696812, -0.02740746496127164, -0.004945613920890357, 0.023450498131278995, -0.0027606104054833736, -0.0019764209971347836, 0.012048558161696568, 0.01413348930661884, 0.06150973668196811, 0.002365299459598923, 0.022126010245696045, 0.05298349263253449, -0.021275645906563036, 0.05406801822605039, -0.0033198361526396124, 0.018940772898928964, 0.05748806655355287, -0.02341142135106461, 0.023034341994706543, -0.020301396998538248, 0.003472168544478294, -0.016360801554221226, 0.037152710432593, -0.02965023854253438, 0.026595188978678463, 0.010890135000380729, -0.01473467318773599, 0.017932289903346593, 0.020243881053800417, -0.0026436605106170273, 0.05758821524313671, 0.0050308276012642344, 0.0668266345595898, 0.003178128190219724, 0.05148789337041262, -0.0021610265320861784, 0.06475283297939731, 0.049953761687357934, 0.02407624909307278, 0.04680852919535855, 0.028735747879228522, 0.03290519199080745, -0.0037556616417554955, -0.03618191692082265, 0.00261464625298064, 0.0020015844216909337, 0.0038691820479215874, -0.02755379572437897, -0.00037140803802069715, 0.02825769478669146, -0.02069978338972919, 0.02520631842784383, 0.022989270620379493, -0.02006423345290991, 0.036726570560020703, -0.003990456275538649, 0.02936419096752436, -0.01759435962459547, 0.004428854222509101], [0.04747167469671619, 0.009461482814078792, -0.02064017939587139, 0.017508511176943218, 0.013806170647132531, 0.03466654434993442, -0.008013194125948963, -0.010468933555959929, 0.035495550672101334, 0.013476877127131798, 0.01132417235238114, 0.028568759800934145, 0.010926859273051114, 0.042551005215285306, 0.005579630771361124, -0.00033713593826502385, 0.043131928588960505, 0.031063634177358624, 0.05949218842690682, 0.034824490273651316, 0.02097729563806607, 0.053576902380286326, 0.005275903550838661, 0.022143006672582073, -0.004153714296246865, 0.030506307465382635, -0.004409561274226208, -0.00921392237710087, 0.001419098215428535, 0.037720270279197825, -0.00484464046932433, 0.010655471828801541, -0.0018936588941786568, 0.015870257748392323, 0.010918501402991417, 0.05601307343397704, 0.010336353236211416, 0.05529386836073843, 0.009327647820256567, 0.045624820095167086, -0.006764048786208238, 0.06725561977288896, 0.034912437336565336, 0.008534017506806917, 0.04133610247793424, 0.0069042216268189755, 0.051087840116251185, -0.009171538234414071, 0.045083239908689766, 0.003561114469271152, 0.027113571954479773, -0.014504965596725655, 0.010205441052051466, 0.01833033968040537, 0.05820792725868799, 0.01525518680629358, 0.03294553448145822, 0.010060316332188913, 0.0008909122626663925, 0.07660910748487262, 0.0143908579988185, 0.034761024183834775, 0.014797813100004123, 0.009200770478603753], [0.049359442458292935, -0.024698086193742502, -0.005599207778400191, 0.007207283777579501, 0.00592549158211374, 0.02972370681629186, 0.016247256424819195, -0.0022752826323088615, 0.030485860623898405, 0.026835835817924984, 0.018056135977632646, -0.005187759771412763, -0.010474954780453788, 0.03029025863866275, 0.04200548600605906, 0.04310472439057234, 0.04915521097776294, 0.01429965650689424, 0.04557795983657482, 0.01607289375387574, 0.027468629464923826, 0.03327670157389552, 0.014397768060177056, -0.0028619537132266795, 0.0112010426924712, -0.0003838450068542117, 0.024827693559130625, 0.02226597542707676, 0.0066693521890603775, 0.034442551701118186, 0.02713440534373035, 0.014695246993128746, 0.023975270509575833, -0.00245690208728914, 0.004064552700218681, 0.03389234771259027, 0.02309840114830006, 0.04640206930412012, -0.004904770901599579, 0.03147774578859408, -0.005755290035521669, 0.03934002475784896, 0.018473706862258965, 0.013148555222494926, 0.027875489836592927, 0.019539419425586655, 0.03724249072019767, -0.007116278610679783, 0.019289555535739973, 0.00871865801233043, 0.050100539823951316, 0.023690342746574358, -0.0005757353381261266, 0.028416463524763166, 0.046894446255856516, 0.0054575635771835305, 0.021188329814210743, 0.004233569225755205, 0.011057418798852548, 0.03905214905944179, 0.0026614525559242675, -0.0008604474356769706, -0.01633573481375444, 0.027179310549903062], [0.009724798727608164, -0.00263815712831148, 0.00242882481058436, -0.011207277273961758, 0.015041999550813657, -0.01088392331887769, 0.012196544500756397, 0.00576809651026037, 0.025004190010926547, -0.005669877519034475, 0.012244891525835262, 0.011639368598416666, -0.01751461450443165, -0.0002623397154577873, -0.02239845900837023, -0.0008120252663871705, 0.005648893707631553, 0.020878269090763717, -0.012413670658416726, 0.004970787870399893, -0.004388233789170221, -0.007722761077215881, 0.0029006725373321015, -0.0025427535985712807, 0.0077118586340922095, 0.018459545007551006, -0.016348188041140715, -0.0020006049162807323, 0.016131000122179096, 0.0021295619103163946, 0.012712497768067526, 0.00047249116906483273, 0.0046964215815105065, 0.014918969366986525, -0.013931039100209932, 0.004675114685505302, 0.014125133094193134, 